-1.219882890582084656e-01 -6.687227636575697985e-03 4.917221888899803162e-02 5.889586731791496277e-02 -1.872549951076507568e-01 -1.798863410949707031e-01 3.151299059391021729e-02 -1.331170648336410522e-01 -4.863022640347480774e-02 -3.315199911594390869e-02 -1.942166499793529164e-02 1.751758009195327481e-01 2.368437685072422028e-02 5.656731128692626259e-02 -2.826567972078919411e-03 1.782367378473281860e-01
-1.720479689538478851e-02 -1.356250792741775513e-01 1.016168519854545593e-01 -9.181568026542663574e-02 -6.771322339773178101e-02 -2.678036130964756012e-02 -6.415093690156936646e-02 -9.906380623579023881e-02 1.334647387266159058e-01 -7.320179790258406205e-02 6.933484971523284912e-02 -3.105112351477146149e-02 9.377020411193369084e-03 5.368575453758239746e-02 1.300845295190811157e-03 -9.673389047384262085e-02
5.386470630764960549e-02 1.005189865827560425e-02 2.032486647367477139e-01 1.205545291304588457e-01 8.220839500427246094e-02 -1.556002199649810791e-01 1.882465556263923992e-02 1.613493412733078003e-01 -5.798837635666131973e-03 -4.294087365269660950e-02 2.316437512636184692e-01 1.346801966428756714e-01 7.022433727979660034e-02 2.779477275907993317e-02 -5.003404617309569619e-02 8.945330232381820679e-02
2.074485085904598236e-02 1.665192889049649239e-03 9.358554333448410034e-02 -3.249890729784965515e-02 1.469856649637222290e-01 -4.166861996054648659e-02 -5.823774263262748718e-02 6.684931367635726929e-02 2.806491916999220848e-03 -3.356093913316726685e-02 5.318160727620124817e-02 -1.478624045848846436e-01 -1.014802828431129456e-01 1.184961944818496843e-01 2.391745150089263916e-02 -6.188252195715904236e-02
1.028650552034378052e-01 -7.010456174612045288e-02 -5.719571188092231750e-02 1.553662307560443878e-02 1.068903207778930664e-01 1.416693674400448799e-03 -8.179267868399620056e-03 1.287149637937545499e-01 8.973371237516403198e-02 1.033540740609169006e-01 5.311743170022964478e-02 2.168038301169871937e-02 3.711017966270447471e-02 -7.261734455823896928e-02 -6.836607307195663452e-02 -4.303300753235816956e-02
-9.623488783836364746e-02 -2.232476696372032166e-02 -2.808127403259277344e-01 -1.310659386217593973e-02 -1.354033499956130808e-02 1.319942921400069913e-01 -4.372419044375420311e-02 3.999006748199462891e-02 -2.701361477375030518e-01 2.619364298880099903e-02 1.507003139704465866e-02 7.155069615691900253e-03 8.289863914251326127e-02 1.240178346633911133e-01 -1.054745465517044067e-01 -1.389275188557803631e-03
-1.102579757571220398e-01 -1.350442171096801480e-01 1.469780057668685913e-01 -4.074902459979056618e-02 -1.120734810829162459e-01 9.867885150015354156e-03 3.246071189641952515e-02 -8.392275124788284302e-02 1.058229729533195357e-01 2.235145308077335705e-02 -5.397490411996841431e-02 1.168877705931663652e-01 2.009891904890536915e-02 1.039046701043844223e-02 -1.000926122069358826e-01 -8.749093115329742432e-02
-2.685181237757205616e-02 -1.031017526984214783e-01 -4.049829766154288552e-02 -3.120507895946502130e-01 -3.098204731941223145e-02 5.935285612940788269e-02 1.903157122433185230e-02 1.180415898561477661e-01 -3.473458066582679749e-02 8.149939030408859253e-02 -7.612107694149017334e-02 -8.262937515974044800e-02 6.924495100975036621e-02 -1.336564421653747559e-01 -7.892350852489470048e-02 1.343418378382921219e-02
7.926063984632493453e-02 -1.322494167834520340e-02 -4.287471994757652283e-02 -3.642910718917847374e-02 1.303860824555158615e-02 -1.418085675686597824e-02 -1.591251641511917114e-01 -2.760628936812281609e-03 4.361262544989585876e-02 1.009540781378746033e-01 -7.494162768125534058e-03 2.285602688789368023e-02 -1.831205748021602284e-02 -4.607811570167541504e-03 2.784950844943523754e-02 -1.807640641927719116e-01
-3.249054029583930969e-02 -7.071861624717712402e-02 -1.132786795496940613e-01 -7.004933897405862808e-03 1.872774064540863315e-01 -9.032890200614927811e-02 -4.349606111645698547e-02 4.104333743453025818e-02 6.316285580396652222e-02 1.007664427161216736e-01 -8.771318197250366211e-02 -9.682022035121916337e-02 4.976361244916915894e-02 8.091021329164505005e-02 -8.145469240844249725e-03 1.587980054318904877e-02
5.097996070981025696e-02 5.882976576685905457e-02 5.308931693434715271e-02 -8.494807407259941101e-03 1.542722284793853482e-01 -3.993820026516913674e-02 -6.722313910722732544e-02 6.797321885824203491e-02 3.277135267853736877e-02 -8.589669014327229154e-04 -3.661646321415900490e-02 -9.072237461805343628e-02 -4.623303189873695374e-02 -2.023210003972053181e-02 6.599558889865875244e-02 -7.539873570203781128e-02
8.019641041755676270e-02 -1.096544507890939539e-02 1.878169365227222443e-03 -2.943032793700695038e-02 1.104918643832206865e-01 8.500798791646957397e-02 -8.090435713529585404e-02 -9.830206632614135742e-02 -2.533683553338050842e-02 1.562476307153701505e-01 -8.042506128549574418e-02 9.959382936358451843e-03 -1.030326113104820251e-01 1.073170900344848633e-01 5.126503109931945801e-02 -3.870714455842971802e-02
-1.047286093235015869e-01 3.077234700322151184e-02 -1.771614987596683011e-01 -1.703255064785480499e-02 -3.809527680277823708e-02 2.320100925862788807e-02 -1.018158422804556207e-01 1.224510332242159244e-01 -6.436688452959060669e-02 -2.183148322307104650e-02 1.542099416255950928e-01 -1.218831241130828857e-01 5.912997946143150330e-02 -1.069522425532341003e-01 -1.077404022216796736e-01 4.449043646570821631e-02
1.128804609179496765e-01 -1.232207864522933960e-01 -9.961645168144706020e-02 1.253809314221143549e-02 -1.285822391510009488e-01 8.030780404806137085e-02 5.574414092769176127e-02 -6.782965287991456205e-02 -2.922069979831576347e-03 6.154136541223653722e-02 6.638329476118087769e-02 -2.593148127198219299e-02 1.576904393732547760e-02 -6.255224347114562988e-02 -5.165698751807212830e-02 1.343551634506394699e-01
-1.375418156385421579e-02 8.557853102684020996e-02 7.699402558724877110e-02 5.833458155393599597e-03 -1.543651968240737915e-01 1.296626776456832886e-01 5.823607370257377625e-02 -3.058349527418613087e-02 -1.300451159477233887e-02 -3.917779826916456543e-02 -1.192248612642288208e-01 -1.044309809803962846e-01 -1.552973687648773193e-01 -2.796443402767181396e-01 1.252292841672897061e-01 1.229423626873220460e-01
-2.496908605098724365e-02 -1.687592715024948120e-01 -2.166754839820981063e-02 -1.136684566736221175e-01 1.134809255599975586e-01 1.029231101274490356e-01 2.931396104395389210e-02 -4.015734884887933731e-03 -9.168503433465954866e-02 3.120879108484431175e-01 -3.024705350399017334e-01 1.153338979929685593e-02 -2.590651810169219971e-02 -5.816124007105827332e-02 1.835922449827194491e-01 8.361586139687746111e-02
1.372406780719757080e-01 1.932036429643630704e-01 -8.699535578489302201e-02 3.323045000433921814e-02 9.254535287618637085e-02 9.190768003463743729e-02 2.038142234086990356e-01 1.091466322541236739e-01 7.399589568376541138e-02 6.411071121692657471e-02 1.178541593253612345e-02 -8.540045469999313354e-02 1.204684004187584062e-01 -1.749842911958694458e-01 1.689570210874080658e-02 -7.534065097570419312e-02
-1.408020555973052701e-01 1.310096383094787598e-01 2.161053270101547241e-01 -6.405741721391677856e-02 -1.104961037635803223e-01 -5.449878051877021790e-02 -2.860692143440246235e-02 3.250898048281669617e-02 -9.200837463140487671e-02 9.884458780288696289e-02 -5.333630368113517761e-02 -6.851798295974731445e-02 -1.000367775559425215e-01 -1.529335379600524902e-01 6.215130444616079330e-03 -5.780850537121295929e-03
6.272996217012405396e-02 2.061860859394073209e-01 -2.794499509036540638e-02 -4.480098932981491089e-02 1.708033308386802673e-02 8.488475531339645386e-02 -4.600770305842161179e-03 1.120035648345947266e-01 3.858909755945205688e-02 -1.463131792843341827e-02 -8.500095456838606400e-02 1.187665015459060669e-01 8.287145197391510010e-02 -3.788069635629653931e-02 2.699967101216315876e-02 7.841121405363081498e-02
9.621094167232512040e-02 1.088608652353286743e-01 -1.420791596174240112e-01 8.679860085248947144e-02 1.137019395828246932e-01 1.147809773683547974e-01 -8.926174603402614594e-03 4.420533031225204468e-02 4.368574544787406921e-02 -1.616665907204151154e-02 1.220765337347984453e-01 3.205839917063713074e-02 -1.378187239170074463e-01 -5.439456179738044739e-02 6.632543355226516724e-02 -2.686441503465175976e-02
-1.003811582922935347e-01 -1.014877576380967920e-02 5.503932386636734703e-02 -1.389917582273483276e-01 1.035775421769358218e-04 1.573373377323150635e-01 4.335486888885497353e-02 4.564694594591856003e-03 1.912817806005477628e-01 2.615768611431121826e-01 3.550652042031288147e-02 2.703836858272552490e-01 1.016255989670753340e-01 6.567167490720748901e-02 1.471392214298248291e-01 -1.311762779951095581e-01
1.021590009331703186e-01 -9.033085405826568604e-02 -1.266045309603214264e-02 -1.439384669065475464e-01 1.263905614614486694e-01 7.589184492826460404e-02 8.724140375852586227e-02 3.952097520232200623e-02 2.199207097291946411e-01 -5.563782528042792580e-02 1.033030971884727339e-01 2.286739349365234375e-01 -6.047637015581130288e-02 1.779267638921737671e-01 -8.073445409536361694e-02 4.877997934818267822e-02
-2.104053273797035217e-02 -7.016320526599884033e-02 1.443400233983993530e-01 2.335838507860898972e-03 4.562973603606224060e-02 -4.751683399081230164e-02 4.907547309994697571e-02 -1.294404733926057816e-02 5.382492020726203918e-02 -1.376485973596572876e-01 -1.318049281835556030e-01 6.598468869924545288e-02 -9.768491238355635209e-02 -5.608139187097548745e-02 7.176391035318374634e-02 1.175055503845214844e-01
-1.087838970124721527e-02 8.607848733663560348e-02 2.368488349020480676e-03 -1.565011739730834683e-01 -8.263857662677763505e-02 2.376575209200382233e-02 -3.216416388750076294e-02 -6.181959062814712524e-03 5.945375189185143211e-02 3.223092108964920044e-02 1.433884650468826294e-01 -1.759675741195678711e-01 5.214111879467964172e-03 6.781388074159622192e-02 -1.239499598741531233e-01 -9.775453805923460526e-02
1.785529851913451871e-01 4.754302278161048889e-02 1.071622595191001753e-01 -9.195606224238872528e-03 1.017223820090293745e-01 -3.709467500448226235e-02 1.175377238541841680e-02 3.524052724242210388e-02 -8.317082189023494720e-03 -1.491684317588805875e-01 -5.039980169385671616e-03 -6.599224358797073364e-02 -2.826691046357154846e-02 1.700632125139236450e-01 -6.317149102687835693e-02 -3.335561230778694153e-02
-1.870637983083724698e-01 4.418658465147017739e-02 -9.441236406564712524e-02 -3.783243522047996521e-02 -9.927918761968611283e-02 -3.547174483537673256e-02 -6.230578944087028503e-02 2.012146636843681335e-02 -4.615501686930655739e-02 6.221498921513556740e-02 -2.511247806251048695e-02 -1.400833129882812500e-01 3.153209388256072998e-02 -1.327913440763950348e-02 -1.930648088455199918e-01 2.888429537415504456e-02
-1.532785873860120773e-02 -7.431642711162565751e-02 3.893904387950896523e-02 5.003846809267997742e-02 5.587242171168327332e-02 -7.005661725997924805e-02 -5.150581523776054382e-02 6.435684859752655029e-02 3.248820081353187561e-02 -8.303997665643693404e-02 -6.451705098152160645e-02 -1.563362181186676025e-01 4.436821117997169495e-02 -5.834668502211570740e-02 1.407840102910995483e-01 9.660907089710236983e-02
-2.825075760483741760e-02 -2.948650717735290527e-01 4.625095054507256248e-02 3.063019551336764942e-02 -4.668818041682243347e-02 -8.732379972934722900e-02 -3.178086131811141274e-02 1.315670460462569913e-01 1.173301339149474959e-01 1.390465185977518342e-03 -7.732798904180526733e-02 1.615445166826247891e-01 -7.379982620477676392e-02 2.065338380634784698e-02 -9.543405473232269287e-02 8.040487766265869141e-02
-4.187108203768729470e-02 1.310138553380965909e-01 -5.625771824270486832e-03 1.039703115820884843e-01 8.087363839149475098e-02 1.037697568535804749e-01 6.207315251231193542e-02 -3.677247092127799988e-03 1.032700482755899429e-02 -7.664158195257186890e-02 7.779768854379653931e-02 -1.719419658184051514e-01 -9.962170571088790894e-02 -4.599902778863906166e-02 -1.073761507868766785e-01 4.924404621124268272e-02
5.062992498278617859e-02 -2.376305609941482266e-01 3.256784006953239441e-02 1.029505059123039246e-01 -1.096358448266983032e-01 1.050896644592285156e-01 2.213104814291000366e-01 -3.020641021430492401e-02 3.280752524733543396e-02 -1.425305614247917912e-03 7.411752827465534210e-03 3.232976421713829041e-02 1.851109564304352084e-01 -9.321765974164007360e-03 -1.747188530862331043e-02 -1.977396607398986816e-01
8.212793618440626664e-02 1.370995193719863892e-01 1.301713883876800537e-01 5.213615298271179199e-02 -1.849170029163360318e-01 -2.268211841583251953e-01 7.733955234289169312e-02 2.187506854534148823e-02 1.351537257432937622e-01 -5.978830531239509583e-02 -1.860491745173931122e-02 7.750968635082243485e-02 -1.161423847079277039e-01 5.150699242949485779e-02 -2.311515659093856812e-01 -1.196611151099205017e-01
1.801932044327259064e-02 2.726337686181068420e-02 -1.692290790379047047e-02 -5.952161177992820740e-02 5.237133154878392816e-05 6.088415905833244324e-02 -3.638955578207969666e-02 -2.211906909942626676e-01 -6.087537482380867004e-02 8.907001465559004350e-02 -7.753039151430130005e-02 1.969347894191741596e-02 4.207064956426620483e-02 -8.330823481082914872e-02 4.838851280510425568e-03 1.954990774393081665e-01
-1.634189039468765259e-01 1.474258024245500391e-02 3.637104853987693787e-02 9.512008577702879553e-02 -1.105240657925605635e-01 -9.953948622628978893e-02 -1.486609727144241333e-01 -2.924993634223937641e-02 -7.566575892269611359e-03 8.346952497959136963e-02 -2.257411833852529092e-03 -2.084060460329056064e-01 4.949498549103736877e-02 -3.814873471856116555e-02 1.161331087350845198e-01 -3.354404471616890399e-02
-1.003944203257560869e-01 -1.159978300386562550e-01 2.526481226784064171e-01 -3.190454700431999413e-02 3.884111717343329689e-02 1.033261310483463320e-02 1.433035433292388916e-01 -1.583850360475480340e-03 -5.452295765280724266e-02 -1.095982057498556816e-02 -7.352720946073533492e-02 -9.227036684751510620e-02 7.743141613900660601e-03 9.530328214168546849e-03 -3.727390617132186196e-02 -1.064854078355828848e-01
-2.965101972222327839e-02 8.065796350455105290e-02 8.638656797483142136e-02 1.064490306111428586e-01 -4.732660949230193398e-02 -9.733556505565894856e-02 -4.409897699952125549e-02 -4.909141940998064391e-02 -4.260222241282463074e-02 -3.220640206948967299e-02 -1.269263774156570435e-01 -6.843496859073638916e-02 -1.045059412717819214e-01 9.267544746398924393e-02 1.004329100251197815e-01 -1.943312523548300363e-01
-1.234513800591230392e-02 -3.556193695085946294e-03 -1.077995204311122945e-01 8.488489416117554753e-02 -1.629799604415893555e-01 4.675476591234987989e-02 1.301246788352727717e-02 -1.305425324244549323e-01 7.166092842817306519e-02 -4.419887007736966744e-02 -1.655644327402114868e-01 -7.538827508687973022e-02 -8.054842799901962280e-02 1.739509958153807323e-01 8.470545709133148193e-02 -1.031709654151480027e-01
6.499543040990829468e-02 6.131956953225236456e-02 -2.086725189029260685e-02 1.727670047278566101e-01 -4.334447905421257019e-02 -9.773665695319404267e-02 1.715248101390898228e-03 -8.530314154607970822e-02 -2.737204730510712017e-02 1.181267255613961814e-01 -7.529087364673614502e-02 1.293767094612121582e-01 -4.343158164284181139e-02 -4.803209565949151383e-02 -1.367729343473911285e-02 1.166435860832589211e-01
-1.360543221235275269e-01 -1.224475565782944947e-01 5.070106849260653387e-02 -3.475339858360346201e-02 -2.389248758554458341e-01 -3.548669873947110642e-02 7.831363007426261902e-03 -4.696896754521972389e-02 -9.139233827590942383e-02 -7.532392564404861990e-02 3.877924964076119585e-02 1.863273978233337125e-01 9.811582675165922418e-03 -5.568663916467637282e-02 -8.194041499436360843e-02 1.481250125172145363e-03
9.054937958717346191e-02 -5.294926024847158852e-02 6.191806955982820382e-02 -7.482671893315123723e-02 -6.589557230472564697e-02 1.450361754570150541e-01 1.797749288380146027e-02 -9.852803200005944353e-03 -8.563129603862761063e-02 -1.690372716784365251e-02 7.929943001172939931e-02 4.571541398763656616e-02 -4.817044828087091446e-03 -1.449272136383096543e-01 -1.744736397936252556e-02 -5.191637182618068919e-02
7.888524979352951050e-02 3.854108682144759962e-02 3.074118471501546129e-02 5.502742009269035589e-02 4.733709618449211121e-02 -1.086723431480331320e-01 -1.091112717986106734e-01 4.066412735207595996e-02 -9.088532626628877120e-02 -7.801904956660671298e-02 1.610496719771159664e-03 9.061034768819808960e-02 5.120409207901754217e-02 -1.399860172485525578e-01 7.771252595261524121e-02 5.434571851718414393e-02
1.116525940597057169e-02 -8.684733666329222390e-02 -6.655010985446953298e-02 -7.701441483494409282e-03 -2.942022308707236897e-02 -1.968963608801409804e-01 9.510525597746302684e-02 -6.396788175050389935e-02 1.270093917846679688e-01 -6.759149574582991316e-02 4.711372405290604332e-02 -2.094310075044631958e-01 1.790049989702329203e-01 2.069004353978520783e-02 -4.314500835587003341e-02 4.740524407990249350e-02
-6.542879521554195721e-02 4.859145077130173906e-02 -1.153204310829925167e-01 5.632458443275220605e-02 -1.491299867630004883e-01 -1.795020172729656915e-01 1.659584147691770262e-01 -2.246519324174429955e-02 -5.269815027713776329e-02 -4.594401166145464267e-03 -1.279931813478469849e-01 -7.476144284009933472e-02 9.272510753191088792e-03 8.309959612466853718e-02 1.305818193142356809e-01 3.966614527229679610e-02
9.922350733430652936e-02 -1.681068866332346146e-01 -1.129871386772621916e-01 2.721370199202103463e-02 -1.670155823230743408e-01 -6.322205716614998083e-02 9.930257094479788549e-02 -5.062252722186731668e-02 1.003443524241447449e-01 9.747077846826438657e-03 -7.307627703994511691e-03 -2.260677516460418701e-03 2.174682106425172012e-01 1.010300807364217235e-02 -1.296319701780357658e-01 1.631833333460107061e-01
3.124696839470864074e-03 4.311157793606239241e-04 -7.855851145752537623e-02 -7.798974167252389900e-02 -7.886527478694915771e-02 -1.077796731239685640e-01 3.028238720205428391e-02 -9.208600539502250978e-03 -1.462559252977371216e-01 -1.590239461840351476e-01 -1.040457338094711165e-01 3.580008274573898142e-02 -6.449613190850600475e-02 6.122633442282676697e-02 -8.602868290738861778e-02 -6.775164844563470561e-03
-1.975300698859106530e-01 1.057813157712165636e-01 9.979261035019330872e-03 -1.156057322281188460e-01 -1.541992276906967163e-01 -3.770387812926311033e-02 4.202897846698760986e-02 4.640239206184473136e-02 -3.365883831413896132e-03 1.191147558940476754e-02 -3.891591355204582214e-02 -8.859159811350814095e-02 -1.615817703488476309e-01 3.605636060237885077e-01 1.462884946494557963e-02 1.526616612513212734e-01
-1.062671393156051636e-01 -5.668666024603430387e-02 -1.951257270987397444e-02 -1.302044120195212928e-01 -4.444168880581855774e-03 -4.795281162669990521e-02 -1.058910191059112410e-01 1.640016220592649954e-01 -2.572729416744251596e-02 3.798721423600043973e-02 2.766665741975771198e-02 1.179457694195282791e-01 -2.978996772077101285e-02 -2.329975515604019165e-01 -1.028235093654092797e-01 4.224542115107275675e-02
7.012622058391571045e-02 1.718082742133323348e-01 1.029371897447056705e-01 8.520465334962779025e-02 -1.965119317173957478e-02 -2.080991978337628778e-01 -9.738226979970930619e-02 3.515612654121283431e-02 6.192459508008596458e-02 7.803558454839426561e-02 -6.844066018794592310e-02 -1.026606344179516739e-01 1.504750694424733248e-01 -9.331767261028288407e-02 -2.027069878281375914e-01 -7.683569144218657665e-02
-6.410462409257888794e-02 -2.175295488488603046e-02 1.995827232522921213e-01 1.314782478413192846e-02 7.390603423118589921e-02 1.382335573256280592e-01 -3.123912513256072998e-01 8.485976923417928863e-02 7.829657942056655884e-02 -1.291993962000204388e-01 4.916178127194825720e-02 1.587343402206897736e-02 -1.117040365934371948e-01 1.563508627211973590e-01 -1.097796913251269935e-01 -6.604222463128701925e-02
1.894851326942444125e-01 -7.652558371666280668e-02 -3.011999153459769471e-02 4.720394685864448547e-02 -8.921910077333448930e-02 1.167417502734289722e-02 2.761088497936725616e-02 -4.845426512340696157e-02 1.314355880022048673e-01 2.692165285546613968e-02 -2.133930549466178314e-02 -6.583356857299804688e-02 -1.342961341142654419e-01 2.730682858340572131e-02 1.173750684136858347e-01 -8.109543042861454276e-02
4.808617383241652748e-02 -8.791526179382093409e-02 2.635664623918707386e-02 -6.410594284534454346e-02 -8.131235837936401367e-03 -6.804649136311627378e-02 1.510362923145293912e-01 5.172248278594624576e-02 -6.783463805913925171e-02 -1.263472690492947227e-02 -2.949677966535091747e-02 -7.587774842977523804e-02 -8.654881268739698930e-02 3.855665613303926875e-02 1.216562539339065552e-01 1.266546528730915222e-01
2.852557227015495647e-02 -5.261986330151557922e-02 1.215989738702774048e-01 -2.967783808708190918e-02 6.152764707803726196e-02 -6.756486715799885079e-02 -7.972032763063907623e-03 1.052895391921177398e-01 1.354342699050903320e-01 1.520154883091078546e-01 -2.736498601734638561e-02 1.606815159320831299e-01 -1.215972900390625000e-01 4.170197248458862305e-02 -4.496528580784797668e-02 5.824135753939536919e-02
-1.970722526311874390e-02 -2.495966851711272846e-02 -1.245072931051254134e-01 -1.964451745152473103e-02 -5.271971225738524697e-02 4.373676064226116739e-02 -2.115131318569183627e-01 -2.610288092230454715e-02 1.527017331682145596e-03 5.719823112963595690e-02 6.786512210965156555e-03 6.139760371297597885e-03 3.411059081554412842e-02 -1.276834607124328613e-01 3.332662954926490784e-02 5.430432819020992313e-02
-4.320915788412094116e-03 1.678572744131088257e-01 -7.715850323438643021e-02 -1.714796386659145355e-02 -3.674465790390968323e-02 6.206015497446060181e-02 -1.682880669832229614e-01 1.159964948892593245e-01 4.741328582167625427e-02 8.494206517934797807e-02 1.065518409013748030e-01 8.664425462484358353e-02 8.542308211326597733e-02 2.530686929821968079e-02 1.460800170898437500e-01 -1.464104503393173218e-01
9.866618365049362183e-02 1.703250259160995483e-01 9.210450947284697099e-02 8.014883100986479325e-02 3.322421759366989136e-02 -1.502369940280914307e-01 -3.505462780594825745e-02 3.898564027622342543e-03 8.310005068778989964e-03 -3.857187554240226746e-02 -1.535985767841339111e-01 1.261564493179321289e-01 1.275862753391265869e-01 1.480398233979940414e-02 1.295446008443832397e-01 -7.860206812620162964e-02
-1.186007857322692732e-01 -2.206194251775741300e-01 -1.047029644250869612e-01 3.352247923612594604e-02 5.302492901682853699e-02 -4.052914213389158249e-03 1.412000209093093872e-01 4.016290232539176941e-02 -1.539154350757598877e-02 9.125193208456039429e-02 -5.446004495024681091e-02 1.218268871307373047e-01 -8.864365518093109131e-02 1.191820651292800765e-01 1.004550084471702437e-01 -1.637650430202484131e-01
9.360725432634352250e-02 -1.207297444343566756e-01 -7.660701125860214233e-02 5.314910411834716797e-02 -8.932678401470184326e-02 1.189040094614028792e-01 3.187058493494987488e-02 1.621016710996627808e-01 4.157439991831779480e-02 -4.446620121598243713e-02 -6.844602525234222412e-02 -8.145654946565629440e-02 6.531211733818054199e-02 8.158108592033386230e-02 1.479823440313339233e-01 4.006395116448401711e-02
-7.666428387165068192e-02 9.254112094640733199e-02 -3.484019637107849121e-02 -1.146930828690528731e-01 -7.036637514829635620e-02 -4.422269761562347412e-03 -2.382203005254268646e-02 4.113468900322913430e-02 -5.789852142333983681e-02 7.120309025049209595e-02 -6.015210226178168557e-02 -1.139237657189369202e-01 1.117743179202079634e-01 4.594758898019791343e-02 1.591451615095138272e-01 -1.061881184577941756e-01
-8.215261250734329224e-02 -7.494154572486877441e-02 7.032563537359237671e-02 -1.234351471066474741e-02 7.018185686320065585e-03 -5.553544685244560242e-02 7.611915469169615832e-03 3.339363634586334229e-02 -2.191901504993438721e-01 -3.116528131067752838e-02 8.165086060762405396e-02 2.899995446205139160e-02 2.868409827351570129e-02 2.112433761358260831e-01 -1.148725375533103943e-01 -1.435781866312026700e-01
-3.476845845580101013e-02 -1.399440914146093118e-01 8.404954522848129272e-02 -9.114808589220048385e-02 4.391748458147048950e-02 -1.687730700859692845e-01 -2.196664735674858093e-02 1.398807499012819644e-01 -6.408420205116271973e-02 -1.922982186079024922e-02 -2.654271572828292847e-02 8.604807779192924500e-03 2.465819567441940308e-02 2.520399354398250233e-02 2.907635569572448730e-01 -1.488725841045379639e-01
6.890859454870223999e-02 4.454595459261234680e-02 6.194879487156867981e-02 -9.670551866292951756e-03 1.144124493002891541e-01 1.449663285166025162e-02 -5.740989372134208679e-02 5.158317275345324603e-03 2.811191678047180176e-01 2.500806748867034912e-02 -1.016837581992149214e-01 4.590309690684080124e-03 5.006444454193115234e-02 1.224337816238403182e-01 -5.594944581389427185e-02 1.523412713805507024e-01
-5.856962502002716064e-02 8.466090214923344126e-02 -1.063308516053169256e-02 7.703961523790950339e-02 7.508216053247451782e-02 -5.606170334210012346e-02 -1.760324984788894653e-01 4.370594769716263511e-02 3.021217882633208882e-02 1.465227565014881606e-02 6.101263687014579773e-02 1.552167385816574097e-01 1.215109601616859436e-03 1.930556391016580164e-05 -7.419973611831665039e-02 -1.380217998756780862e-01
-7.550106849521398544e-03 1.167459320158062280e-01 -2.840331578925436862e-03 -1.225157623447252764e-01 1.693750917911529541e-01 7.010149863612635812e-02 1.471414323896169662e-02 -2.088312183634368976e-02 -9.180530510107587361e-02 -9.908525846094642930e-02 -8.559550344944000244e-02 5.744053423404693604e-02 2.971400403379598557e-02 7.592765986919403076e-02 5.797026306390761635e-02 -3.228120212173433978e-02
-3.428491204977035522e-02 -1.185751177904789157e-02 2.175633916813811755e-02 9.840273641271855831e-02 -1.466201692819595337e-01 7.656090349931810035e-02 -3.920705616474152305e-02 -4.707799602377652631e-02 -2.345169718353190547e-03 -2.156243511614582831e-01 -8.340439200401306152e-02 -4.762637987732887268e-02 -1.589002056981866223e-02 -1.307650059461593628e-01 6.191115826368331909e-02 -3.674627113013551744e-02
4.211037233471870422e-02 3.966094046996462147e-03 -2.184997142204782306e-02 1.557122732083482397e-02 -3.188739763572812080e-03 -4.628558423861140608e-02 -6.554901599884033203e-03 -1.156231992820264259e-01 -9.631189766901118721e-02 -1.679213088774484941e-01 -5.858713388442992470e-02 -8.278003893792629242e-03 -1.597499177792783276e-01 -5.284442486456135228e-03 -7.616263814270496368e-03 -2.136264520337862773e-03
-2.659809096859255817e-03 2.082594624306154107e-02 -1.609286713413182468e-01 5.265272562866965371e-03 -1.423817574977874756e-01 -1.274346476336334633e-01 -1.677537262439727506e-01 -1.400969676710266676e-01 -1.401979928723768865e-01 5.530375470779692881e-02 -1.625104248523711881e-01 6.221738643944264326e-03 -9.773590717101855729e-02 1.994842352720761491e-01 3.969304431913771997e-02 1.947900315574397911e-01
-4.240200846502520382e-02 -7.431418365682489202e-02 1.568202853304303535e-01 -1.033489199501488355e-02 -1.177190095186233659e-01 -1.853325508287221104e-02 -1.088510900735855241e-01 -4.404911101322580430e-02 -4.044043878393763919e-02 -1.882172110543001708e-01 -3.596518529700332145e-02 -2.443944062726244315e-03 1.920983745474698079e-01 4.894932506345893442e-02 -1.058742382269101025e-03 -1.110733007027648461e-02
-1.542563743069685044e-02 1.127492923558404830e-01 6.496734112538343764e-02 1.380396317973573428e-01 3.822032734751700661e-02 -7.138517064239741083e-02 -2.713994226590799030e-03 -1.223047185306565948e-01 1.748881263846219503e-01 -6.325732687029120803e-03 1.639411413838914033e-01 9.164241660782934673e-02 6.543165898811410808e-02 2.463388847376881963e-01 1.804678240802297731e-02 -3.916764904396943109e-02
-1.733565483286209075e-01 -8.951665408252554301e-02 1.313504544532980989e-01 1.182104329817397631e-01 -3.805949538946151733e-02 4.145726586882621939e-02 4.978623788726465466e-02 1.689520477334247595e-01 1.115487149439495645e-01 9.809092106091368488e-03 -5.891589244578672446e-02 2.404068038367871904e-02 -1.563153482832000951e-01 -1.012834649910949875e-01 -1.679533628530699985e-01 -1.067938921525722097e-02
-6.559895729860393265e-02 -6.147809680147924005e-02 9.539960381628546926e-02 3.189636439128152451e-02 -8.053537458181381226e-03 -3.527519216364199354e-03 1.831312723346059101e-01 1.033197169657668196e-01 -6.476640664020739957e-02 -5.591848996890591561e-02 -1.329845434393575054e-01 -7.106868037390481896e-02 -3.024367219831263984e-02 -2.010860339401018826e-01 1.122785160174987439e-02 -4.260737531585480722e-04
-1.331311965886279869e-01 -7.780082120238333843e-02 3.106206721889764183e-02 9.795520739717690495e-02 1.639181524515151978e-01 -1.637459020453472039e-02 -1.503139601671250603e-01 -2.613412454462635814e-01 -1.007713338757718624e-01 -1.055181405724490290e-01 1.205488566962525931e-01 -8.818837912736725293e-02 5.619221760961448653e-02 4.239517845989835415e-02 -6.809969735397014556e-02 1.933468404093795778e-01
1.031713654731978153e-01 -2.418838870713654332e-01 1.166794454496499628e-01 -2.016158640648301262e-02 -5.168327316641808250e-02 1.041330592473335287e-01 -1.242516702566024839e-01 -7.497962254903101087e-02 4.995543414117698672e-02 8.576173646024071173e-02 -4.231690431315127121e-02 1.142645530253431491e-01 1.665045800249918481e-02 -1.865921609949568183e-01 -8.756094100211228581e-02 9.152636235979690060e-02
1.962701717087932674e-01 2.410971970948004861e-01 -1.149940782030323266e-01 6.234184417425631120e-02 -1.157851293683052063e-01 2.415426482520675530e-02 -7.831724334642142793e-02 -5.064588394580937097e-02 -9.279623135181469529e-02 9.510978532175709543e-03 -7.662105478556524574e-02 1.242785028756422314e-02 -2.693652707497990600e-02 3.595637836034516754e-02 -8.638578163825923195e-02 2.419243310926472851e-02
1.637950145232814833e-02 -7.119397555042010495e-02 4.447045080055645611e-02 1.418025939625178200e-01 6.560713797807693481e-02 4.921677613724446260e-02 -1.423304292373224200e-01 4.941503192076725226e-02 -2.062316463265156385e-01 -1.834510257189650717e-01 -5.529188429207790301e-02 1.764054342852153234e-02 1.148949212607896786e-01 -1.607593317529641130e-01 9.817553320514120496e-02 -7.541521399566728477e-03
-4.182988963518933156e-04 2.144753447443710215e-01 9.407147679787403183e-02 2.110027454758160725e-02 -4.372897744178771973e-02 -9.081129840816272447e-02 -4.785544946992815324e-02 -1.649160398071473910e-01 8.320441073405107635e-02 -4.024561547376397791e-02 -3.247171890412951095e-02 -8.672489431928348536e-02 6.386832603298439603e-02 -1.036979332566261153e-01 5.313159957251126220e-02 -1.514866813968298587e-01
-3.627626399690291742e-02 -1.535295496870070775e-01 -1.352833332850293668e-02 1.208679237627951625e-01 -1.305343657732009888e-01 -7.834912472886218504e-02 -4.907486094160518064e-02 -1.048201469882533016e-01 1.974961431665133924e-02 -1.750590133782211483e-02 7.183578810135986259e-02 -1.541623984587721548e-02 1.196648295312324195e-01 3.652200727621117849e-03 -1.014930562340441850e-01 -6.815485302009731058e-03
-1.006712391196738082e-01 -2.944740578328782638e-02 9.861352372155374191e-02 1.244722469009021670e-01 1.335916239681956552e-01 -7.387669446267387113e-03 -3.133589082240373358e-01 1.261454209368242374e-01 -9.940539460693940954e-02 4.147189209071549046e-03 -1.025913402447480860e-01 -5.217342603679036434e-02 1.208957477638640393e-01 -6.430719229134298880e-03 5.998197991449621957e-02 4.859004843011548169e-02
4.259172732657745541e-03 -2.627372822333673766e-02 1.521313746981164394e-01 -1.202789812870559416e-01 1.474390609001869148e-02 8.405482600970087814e-02 -2.195321954786777149e-02 -5.678673899586242704e-03 1.533604878932237625e-02 1.241774335704134979e-01 6.896585220261901295e-02 5.319367349147796631e-02 2.176507177387322078e-01 4.093255060958880115e-02 -1.943749219743204359e-01 1.141086779102767068e-01
5.350374820085125604e-02 -5.376690020035706542e-03 1.201887018649192285e-01 -9.476586720825294630e-02 1.806378178298473358e-02 -7.556884999094501398e-02 -1.335780769586563110e-01 1.230359228958716050e-01 1.021527722477912764e-01 6.920817953784659526e-02 1.312863810245893104e-01 -3.465481847524642944e-02 -6.576112746169118783e-02 -2.531188863642115650e-02 -4.005928564178195400e-02 8.770508717504924001e-02
-4.956807555236368568e-02 -2.103918716819256490e-02 1.633973045262062940e-01 -1.135493430974119332e-02 1.947880163788795471e-02 -3.418456010168438846e-03 -3.849133849143981934e-02 1.077710967260001734e-01 -5.341745913028717041e-02 -7.582791953812530183e-02 -2.278077245427526792e-02 -1.910586059093475619e-01 4.920810831792715029e-02 8.396607141124846907e-02 4.574703260467267996e-02 -8.948512056423635341e-02
-5.453443899750709534e-02 1.319683415200237631e-01 -9.049908815631278400e-03 1.651314739393518541e-02 3.109055757522583355e-02 -1.198491854900009812e-01 -1.123944818973541260e-01 1.591250457948140129e-01 4.557775021981947533e-02 -8.504318970192376384e-03 6.882497109472751617e-03 1.398438513278961182e-01 8.965868177186366028e-02 -7.504283468739952716e-03 -8.611123456339891957e-02 -4.332323678424324326e-04
4.643664509057999351e-02 6.490069305907374131e-02 3.993275265602320989e-02 6.057078969472873969e-02 -1.113809049129485945e-01 1.262344890543514453e-01 -1.003522574901580811e-01 7.452627697157571118e-02 -9.796034153685405366e-02 -1.022276394261000809e-01 2.281338535249232899e-02 -2.279123477637768139e-02 1.296828743830955033e-01 7.001078804643162679e-02 -1.238075856044442563e-02 6.599602809280138982e-02
1.616862714290618896e-01 -1.406256877180061746e-02 4.547120203812789196e-02 -9.074931591749192672e-02 -1.335345059633255005e-01 -1.412864178419113159e-01 -8.670403063297270341e-02 2.139933872893950637e-02 6.704118102788925171e-02 2.983857132494449615e-02 1.711688563227653503e-02 4.038445767946540767e-04 2.274089492857455860e-02 -5.631149380695529838e-02 -2.145658360633202408e-02 -6.501525381030891226e-02
1.018173620104789595e-01 -1.098707318305969238e-01 -1.169563308358192444e-01 1.445735841989517212e-01 9.086647629737854004e-02 5.250781401991844177e-02 1.121086478233337402e-01 -5.814261361956595681e-02 -1.906863749027251920e-01 1.271756589412689209e-01 3.779475763440132141e-02 1.187556162476539612e-01 2.111231833696365079e-01 1.369284540414809903e-01 4.907457157969474099e-02 -1.053989212960004807e-02
1.772020161151885986e-01 3.179871663451194763e-02 6.021529436111449501e-02 2.052215635776520053e-01 -8.119975775480270386e-02 -1.290691941976547241e-01 1.922153085470199585e-01 2.619466558098792683e-02 1.454403102397918701e-01 -2.700286451727151871e-03 -1.079846620559692383e-01 2.453194409608840665e-01 4.816752672195434570e-02 2.357669174671172818e-01 8.212106674909590287e-02 6.885333359241485596e-02
-1.123927161097526412e-01 -3.848465159535408020e-02 -5.353651195764541626e-02 1.273656189441680908e-01 -4.609678313136100769e-02 1.968630962073802948e-02 5.500658228993415833e-02 2.041760981082915982e-01 5.277530103921889565e-02 -4.230228811502456665e-02 -1.516747474670409879e-01 -4.852030426263808510e-02 1.069447994232177596e-01 3.578872606158256531e-02 3.670756146311759949e-02 3.847409784793853760e-02
5.441590026021003723e-02 -1.151855215430259566e-01 -3.627217561006545327e-02 -2.236316911876201630e-02 -1.309448666870594025e-02 3.189993649721145630e-02 7.243591547012329102e-02 6.128135323524475098e-02 6.833281368017196655e-02 1.058775000274181192e-02 -1.047671809792518616e-01 1.234897300601005554e-01 1.849824003875255585e-02 -1.060338988900184631e-01 2.746140062808990479e-01 1.011444702744483948e-01
1.356615275144577026e-01 -6.985783522108637844e-02 9.919725358486175537e-02 -1.194961927831172770e-02 -5.770833417773247459e-02 -1.661106308512170782e-01 -1.449121981859207153e-01 -1.540307741733949222e-02 -3.951391670852900419e-03 -1.554981917142868042e-01 4.014781862497329712e-02 -1.446082890033721924e-01 3.834963962435721657e-02 -2.769566886126995087e-02 -1.825580745935440063e-02 -1.379589289426803589e-01
-1.084545180201530457e-01 2.838360261523695249e-02 -1.933370828628540039e-01 -1.506621241569519043e-01 -8.090255409479141235e-02 -2.352615493740969066e-01 3.431776538491249084e-02 -1.832680479824826680e-01 4.958772286772727966e-02 -6.096029065639461259e-02 -1.282550860196352005e-02 5.559255369007587433e-03 8.264631032943724198e-02 -5.319551751017569802e-02 -1.349467486143111905e-01 1.777838491682604688e-03
2.657414227724075664e-02 1.535789650342428703e-01 1.437790846892468277e-01 -1.542757551085180701e-01 -1.002116575837135176e-01 -1.662880937282721835e-02 3.748452656330414356e-02 -9.723613606245966323e-02 4.445697890790256679e-02 -5.609512199552401518e-02 -2.826769948005676270e-01 -1.731979101896286011e-02 -1.319551318883895874e-01 7.245729559761636407e-02 -4.113919316542524740e-02 -1.018876701124323964e-01
1.745623541758846084e-03 -3.302793354884792087e-02 8.978927081268003874e-02 4.183256514837278145e-02 -4.421822897690220328e-02 2.331798553743651137e-01 1.032108580313035734e-01 1.194552538538420222e-03 5.135042539254186522e-02 3.690934221863998582e-02 -7.174521684646606445e-02 -2.016072124242782315e-01 -1.590259180896982372e-01 -7.276086928761357764e-02 1.089588533839150053e-01 2.648157392130937038e-02
-2.570357508232115271e-02 2.321046650060095903e-02 -1.450562219109974987e-02 1.148773789492559538e-01 1.369207197492414707e-01 -3.882183918321430172e-02 3.727722540497779846e-02 -1.169968659748823192e-01 -8.773996812013916402e-02 1.700077612641516522e-01 7.419725507497787476e-02 7.948375493288040161e-02 -6.363348948270383665e-02 6.307305623707484994e-03 -1.438886229831672914e-01 7.555296915870218788e-02
5.944086683579165309e-02 -6.881198822951684058e-02 4.322484869636231131e-02 5.424755080524951145e-03 -3.520180266133365876e-02 -1.330178784828463523e-01 -3.952956944704055786e-02 -3.871426982076747736e-02 -4.433172655488457070e-02 6.304460712994185145e-02 7.600711286067961259e-02 -4.486601300701840295e-02 2.467098837848948067e-02 -1.723401177512410565e-01 -2.527717748265572717e-01 1.049419901073481709e-01
-8.110634689964554833e-02 -1.348026716384686519e-01 -9.492049317484770043e-02 5.444012811339234148e-02 6.588636338710784912e-02 -3.817380729804207423e-02 1.252347640549303920e-01 -2.800686321896873193e-02 -1.783671159181547672e-02 -8.924221482380186032e-02 3.786833211779593727e-02 1.001984560489865561e-01 3.246660994997326716e-02 5.124077890072219199e-02 -2.639015134652330022e-02 -1.626372706018989478e-01
1.929276141255668875e-02 3.438448769814336781e-02 -4.106119416896379659e-02 4.641010336246093743e-02 4.972655326128005288e-02 -6.952662117926512730e-02 -3.979447379965190060e-03 1.823525906411744418e-02 1.584685779129704486e-01 -7.709499456522667105e-02 4.464317303915052437e-02 9.610438629848488956e-02 -1.474407666275834028e-01 9.938607554840166169e-02 -1.959253710857494779e-02 -2.617794442559140747e-02
-1.115832275198695711e-02 -3.431414556799645271e-02 3.011066724581964657e-02 5.795324867313605272e-02 -1.423141658306121826e-01 -1.297676605968046959e-01 -2.814082906348513904e-03 -4.868728802890921747e-02 1.935439007188589355e-01 -4.252212126117427271e-03 -5.453257673935710259e-02 -5.248124769130446676e-02 -2.938762595248093495e-02 1.832494035508966113e-01 3.511589164499044624e-02 1.189053794042876089e-01
-1.830489057687268231e-02 1.808893580671644685e-01 1.332609013519215346e-01 -9.265316378502634620e-02 2.006555050611495972e-01 4.748838282453949483e-02 1.605809463289201502e-02 2.746744393653104133e-02 -1.257514668284288040e-01 -6.946633968197990505e-02 -8.720017696386916928e-02 -5.940901211957801131e-02 1.510548775252240107e-02 3.544143968656566016e-03 -5.361361932240529121e-02 8.290344185234585495e-02
-3.984068134261369715e-02 3.338236115425907008e-02 -4.259416095756655279e-02 -6.988207916514502238e-02 -2.441469931197559964e-02 -9.255587413673960206e-02 -4.833611302054047383e-03 1.715782179885473879e-01 1.050421862528493205e-01 1.129388580733051151e-01 -1.938856049435155882e-01 1.520824059079965984e-01 3.587399097150821559e-02 -4.416508037086126076e-02 1.456390121225744835e-02 -1.115764148028799696e-01
1.381652434283870134e-01 -3.243445775306087742e-02 -7.483154398450025252e-03 -1.026484764614084139e-01 9.571790135206814654e-02 3.127793887883078931e-03 2.491603930674939765e-02 -9.892089495527767173e-02 -1.090390718621418731e-01 9.499690012786000948e-02 2.400164907260559852e-02 -1.977822743681662276e-01 7.838334797746601690e-02 -5.828105163695593283e-02 7.803248743791307840e-02 2.326000268808073659e-02
2.033954743226080442e-01 -1.430539436870214287e-01 7.354064133080491505e-02 4.795840649011359758e-02 6.432161827433446888e-02 8.316887531326973282e-02 3.146636822355838858e-02 -2.854948213116403344e-01 -9.161229235725971976e-02 -4.644399614289489164e-02 -1.562071468849079992e-02 8.334445066642881539e-03 2.434647167404106055e-02 1.192448257852331793e-02 4.221866936130973941e-02 2.135708973379232822e-01
6.300446195532567739e-02 1.120308579397382431e-01 3.080629197897255100e-03 5.429727588333721489e-02 2.153365860027349477e-01 -5.391075408689781356e-02 -7.996053491739846253e-02 1.238501119381638510e-01 4.896452066442236878e-02 -2.032299913069451625e-01 -7.610167783210008974e-02 -4.148610556375830448e-03 1.129440449870073269e-02 -6.746161126336842895e-02 3.925751910701476971e-02 -1.055021310204607293e-01
-1.714109750057031534e-01 1.708348831700919751e-02 8.547986423706999126e-02 -1.996959577038881842e-02 -7.744680336510610663e-02 -4.670309173105185313e-02 -7.492870260977298191e-02 1.217950505228687919e-01 2.495142601436988947e-02 6.909199135244563361e-03 -6.020064990125936766e-02 -9.644586025195363288e-02 -4.741932306247390039e-02 -1.562193736979921588e-01 1.003516443328276719e-01 8.171779224312786249e-02
1.271776304853526884e-01 -3.685275850003204984e-02 1.318071602342855697e-01 -6.253419743288840538e-02 1.358268802269719522e-01 1.114208814135048131e-01 -8.323817699935498471e-02 -1.061451283304322285e-01 -9.011867170778264588e-03 2.940802248890512019e-02 -7.212767883234545707e-02 9.199525031550782883e-02 1.933935052640179397e-01 9.412095027623082477e-02 -8.098121898135215990e-02 -1.436366012149980775e-01
1.523785036664841996e-01 1.039438265375407650e-01 -1.345503924715234917e-02 1.217315097092939585e-01 -2.339341635595343638e-01 -1.373745189378431930e-01 -4.845273147502056343e-02 8.474184481288006554e-02 2.023406104897412516e-01 -7.531885526078642423e-02 6.189302683003630040e-02 -1.118402537637124827e-01 -2.744932100102571160e-01 7.417095458621191873e-05 1.285264058443111590e-01 -3.790699686608058755e-02
-8.542671887137159858e-02 -4.906549988298428144e-02 -1.512603381934195801e-01 -7.867408583210627748e-02 1.690712716065185528e-01 6.456238416946960545e-02 1.392449539414818693e-01 4.010633391156672584e-02 1.039493795268316666e-02 -2.522654853098672476e-02 -1.458019456207898003e-02 1.127029013035815153e-01 -1.704189615261056390e-01 -9.752309729903956004e-02 4.393506634600970184e-02 -6.887336109652243861e-03
-4.711628914117294703e-02 3.661571822792431680e-02 -1.290569741454624386e-01 3.467128300598217635e-03 -5.608797539739561640e-03 -4.856743523820056252e-02 -5.152744647597629069e-02 5.317848736417059297e-02 -6.362941548987595397e-02 -6.332180926128780363e-02 1.112775954298944603e-01 -3.856512071491800114e-02 -1.107457617346820772e-01 3.159619533404242619e-02 -1.778937027101108459e-01 8.078241839529753943e-02
1.307433276889801918e-02 9.400522973334504706e-02 -1.067085923597220903e-01 8.346628817856373284e-02 -9.131632150773173751e-02 -5.277368697104526524e-02 -2.268549402199146123e-02 -8.005670991333241338e-02 -9.503406029811304516e-04 -2.830531737227312550e-02 1.547804970154628423e-01 8.935204148292540116e-02 1.511340307952893092e-01 1.092608073776165922e-01 -2.181260748033003738e-01 -1.178392229256340074e-01
-5.300181316532202175e-02 8.028523186817610943e-03 1.588155171591094927e-01 -3.363989429393129948e-02 4.295719787478446960e-02 -6.629872558675654892e-02 2.330933228448678063e-01 8.812826351105225442e-02 -1.204996373884987051e-02 3.143422966610972397e-02 1.774319868177162696e-02 1.310352236032485962e-01 5.295208872332166083e-02 1.846854350920213578e-02 -1.616093560905334237e-01 -1.064923331736874479e-01
-3.075696080223088921e-02 -1.400238078166778366e-01 2.025946639837995777e-01 1.290968814799987874e-01 -1.428235508501529520e-02 7.312854771229540529e-02 -1.507962661051541475e-01 4.180401165046151307e-02 7.135659551239245668e-02 -9.823894186620012181e-02 1.023845274597252747e-01 8.960633724927902222e-02 2.422141023261792717e-02 2.275293706810312122e-01 -1.136571944043911486e-01 -9.962461957731838513e-02
8.019315078854560852e-03 -1.431154005361812975e-01 -1.634958958747852187e-02 1.957957646920364114e-01 -7.649841159582138062e-02 -1.205150819600286222e-02 -8.740354739052236255e-02 1.300502049078070205e-03 -2.664787654002647929e-02 1.009719597784293141e-02 -2.556281723288839069e-03 4.609639942646026611e-02 -4.724958658497607072e-02 7.275705263755595509e-02 3.677061455950086238e-02 -2.212249374295949533e-01
1.286945641040802002e-01 -3.742222320355590576e-02 2.732522570366280172e-04 1.273347996175289154e-02 -5.488796159625052538e-03 4.984745247130870083e-02 2.048815555757527995e-01 -3.547253665608387369e-02 -5.679060891270637512e-02 -2.265173792839050293e-01 -9.934285283088685470e-02 -4.226254671812057495e-02 5.722369626164436340e-02 6.463757288638807830e-02 -5.058382538567350595e-02 6.239742598931670436e-02
-1.366872936487197876e-01 -5.580751597881317139e-02 -2.308873645961284637e-02 -4.145669192075728676e-02 -8.414208143949507279e-02 -8.874806016683577103e-02 8.084782212972640991e-02 -7.730150222778320312e-02 1.076953560113906860e-01 -2.264451533555984497e-01 -1.799251437187194824e-01 -1.519379019737243652e-01 6.511460244655609131e-02 2.001073658466339111e-01 -4.351972473417624332e-02 5.123248961650393729e-02
4.797986522316932678e-02 -3.782280534505844116e-02 3.045934252440929066e-02 1.008192822337150435e-01 2.108903229236602783e-01 1.419488638639450073e-01 -7.833939790725709396e-02 -7.446917146444320679e-02 1.809913478791713715e-02 -1.420167535543441495e-01 1.536593139171600342e-01 1.533200591802597046e-01 -9.557170793414117640e-03 -7.919068448245525360e-03 1.279378384351730347e-01 2.346884086728096008e-02
6.085548922419548035e-02 -7.300610840320587158e-02 -7.544391602277755737e-02 -9.714252315461635590e-03 1.762813478708267212e-01 -5.690230801701545715e-02 -2.787840366363525044e-02 -2.442644722759724010e-02 1.379503458738327026e-01 6.344102323055267334e-02 4.248405620455741882e-02 -1.316951494663953608e-02 -4.010356590151786110e-02 9.959358721971513229e-02 4.057629033923149109e-02 1.024760231375694136e-01
-1.630928897963568325e-01 -1.843521544087913314e-02 -7.511691190302372846e-03 1.048305407166481018e-01 8.583498746156691117e-02 1.058188229799270630e-01 5.710013583302497864e-02 1.122114885412034413e-02 -1.264248490333557129e-01 -7.674941222394345008e-02 -2.104594334455391069e-01 -3.202399611473083496e-02 -6.719430536031723022e-02 -8.261152356863020463e-02 7.101899368361144771e-02 2.612479031085968018e-01
-1.416231632798669975e-02 -1.327722276870457463e-01 1.078732460737228394e-01 -1.228225156664848466e-01 -1.210688054561614817e-02 2.911121992117537624e-02 6.180629134178161621e-02 -1.423245506005619831e-01 5.941466573842268256e-02 1.001406138990009048e-01 -8.318945765495298558e-03 -1.415050774812698364e-01 -3.144575282931327820e-02 2.749459818005561482e-02 1.504408031937367607e-01 -8.493507653474806351e-02
-3.434304047814595862e-02 1.089517334078699516e-02 -1.434524737534949024e-01 -6.094751134514808655e-02 -3.990681096911430359e-02 1.701816692040583959e-02 -1.089062914252281189e-01 1.320513542687261899e-01 2.972428975296208947e-02 -7.720140541085321328e-02 -3.236405178904533386e-02 4.466436058282852173e-02 -4.586379230022430420e-02 8.906874060630798340e-02 3.110379214040943224e-02 -1.029620750143628305e-01
6.595992262983246812e-02 2.145559012366399232e-01 -5.675373291917223256e-02 2.993840412750614285e-02 -3.771821317281021102e-02 -5.939442334277691277e-02 1.217229223238405211e-01 -1.724304754192242106e-01 -1.087807089095060853e-01 1.325730353927985217e-01 -8.911053836345672607e-02 -2.700676777367044812e-03 -1.533049204693988886e-02 1.418876345271472272e-01 -1.645930113153932506e-01 8.843450295189621280e-02
-8.457875693438707265e-02 -1.409999528437958505e-01 5.888278401625749413e-03 -5.173338715907074836e-02 3.096474804204087938e-01 -1.497431777709224421e-01 3.112585358618957451e-02 -9.705667275575469155e-02 1.102996837119188805e-01 7.490982798740063175e-02 1.493015736341476440e-01 1.005014001232538978e-01 -7.641308205011801413e-02 -4.557114079308488552e-02 1.246880870581008882e-01 -5.369746231352798792e-03
-1.077116722564253337e-01 2.485443261447717322e-01 1.462926763222099080e-01 -3.438917442174577871e-02 6.596575688889884381e-02 2.174156039414283995e-02 7.399605527853125864e-02 1.487507179436208249e-01 -2.802397659685223336e-02 9.658681312620688575e-03 -1.265791058540344238e-01 -8.473239077299868360e-02 6.086694948047485093e-02 3.667175855260342704e-02 -5.412737018125495653e-02 -4.305619614057854677e-02
-2.118241477025091524e-01 8.308930153965955745e-02 1.326273843248076956e-01 4.494605117029776102e-03 5.979685243618260843e-02 1.098574041652049804e-01 -6.747933384359078302e-02 -2.516099834450661807e-02 -1.623124255196806420e-01 -6.294890899376232030e-02 5.083664879202842712e-02 4.300648997255906991e-02 -6.747920847261190160e-03 -3.298982883970055097e-02 1.506891502828039131e-01 -1.686898055095364599e-02
7.769484236677284827e-02 4.911843427495154318e-02 1.471735951891059158e-01 9.940834063391978948e-02 -1.134061597486066830e-01 9.450573572910634171e-03 -6.059137552472711880e-02 -3.271396335473040345e-02 -1.123459269778091657e-01 -5.385707151016072558e-02 -2.228193467156558416e-01 -1.487934838324719150e-02 -4.313132173656028523e-02 -1.026934739225896093e-01 -3.648738324459978311e-02 6.079277803606383118e-02
-1.107237811048912557e-01 -3.885784690297358623e-02 4.958876166046452538e-02 1.261620987818513340e-01 -2.163602776676043504e-03 -1.292368554495320829e-02 -1.519726481131321028e-01 1.076709090381307576e-01 8.758765941810435496e-02 -1.612316368646766335e-02 -3.516495796500291454e-02 -1.908232573295795542e-02 -1.850613283446223001e-02 -9.666851765330407298e-02 -1.159520785242725352e-02 1.702321143672821113e-01
2.936355516413948763e-01 2.746113542254640175e-03 -1.481297342197324396e-01 -1.013462700169940472e-01 3.023249831912266927e-02 -7.289474970773181239e-02 -7.038588936678641383e-02 -9.402980339767215423e-02 3.680359809321963414e-03 5.137802563198835132e-02 -2.164054069545498504e-02 1.163929182608414020e-01 -1.407821420853211936e-01 1.321376022141876327e-01 4.868885108576433834e-02 6.425903874183776232e-02
4.607388240997611212e-02 4.185139137319233982e-02 -3.723409694722101902e-03 9.019186390115140062e-02 -1.219630000523661550e-01 1.254280875296632791e-01 -2.099070390729052271e-01 -2.690088916822816218e-03 -1.435094699809296714e-01 1.594834652348071646e-01 -3.680084725567272369e-02 -9.824145632604561890e-03 -1.502025339531663228e-01 -1.727824089923852419e-02 -5.308984772056635909e-02 -4.579214994401507172e-03
-1.050826749372850560e-01 -1.429955756546894552e-01 3.138855018520200074e-02 -1.321756346154945860e-01 -1.629346307253385084e-01 4.279600435280860732e-02 -1.372651863042139986e-01 -3.856536839209755846e-02 -1.710729378187051189e-02 4.630611174658424284e-02 -1.355879621850868133e-01 -1.755567792742544417e-02 -1.050679071993053382e-01 1.184416847278768753e-01 6.429351779278560941e-02 1.002399307929468936e-01
1.731311539778400688e-01 -5.331621145735853523e-02 1.396589525438330648e-01 7.608385671743676804e-02 1.588760292580985167e-01 1.109090997868509079e-02 -2.865839198758209916e-01 3.109443856523667199e-02 -8.029316060543763289e-02 1.323238470112081226e-03 -1.367483365108899673e-01 -4.124156330734523451e-02 1.612238856481141569e-01 -2.873668537037570372e-02 -8.112686721966100301e-02 -1.803848542000404016e-03
5.991528536804074934e-02 3.478180388118733146e-02 -2.083770182093797052e-02 -1.046488706947506647e-01 -2.891617436449678280e-02 8.855906281500607047e-02 1.288858236225820346e-02 2.353733372282446057e-02 -2.603704425473699624e-01 1.639779554499018466e-02 -2.864235513293489008e-02 1.345810842041512967e-01 -1.760054042719512435e-01 5.364337272839759391e-02 8.781498410604762772e-02 -9.076327899455056969e-02
6.591700398605497557e-02 1.576672338424932318e-01 -3.626979597580393816e-02 1.151694936903402827e-01 -1.703692145982813599e-01 6.679907558799752509e-02 -4.800155118713411023e-02 -2.849203517672637548e-02 2.555055593293129382e-02 1.142483019561340574e-01 2.341754735130275808e-02 -2.536512999231734303e-02 6.375671998502592530e-02 -8.941917028613518203e-04 5.662992076004373654e-02 -5.205476121295993935e-02
5.249234238324489848e-02 -1.078237862116975844e-02 1.151054631664674283e-01 -1.802718449851042556e-02 -3.423292588933331271e-02 1.064646256575196570e-01 3.997114355972554434e-02 -7.238182043578197944e-02 8.581959920922668794e-02 1.497032762866448014e-02 4.260208349371581021e-02 3.165848029854516354e-02 8.200139584782746571e-02 -2.973084128032182482e-03 1.678218641741269779e-01 6.961485753666542264e-02
1.018021287627543514e-01 1.152095178559490868e-01 -1.620513240841143232e-01 -1.575394948190732558e-01 -7.409971232518315588e-04 1.502896728165898921e-01 -1.388736637067295929e-02 8.568592169172370432e-02 1.312997287736245022e-02 8.110083621224489780e-02 -1.511874683517193119e-01 -1.256927902734174818e-01 -1.275606231767121845e-01 -1.045963837098907168e-01 9.074114436612334966e-02 6.497640816434763211e-02
-1.710887654491767829e-01 3.946576429538108804e-02 7.935093656977695170e-03 -2.083899053789929068e-01 -3.938650681087478567e-02 1.064483464702898341e-01 5.953961963872682860e-03 1.302455094976159578e-01 -4.498572698159314376e-02 -1.458835646763833975e-02 7.824190317714208032e-02 -1.049348223962730531e-01 -2.280864530448089775e-02 -1.450121491786506532e-02 -2.206892947662774662e-01 -1.385442718821730257e-01
2.059581684435232429e-01 -9.617908784895762286e-02 8.912104336334086135e-03 -1.918636283250053573e-02 -9.138216667834053730e-02 3.482482661560780401e-02 -2.499314579150119578e-02 1.097141138200290467e-01 -1.379645552010399789e-01 1.412500387763066800e-01 1.915211937181741713e-03 7.309517819260538674e-02 6.256762976420177091e-02 2.125860023035179569e-01 7.632302946798873167e-02 -1.407365330325977826e-01
-3.722443741459970784e-02 -5.307459723357867837e-02 5.051478641125503599e-02 3.347111152574091392e-02 6.421337142671375287e-02 -9.908263788093044089e-02 -1.105339998581073985e-01 -1.185721789366489254e-01 -1.168682827463731061e-01 -4.087544966091161310e-03 -6.172455840035297875e-02 1.807516577512866540e-01 -9.616777771680472264e-02 -7.730143331006378293e-02 -1.221440032731403447e-01 1.214357355002879668e-01
1.743414162839031500e-01 -7.842761453691025897e-02 8.734431173936652026e-02 1.166592721585649056e-01 1.210112154595015116e-01 -1.394051224731185021e-02 -1.403582313287710798e-02 2.508217883890147618e-02 5.536403447725377763e-02 1.116191138368793079e-01 6.351840364599195543e-02 -1.062534668597380806e-02 -7.335685646620093703e-02 2.347623720994263669e-02 5.174975212877381582e-03 1.671094903190562253e-01
-9.465760196255634806e-02 -1.768981680276152102e-01 9.833286838091855053e-02 -1.006667762383226805e-01 -2.980362607208064674e-02 9.102546342592887640e-02 2.500573741224260539e-04 -7.620777141839897052e-03 1.161463880636019602e-01 -9.309202644511872793e-02 8.498974597101505157e-02 -1.211050988889830621e-01 1.019119633079537263e-01 -5.238937626674707027e-02 -2.610687639214409259e-02 6.421569357147673129e-02
1.011528674687664497e-02 8.559453785073772858e-02 1.891966947493395335e-01 -7.301280069463778055e-02 -2.262412576448467882e-02 -5.192519710263508725e-02 6.783284729242070044e-02 3.427738138689052222e-02 -6.617613572349217987e-03 -6.888214709399045899e-02 -3.274073794694049022e-01 -8.759398758411406083e-02 -1.410645244924114694e-01 2.076303108976416609e-02 -9.658661842369906103e-02 1.188683923559526179e-01
-2.876471220122026745e-02 -2.214913318101047537e-02 -1.423504193187408728e-01 8.667828831999634109e-02 5.268532317131757736e-03 -7.662897282633733369e-03 1.562990673500714023e-01 -1.171595140885266784e-01 -8.516695867500199621e-03 2.750332751852268068e-02 5.851133868695423956e-02 -1.002179682254791260e-01 -1.258461151585155979e-01 1.043455050709624354e-01 -3.597973675713617842e-02 -9.557574064659990487e-02
-1.981321056274356895e-01 -1.599868069419573546e-01 1.307583149364053565e-01 4.800300493385886713e-02 1.632348895072937012e-01 1.084204945590551764e-02 -4.978834086900228023e-02 -5.180836994042366250e-02 -3.135156833999733911e-02 1.198110889524143900e-02 -2.052726206055197622e-01 2.188073471188544880e-02 -1.533773690462112427e-01 -4.918291107317436517e-02 -1.048483891001807979e-02 -6.246968894801736491e-03
-2.146003693342208862e-01 1.359551143512734150e-01 2.326336689293384552e-02 -1.873078007789080041e-02 -4.899944365024567344e-02 7.254503519150691526e-02 -2.239632047712802887e-02 3.404417295036517212e-03 -1.740400399530649400e-01 5.002924427390098572e-02 4.686759412288665771e-02 1.533474177122116089e-01 2.851123176515102386e-02 -1.500306550417128959e-01 -4.236731181258683587e-02 -1.237802808723766912e-01
6.575519684702157974e-03 1.289291977882385254e-01 1.291170418262481689e-01 6.110507249832152626e-02 -2.054724842309952216e-03 -1.226933002471923828e-01 8.831161074340341741e-03 -1.089371815323829651e-01 -6.376820057630538940e-02 5.561304092407226562e-02 8.325672708451747894e-03 1.672890931367873868e-01 -1.243658289313316345e-01 1.721850223839282643e-02 6.242291256785392761e-02 3.138146921992301941e-02
-2.206671684980392456e-01 2.796196006238460541e-02 1.071069017052650452e-01 1.315632015466690063e-01 -9.504559449851512909e-03 -1.592150181531906128e-01 -9.913931787014007568e-02 1.297880616039037531e-02 1.466381400823593140e-01 -1.556957792490720749e-02 -8.660828322172164917e-02 -4.202181100845336914e-02 -9.978961944580078125e-02 5.445381626486777565e-02 -1.514178961515426636e-01 1.971193403005599976e-01
5.910512804985046387e-02 -9.280183166265487671e-02 -6.373056024312973022e-02 4.286117479205132225e-02 7.815433293581008911e-02 -8.619025349617004395e-03 1.540043740533292294e-03 1.558350026607513428e-01 -5.532020330429076455e-02 2.428787201642990112e-02 -1.302233934402465820e-01 -6.369247287511825562e-02 -1.703581213951110840e-02 -3.426039218902587891e-02 8.764404803514480591e-02 5.651657655835151672e-02
-1.153082977608366200e-01 1.314267134274129667e-01 -6.533301580506248318e-02 1.342469155788421631e-01 -5.932525684867435284e-02 -3.146417367718434832e-02 3.416962549090385437e-02 8.072600342392370620e-03 7.386185739126949201e-02 1.785291402157159618e-02 -1.037761047482490401e-01 2.572057356809454021e-01 -1.602242439985275269e-01 3.730979934334754250e-02 -1.009008268436837191e-01 2.075329854234308699e-02
7.698783254045137026e-02 1.413114984309321413e-02 -6.548820881560056192e-03 1.296606416036496512e-01 5.640041319369481360e-02 -7.918180746603897813e-02 1.171569302678108215e-01 -1.032768195822692803e-01 1.298513560645382370e-01 -1.818745451287656911e-01 -1.595098078250885010e-01 -4.766367035295277638e-03 1.692845526522123931e-02 -1.172734968835461439e-02 -1.164540946775561303e-01 -2.258921882070169807e-01
-1.016051259106677956e-01 1.506608509137591671e-03 -3.450133014104685494e-03 1.897081655424370517e-01 -3.516878477141089504e-02 -5.200056932048473246e-02 7.646939134229638335e-02 -2.533705252782076922e-01 8.172885611530757849e-03 -5.091769845498167468e-02 -8.656238913225089426e-02 8.722616178606434900e-02 1.530883290878090053e-01 1.595339538054990278e-02 8.697821209289550992e-02 -8.039200859425076062e-02
-7.062028929182834203e-02 -4.715793372509757657e-03 6.154611522826523157e-02 1.258886599926818117e-01 1.065588065734153350e-01 -3.507916521033522389e-02 8.029880205636709400e-02 -2.325288862285835451e-02 1.516759101391556008e-01 -3.322295241080058803e-02 -2.816709481553110461e-02 -3.600984483776761488e-03 -2.177864502314214371e-02 -1.011793788826876872e-01 1.205721185551401203e-01 -3.826160189890424196e-02
-1.012691331159039781e-01 1.176773838532575722e-01 -6.328062889602249254e-03 -7.620271908581724429e-02 5.389555909643846399e-02 -2.353830009851007321e-02 -5.798457286640817943e-02 -9.957431406614807023e-02 5.682840412001372021e-03 -1.076907956547152323e-01 -3.744800422243160093e-03 -4.157964378434797492e-02 8.419893567184717764e-02 -8.058911608487311085e-02 1.952447343652185738e-02 1.335622954626310838e-02
-1.082226626306526940e-01 1.431635794811456364e-01 7.210781858989802340e-02 1.131137054369703160e-01 1.630467710498763600e-01 -9.817688188563017393e-02 9.372427223106823135e-02 -5.999504463518052361e-02 2.159331132604581233e-02 2.098544411943895072e-02 -1.010265277693429831e-01 -4.093048706908831991e-02 6.408447367426249597e-02 -6.608034350716024408e-02 -7.247647866327240618e-02 3.147029960866413317e-02
8.393864610333166831e-02 -1.568841175803754318e-01 -5.430868749091918857e-02 4.183114202544879062e-02 -2.104925487799649830e-02 -7.355266508297891859e-02 -2.050004312366297821e-01 1.173822235144283826e-01 -7.211159356603676074e-02 4.904557919606770434e-03 1.136143982158242111e-01 -1.280725720978790998e-02 4.865347309162300349e-02 1.350177680925608859e-01 1.137865740873661852e-01 1.391538320438451548e-01
1.844939005394108100e-01 -3.387718272419752014e-02 3.369623011235517440e-02 -5.113773874368279793e-02 -1.485890638630469052e-01 -5.170917104390326813e-02 -8.300902970778742396e-02 2.582473922299878821e-01 5.162843727209868311e-02 -5.354222976939428287e-03 -1.487899410042201609e-01 -1.009824404264305329e-02 -1.231985839286177525e-01 -8.719232486465253174e-02 2.502984995067973895e-01 9.918289436327114295e-02
-2.743440665339438519e-02 -1.377984276169651190e-01 -2.846538142811607525e-02 -1.385630460190286073e-01 2.631492691778299434e-02 4.480349842078083095e-02 -8.882540136513243645e-02 -1.955723877514527476e-01 1.302360195212172445e-01 -3.684533860741879413e-02 -6.411377764637429810e-02 3.084611661146327219e-02 -3.313613255350974715e-03 -5.671644254980902355e-02 -2.620662688651070327e-01 2.182980172505824268e-01
1.240351127337427500e-01 -1.411105996017160136e-01 -9.667552078460520462e-03 1.147619395050489960e-02 1.773191332386124183e-02 -1.051429800710215468e-01 -1.664360765762301353e-01 -1.362495152673588727e-01 5.594923562901367442e-02 -9.721087020518789923e-02 6.576599264119284416e-02 3.398247309177494097e-02 -7.215046428748218832e-02 -8.225412615013309725e-02 -1.100455956540649649e-01 9.626266882534689762e-02
1.456866187071145791e-02 -3.549632591207498022e-02 -3.314065997036687305e-02 -6.144110403892951572e-02 9.004740624924945092e-02 -1.354718009032803046e-02 1.911781714516904568e-02 3.445793548517472882e-02 -4.772845378941874966e-02 7.978189692425080581e-02 1.045618671389898086e-01 7.069844076452626823e-03 -5.027270991572402314e-02 -3.220972275942440843e-02 6.264263451787076276e-02 1.230830592337510548e-01
-1.918964854031553202e-02 1.234008402491195699e-01 -6.308611401798217000e-02 -1.570208717325501935e-01 -7.477695888958610371e-02 6.021786876354879442e-02 -4.750278246959982464e-02 -1.151245151610301269e-02 -6.979609889391270861e-02 -1.343742840555925133e-01 3.222677061351288119e-02 1.013776715192156036e-01 9.223465788127030440e-02 9.999417466007640143e-02 -5.599279199624537101e-02 -9.447442433164090006e-03
-3.973947806270665406e-02 -3.948015070622452188e-02 -1.515127452662633906e-02 -5.444576630194975647e-02 8.363650117413921892e-02 7.199890625015516188e-02 5.557398160156901828e-02 6.396368349025878877e-03 -6.394009882893347818e-02 3.554812506710544259e-03 9.554946351958588935e-02 9.396078955150218015e-02 -2.904435090512854072e-03 -9.373754306335789488e-02 1.036794325461361244e-01 1.484320222584020743e-01
1.449318136844384153e-01 6.800486667989645920e-03 -5.039242697479984212e-02 3.350938965833821781e-02 -6.860282974668960310e-02 -6.694426681682309754e-02 -2.102257821776524170e-03 1.083584964000931378e-01 8.104681541478481188e-02 1.918412015983761432e-02 -4.492239778031251185e-02 4.518452542973570157e-02 -1.217203494907769662e-01 -1.770358415804133779e-04 -7.853334961426920724e-02 -2.854170505247694348e-02
4.684630095384895859e-02 6.537519455787108025e-02 -5.162566414829438538e-02 -7.784831783985887710e-02 7.333889807059081056e-02 -3.153829700863659564e-03 2.144806326317321224e-02 -7.331926833202846716e-02 1.328239123826556456e-01 -6.586091579370532967e-02 2.874614586892149104e-02 -1.188890096552107783e-01 -1.771237603123319293e-01 -1.544356745947026432e-01 -1.728800118676772357e-01 6.512434411032641535e-02
1.265770327383861915e-01 1.789027095936695788e-01 -4.110349793081203434e-02 7.408417319471381768e-02 -9.267228909313414420e-02 -5.465057455334800668e-02 6.547039839334839462e-02 6.478306406907576032e-02 -1.372357862165739240e-01 2.211413793963974694e-02 3.901309243983875491e-02 -2.399527284184074793e-02 4.199280442644260508e-02 -1.506890470762877188e-01 -1.725477787414121389e-01 -8.732694128762558128e-02
-7.766247362068078031e-02 -4.654446499214473162e-03 1.466446278844111550e-01 -1.051568680650073195e-01 8.619505321044507173e-02 -3.946464062603979861e-02 1.026213249425228687e-02 -3.645120674353077156e-02 1.377864402054021220e-01 -7.293037574770457054e-02 -7.484580208239395571e-02 7.995216772683132189e-02 9.082882683950928293e-02 -3.871708786443676248e-02 -3.857873749169200145e-02 6.132727352159452611e-02
-6.115255526570569783e-02 -2.488480045100141883e-02 -1.246766542779487313e-01 -9.667240135570215331e-02 -3.059117657661559325e-02 -1.148809457567059877e-01 4.671102981359535194e-02 -1.454178254503514789e-01 -1.282066983141134367e-03 8.576582371063476429e-02 -1.009508246545889887e-01 -1.785122384768578208e-01 -5.364101302515751624e-02 -6.943893307529913628e-02 1.133628342482477652e-01 -5.260115977907884460e-02
4.087035616342684502e-02 4.904016942455680789e-02 1.114077142020885279e-02 -1.758310506879980639e-01 1.349793269794866959e-03 1.747569164134473441e-01 6.170736586963075643e-02 7.309268881989476954e-03 -6.930870759294313621e-02 -1.237160395484850767e-02 -1.079070765613672489e-01 -1.396997125343595880e-01 4.410588240762957322e-03 -1.393363343367563512e-01 -5.535508065352805901e-02 -1.214310977592596569e-01
-1.245968912623549585e-01 1.213143597419781144e-01 -7.004909808931046589e-02 9.626726186414726050e-02 -7.786366952747703074e-02 -3.825236615418853552e-03 1.999115546949732647e-02 -1.595357223390950485e-01 -1.130179232911166232e-01 -7.818151643008515450e-02 7.414224414187781109e-02 1.853580349962448692e-01 5.413081778983853259e-02 5.832541547521576802e-02 -1.232909148946970297e-02 9.781222495811972562e-02
-6.386725107422605574e-02 9.112465822881954391e-02 -2.696435088303123645e-02 -5.634901693545643631e-02 -2.406631039450644882e-02 -1.677087989900037657e-02 1.161129399465559708e-01 -7.114584917494248817e-02 5.918480301532692833e-02 -9.825134110740396665e-02 -9.018873400017086983e-02 -1.821927721003148704e-01 -7.291145735377829729e-02 2.352455295156092446e-02 4.875198832602734011e-02 9.218363204881639683e-02
8.322857245389911861e-04 1.401884453889032933e-01 -1.301052755757896862e-01 1.896147958455061955e-01 -7.716486485104211146e-02 -4.773169971117359120e-03 8.631438311797516583e-02 -6.447170861091174043e-02 9.146114677679932636e-02 9.617087342879075684e-02 -4.250174000054901188e-03 -4.534386748374955034e-02 7.245964341659246605e-03 9.636360541726419864e-04 6.591260054811684532e-02 1.663788508963210400e-01
8.165756186635972358e-02 -6.479554013239861854e-02 -2.534952990266720052e-01 -6.215953825607173355e-02 3.307868922874490202e-03 5.266829572989450287e-02 -6.535339197780525022e-02 -1.076824051934892681e-02 -3.729035467860764702e-02 -1.699533695239885053e-02 1.451184373787341997e-01 6.068679079142341032e-02 7.735219089312965479e-02 1.991078264295090966e-02 -1.481601898280490159e-01 1.852367165574383412e-01
-9.859864379714387839e-02 -1.214025331587706286e-01 7.624445590645281823e-02 -7.825369033277784769e-02 -4.183374314334287192e-02 -4.098331082460442143e-02 -2.295222293240412048e-02 -5.435797281923630125e-02 9.902475874437845216e-02 -1.824176141065505519e-01 4.726430983900725691e-02 1.566897481679916382e-01 9.060667538349420624e-02 1.945893645950003831e-02 5.440764177684188213e-02 -1.747887612499344351e-02
-8.873257786035537720e-02 4.442808433280302782e-02 6.227110698819159768e-02 1.739238501392518232e-01 -4.993906617164611816e-02 -1.319309754158492221e-01 -2.570012095227554028e-01 1.734134661414665074e-02 -1.160931332649046549e-01 9.302988967023650968e-02 1.181178353726863861e-02 1.018917188048362732e-01 1.022054008411430459e-01 -5.803391490987829665e-02 9.239706980619526167e-02 1.269848221591737547e-01
8.519010245800016923e-02 -4.364144802093505859e-02 -1.214412376284599165e-01 2.642391622066497456e-02 -3.939892351627349854e-02 -8.054038268425153108e-03 4.169857874512671730e-02 -1.629921426908443605e-01 -1.906305402517318726e-01 -9.444487094879150391e-02 9.864600747823715210e-02 -3.284487724304199219e-01 4.394325986504554055e-02 5.474082366098986102e-02 -2.012000046670436859e-02 6.504391133785247803e-02
3.405825421214103699e-02 5.267880111932754517e-02 1.777003407478332520e-01 5.222274735569953918e-02 9.281986206769944625e-02 -2.189456485211848866e-02 3.734814748167992332e-02 -1.200629025697707991e-01 2.925579063594340931e-02 1.198844686150550842e-01 7.234704494476318359e-02 -4.607257246971129677e-02 -8.953572809696196122e-02 -6.889839656651020050e-03 -1.996186934411525726e-02 2.570419609546661377e-01
2.287019092621804875e-02 1.505317582972210688e-01 9.870740585029123479e-03 4.207963868975639343e-02 -1.668318174779415131e-02 -3.914250060915946267e-02 4.723379388451576233e-03 8.962626850334443063e-02 -6.044978648424148560e-02 -2.340324223041534424e-02 3.957248851656913757e-02 -1.488133370876312256e-01 4.008923098444938660e-02 -2.279271744191646229e-02 2.071988929165918814e-01 -5.289014056324959495e-02
3.249923659564656758e-02 -2.682324494181727026e-01 1.705145846229186302e-01 -1.832041703164577137e-02 -1.344090414565982661e-01 -1.879652867070164685e-02 1.073000282049178938e-01 3.521267160944172026e-02 2.087773001820751595e-02 5.594637621217150164e-02 9.728702157735824585e-02 -1.472158645715838376e-01 -7.268376981781956951e-03 -1.471750577699702522e-01 1.640430289674450759e-01 -1.489847204345124687e-01
6.295551069573819720e-03 -1.777956725825512174e-01 9.315065388993969131e-02 1.769268903916554336e-01 2.779308008860947865e-02 1.400015581621743763e-02 -3.051186911761760712e-02 -2.068503962129703347e-02 5.208265190031426128e-02 -5.673816360487794058e-02 -1.442551612854003906e-01 -1.005315210055269942e-01 4.197278236552129393e-02 1.024783061083732738e-01 -2.410435656567917195e-01 1.226101840609405969e-01
2.076387906338888756e-01 -3.948170951518989447e-02 1.438397017786607612e-01 -1.656854720319723695e-01 -4.446136561324831593e-02 -3.650465561688617799e-02 -8.115274900537736147e-02 1.531518635112584167e-02 -9.745457041072561055e-03 -1.086188741873607699e-01 -5.013467954501733825e-02 -8.276931704651954713e-02 -3.376927851889619664e-02 -2.949783624122058745e-01 -1.347402660692615106e-01 -7.854084279475086194e-03
1.598370564309848640e-01 6.172868933593272933e-02 -1.406754407908433757e-01 1.042239297668301895e-01 1.657381602914888979e-02 4.575630604891251646e-02 -1.300073971085549118e-01 1.148470552526049820e-01 -1.075104720311499118e-01 -1.569529340885279789e-01 -2.325204109711364459e-02 5.636338029264309490e-02 -1.817370779864541375e-01 2.472933367677929498e-02 1.117340513723920487e-01 -1.991429340014800597e-01
-1.175598946622428281e-01 8.688784849560526879e-02 -9.532936890118410070e-03 -1.864938878307192613e-02 7.330921518795009695e-02 -3.288621526234447590e-02 -1.709924415159031763e-01 -1.441350065359606539e-02 -2.839357091102697600e-02 1.503349270726843656e-01 -1.284840367083824320e-01 1.686757509934022070e-01 1.904518915157459372e-02 2.170285334312907488e-01 1.484901503238997833e-01 5.731208120904712072e-02
1.513974492084802781e-01 1.370693716738367318e-01 -1.920049069249216700e-01 6.671251826005485802e-03 -1.019264728755824856e-01 -4.286554271288742224e-02 7.514032943059198444e-02 1.744592440716969534e-03 4.471625284138713158e-02 4.013307925231809903e-02 5.584247331361321537e-02 2.125357926865830208e-02 2.805535395503045426e-01 -3.767238005345485696e-02 3.453222517802281150e-02 -1.233102957503966757e-01
-1.281753177777111563e-01 1.488282562136646614e-01 4.160968166641717397e-02 -2.966068354180319971e-02 -8.188558250863257892e-02 -8.680849413492792988e-03 -1.082800828797445512e-02 1.295675267514996010e-01 -4.650731066679562875e-02 1.794976419737238579e-02 -2.058872527737044544e-01 -1.564118010315641294e-01 2.440049873378893897e-02 -1.044113703835902879e-01 1.753595598158141228e-03 1.614974558072543656e-02
2.019090472665691083e-01 -9.745055925292406274e-02 -2.952393031573588567e-02 2.167154992934607338e-01 -1.166531640301576023e-01 -1.091608670546960480e-01 2.154144136113067542e-02 -5.390441939071339943e-03 -6.250670212910250378e-02 -8.195302970045464930e-02 1.933888452897051524e-01 -4.908914133392053986e-02 8.535197786186760061e-02 -9.504100692895486868e-02 -1.613500008315745804e-01 -6.226378278410258510e-02
-6.335834997363819394e-03 3.677861639265598420e-02 -2.692757162852153496e-01 -5.106444807747632236e-02 1.515880826244570823e-01 -1.572899275244186990e-01 2.529513493183342399e-01 -3.286287594702429898e-02 -9.213457760701772303e-02 2.025917619419412841e-01 7.482786290752754289e-03 -1.424903443680685389e-01 8.179901454541510519e-02 -6.811453676699072424e-02 6.405174289171203239e-02 7.447758745018775994e-02
1.369496448593038596e-01 -4.538803272636019598e-02 5.165185386358723402e-02 1.450534910389586485e-01 1.515612022454757360e-02 -5.186852582623886071e-02 1.617929216303270190e-01 -1.853863813905933184e-03 2.267889227240544887e-03 4.798409908249060170e-03 -1.129115016857729359e-01 -9.245428867170471521e-02 2.856112661600940933e-02 1.387460633711344593e-01 1.878932145679359234e-01 -3.859704314041190881e-02
5.095552650054473165e-02 -2.171463654477972724e-02 7.362042062151967492e-02 1.044239555277356318e-01 -1.745924056587042639e-01 1.379241021702055751e-02 -6.668884270385050383e-02 7.915282712472176962e-02 9.978632848420879858e-03 -3.761582904708066916e-02 -9.402845179480148752e-02 7.201731701555064147e-02 -4.935560366572774166e-02 1.053445590152357440e-02 3.990538764250568804e-02 2.749946725197655387e-02
9.529130850496550509e-02 1.158704073298490872e-01 -4.221780372003477305e-02 -1.285932291060748467e-01 1.792974923800596809e-01 9.958408080551781061e-02 1.111619221853903799e-01 -2.549509788982217903e-02 8.345062179724951901e-02 -7.291538768779158575e-02 -2.476098408282714422e-02 -2.792578871974927407e-02 -6.835784933225909354e-02 -3.351354076103110757e-02 1.643755682040895505e-01 1.238009498255678714e-02
-2.844775577943473716e-02 -7.224848171728499337e-03 -1.086578901175821177e-01 -7.525364395353016655e-02 -1.448007691517825823e-01 -1.452009477611680872e-02 1.390904248125870712e-01 -5.294689513856287721e-02 4.300194107282390849e-02 2.002997252451308927e-02 -1.107673981370714935e-03 -8.392504334563614943e-03 1.282393462917177651e-01 1.721581790247921073e-01 -9.889708312339792751e-02 -8.819914452284206494e-03
8.054819030160595417e-02 -6.078673794074678123e-03 4.378614061104391803e-02 -4.248290035574341095e-02 5.754866168629314827e-02 2.966260462342152349e-01 -3.316331612623162062e-02 1.167815914629770496e-01 -4.532969112169911441e-02 -3.111056050200467285e-02 9.951269883265891070e-02 4.147959436290726831e-02 -1.742154724449145389e-02 -1.708594966205446292e-02 -2.315132700445286240e-01 7.754243962510209975e-02
1.715344706150674081e-01 1.677967358980725909e-01 -1.341131772697327640e-01 -2.146189508466421047e-03 -8.392810205964437720e-02 1.221004566879604208e-01 -5.820971610274116269e-03 -1.069717320812343248e-01 1.649563448394310849e-01 8.633848358441184589e-02 -7.970888186115983320e-02 -1.040208900905000428e-01 -1.957108374906451898e-01 8.228974913543493641e-02 7.544522091816537046e-02 8.067563500980712288e-02
-6.477402949527418657e-03 -3.919628460474471748e-02 -1.040942068839052423e-02 -7.717616140764790855e-02 -3.532055291936859326e-02 1.032616686706152587e-01 -6.560395603501225021e-04 -1.211754239819047910e-02 8.127237863743119739e-02 -2.418679022408145446e-02 -2.716236653467841711e-01 -8.173865769344298982e-02 1.609806529928721197e-01 -1.140355249689088135e-01 2.573117937849005513e-02 2.313133008519026035e-01
7.107896382295926518e-02 1.730787336327034021e-01 -1.887307810920026974e-01 -1.075626059348510632e-01 -5.170526740214904243e-02 4.818344307306302726e-02 -6.760485575032262884e-02 2.935657947310437495e-04 -5.911808004792774157e-02 5.221442160205366084e-02 2.265662872553595233e-02 1.096492844368242812e-02 -4.883970362691991002e-02 2.230212727070021717e-01 -2.603001313855866938e-04 -1.862246673937767161e-01
2.332044309492230239e-01 1.310902518020249860e-02 -1.972778554058850498e-01 6.904530574328518466e-02 1.510199225553875146e-01 1.027388233699208647e-01 8.007641686309734108e-02 -5.686659623893617482e-03 1.593475942358113170e-02 -1.621016615683838064e-02 2.253035879675192171e-02 -1.583145818796667936e-01 -4.912400663221646452e-02 1.377479525745679556e-01 6.220997933113089906e-02 7.156267418586972906e-02
-1.083664171248098079e-01 -4.855547461217441657e-02 2.345898054028299207e-01 1.089551884391689596e-01 -2.461768512191196412e-01 -9.956096347570432548e-02 -3.343737410159030449e-02 1.203030525142742904e-02 -5.045411625303228287e-02 -1.941025705379978428e-02 -5.923051544466258894e-02 3.585251607867748908e-02 -9.102333507579600524e-02 -8.850500683996503914e-02 1.188800539397010386e-01 2.952879920601474140e-02
5.412316406719808876e-02 -3.358279642582003705e-02 -2.110914353353703643e-01 2.474386944372839597e-02 -1.746616587496044315e-02 -2.435684094053258697e-02 5.989305167434626209e-02 6.888271444921864606e-02 6.971901986270662155e-02 -1.242072915677484013e-01 3.838615857777410295e-02 -6.785983965215797685e-03 -4.879464206810504162e-02 -1.998561955846639079e-02 6.492079442701886860e-02 4.992180502290684274e-02
-1.217789948240882852e-01 6.090316844683002495e-02 -8.906918601258899393e-02 2.170041669477031261e-03 2.654169725841881364e-02 -6.802367952138585472e-02 -9.762137046913571536e-02 -1.209314043061885356e-02 6.489502926223478241e-02 8.854642392794861983e-02 1.706034010188849440e-02 2.143486370984200307e-02 -1.047218500622199983e-01 3.797410120790145616e-02 -1.023163499996664928e-02 1.112963694356835231e-01
-2.413729710940363538e-01 -1.530084420731503414e-01 -1.120324467252615253e-01 5.371893283095743182e-02 -8.029613098505462843e-02 1.466720699352909718e-01 6.543059798714119524e-02 2.724338624758064487e-02 -1.204384080817113428e-01 5.406415568960955959e-02 7.719069874140307985e-02 7.975993422272416311e-02 -2.809456432639803949e-02 -1.968307433240172339e-03 5.089248314192010292e-02 4.642940053483609816e-03
-1.757659668363460992e-01 5.002817078962648600e-02 -6.629338266193621210e-02 -6.038010169211201206e-02 1.960078925089538959e-01 -1.492471416953906060e-01 -1.766255821319314689e-01 1.031416142695850136e-01 -6.378132989847414003e-02 -4.395848956316057710e-02 -1.920538672363863442e-01 -6.039750675194899103e-03 -1.256304060391543083e-02 -2.941446932010469834e-02 6.309559520586215109e-02 1.159104087263849170e-01
-4.446650794889774050e-02 -2.869357017853217395e-01 -1.202300624252616856e-01 1.063109511320251971e-01 7.519910499427602535e-02 -7.655947546192867770e-02 3.558854719896310803e-02 6.055439587017808628e-02 -5.205323093317547681e-03 4.859433886993247409e-02 -6.915425068963108879e-02 -1.269385069608688354e-01 8.793919314499293316e-02 1.172566360927616569e-01 -7.056313818417421502e-02 -3.605561665194805671e-02
9.954145738433517465e-02 5.552457893128918270e-02 -9.137688204646110535e-03 9.771335208270051642e-02 3.826337820066013761e-03 1.175209118379185042e-01 4.318088291600786360e-02 -1.684880843670081563e-01 4.365160676839876380e-02 -8.427019640870657413e-02 8.266317202325342006e-02 -3.100330242887139754e-03 -7.252425393173213275e-02 2.218680932256256871e-02 2.155395898205629199e-02 -6.390170276389825488e-02
-2.590137533843517303e-02 1.908080067100746124e-01 -2.647442817687987726e-01 -1.695749610662460327e-01 6.679679549781684586e-03 -1.840967116880655105e-02 1.468550886368489130e-03 -7.230950311907213823e-02 -1.449946612119674683e-01 -3.430517425735205017e-02 7.012497591359381777e-02 1.600074321031570435e-01 -1.122527569532394409e-01 6.484332207817829208e-02 1.222507211967247542e-01 -6.262693790606332911e-02
-2.011849731206893643e-01 5.587783455848693848e-02 5.587535724043846130e-02 -7.095311582088470459e-02 9.690503031015394730e-02 -6.128760986030101776e-03 -1.016929894685745239e-01 -1.841434836387634277e-01 1.438877582550048828e-01 1.275933235883712769e-01 -5.176864936947823265e-02 -3.065904974937438965e-02 -1.054771617054939270e-02 -8.933632820844650269e-02 1.712959855794906616e-01 -1.060017943382263184e-01
-1.718994592553894640e-01 2.174746001063695700e-01 5.611740878782209979e-02 -1.000974103808403015e-01 -1.631428450345993042e-01 -1.438626947151177941e-02 1.082271561026573181e-01 -8.979952895225827569e-02 -1.170893722854734059e-01 8.108900338334502911e-02 1.431879252195358276e-01 7.604974781369121251e-02 -1.666193641722202301e-02 -7.519088919736589827e-02 9.354669012906124959e-02 4.794269055128097534e-02
-9.902647114621818125e-02 1.210090481186567452e-01 -1.483006082463110553e-01 6.146050244569777748e-02 -2.764057619285468018e-02 7.458234295939955572e-02 -4.278013855218887329e-02 -7.137584672247541950e-02 1.027781577715752570e-01 1.623904449098191941e-02 5.205363844085048042e-02 4.394482245447761670e-02 6.591588965942815626e-02 -2.148015241213052928e-01 7.350225593270921787e-02 2.033820947157291559e-01
-4.371066672204506481e-02 4.543792918317242184e-03 -6.341033319523005363e-02 -2.453674181045199243e-01 9.350494040954925035e-02 -9.013252544036233493e-02 -2.008800862201904139e-02 5.211955339284595617e-02 1.199166499335175932e-02 3.312788134259078004e-02 -6.235113680388520985e-02 2.304980875311406774e-01 8.643494884228651587e-02 -5.268382679939926511e-02 5.219958568201430588e-02 -1.429376943514885645e-01
2.512591706716215192e-02 -2.543356930418141371e-01 -1.111017689291224908e-01 1.254591698467410477e-01 4.145052389378762331e-02 1.536843428819030244e-01 3.800515929684118721e-02 1.021375891254250878e-01 -9.314041913454873534e-02 -2.186148004621872865e-01 -5.651766120964352158e-03 -1.601075863953541623e-01 1.169101687393793616e-02 -1.854950772695820177e-02 1.164506600274931025e-01 1.789679524502182373e-01
-1.175057876706212673e-01 2.067635619040360598e-02 1.009446364759797182e-01 -1.609738993785169714e-01 1.126108887679388437e-01 -2.186901367917009342e-01 -1.915413289706976441e-01 3.864159559558896784e-02 -6.296633368666211539e-02 2.181244852459424399e-01 -1.113065195714737360e-01 -1.627436241946013384e-02 2.928867831687381046e-02 5.465018299426590599e-03 -1.504625960999448342e-01 1.555179437111766649e-01
7.144322113773468770e-03 1.039561358781896094e-01 1.145370130071823346e-02 -3.701070211245411495e-02 1.175236918508519579e-02 -2.764060724935901020e-02 -1.704685531457230396e-01 -3.235215590360553117e-02 5.163029741273885559e-02 8.504302183156831063e-02 -1.029424298888139827e-01 1.041015058675076044e-01 -1.087893704560162350e-01 -2.500216258817958281e-02 -4.097373709333254101e-03 1.444817422376159233e-01
9.304699595589387140e-02 -1.433533284915074202e-01 1.797559397709474691e-02 3.084664798327098681e-02 4.012533812685146334e-02 -7.730687016371315390e-02 -2.719679856284299216e-02 7.938529644758586523e-02 -1.089772016993685172e-01 -4.537443769113193998e-02 1.057928790873268327e-01 -2.026198385961162640e-01 -8.618943352285732273e-03 -9.076052737656201130e-02 4.305003553733004196e-02 4.311454976383091026e-02
-5.088719525343799593e-02 7.948251702131081675e-02 -3.433044852969026339e-02 -8.939414949783267006e-02 2.193727877203711651e-01 3.464324358367286416e-02 1.478797737236093590e-01 9.460640148474540323e-02 7.487457798895885697e-02 -1.797560227486864545e-02 7.318185280938963033e-02 8.605338701142745128e-02 -1.345642856122622466e-01 1.729458174211962185e-01 1.338221038964255427e-01 -5.212946338121494938e-02
4.465642400463574330e-02 1.984900579649215291e-01 8.544843295472602518e-02 -1.032219980327544855e-02 8.326306962863518069e-02 4.042387755320270976e-02 -6.005692407822364742e-02 1.226232844005461786e-01 -8.210506020421318163e-02 1.697400896633674203e-02 7.139801225409475594e-02 -9.930730515724855989e-02 -5.084786737934691991e-02 4.281332599301541225e-02 6.209979280191871981e-02 5.964578233826355047e-02
-5.506364737379814897e-03 3.788876227280692927e-02 -1.126177194891371525e-02 -6.135305757578698310e-03 -6.049203262058149705e-02 -3.994032366363882425e-02 -7.004917038650839735e-03 4.378680795803955444e-02 1.195775812545254863e-01 3.218333016107923633e-02 1.210599953188019329e-01 8.034639052506273305e-03 7.752309995679823595e-02 1.363264214073007519e-01 -5.028023962059186697e-02 -1.337269788748431457e-02
3.081825218945992580e-04 6.183542061789342598e-02 -1.030160109626202525e-01 -2.815173730437798838e-01 1.604478776990977615e-02 -3.272947872484616855e-02 -3.640366139211993063e-02 -4.663265066235558476e-02 -1.155645867636259649e-01 -1.722273619441219983e-01 -1.114068918834792560e-01 -8.585721595400760964e-02 -5.812743392454685493e-02 -6.959969515692075726e-02 2.337287044914284836e-02 1.092328155469010492e-01
5.357756303709060308e-02 5.468126646456422657e-02 1.532335347297300310e-01 -4.869038477328857528e-02 -6.701626607129168578e-02 7.942268476167660407e-02 -3.450523700957976170e-02 -2.303047400248993681e-01 -1.461565264047486393e-02 -8.448829830629736581e-02 1.124915281336408002e-01 -1.579652870049473232e-02 -4.768507840713590018e-02 -2.095466874430340076e-01 -1.825633084856927435e-01 -5.399737736366766461e-02
-1.007102011516467777e-01 -8.745249546865979662e-02 2.789017294588149246e-02 -1.011571309971591309e-01 1.532100568862542617e-02 1.722259759548692981e-01 -5.500776542773425787e-03 -6.785491365041276812e-02 -3.556867979576858185e-02 -8.658025588939659289e-02 -7.919488994155919614e-02 -5.829092551565963343e-02 -2.039892525428879111e-01 3.429181632935002048e-03 -5.955067858305031214e-02 -6.990359110022022204e-02
-4.207157506237613198e-02 7.667624488406514505e-02 -1.189249744167118067e-01 -1.983811684335194669e-02 1.599043091339105715e-01 1.694794433720527710e-02 -9.752686174016278464e-02 -3.211473160285475970e-02 -1.717121527308456963e-01 3.682360990323586131e-02 -4.383935920295702754e-02 1.736900317268380914e-02 7.070727494466555463e-02 2.157360524923479170e-02 2.540461068689281454e-02 6.127018480645120627e-04
6.412313458377054409e-02 -2.133367536392542230e-01 -8.863774445341544850e-02 6.825004071508242176e-02 6.905201009368265412e-03 1.076332431915186655e-01 -1.127559222900858804e-01 -1.005930202778197377e-02 1.273224913789714474e-01 1.012389844517601473e-01 -7.621486695850722415e-02 4.737793628422987818e-02 -1.340255618846016850e-01 6.861069637084438178e-03 2.502918252095159835e-01 3.470006406918506314e-02
-7.285602537409398283e-02 1.286841902799909787e-01 7.999598799657177406e-02 -2.797891355415321399e-02 -1.180011270842757642e-01 -2.348886369040112734e-02 -4.765835609174481902e-02 -3.333235790310631885e-02 9.606543992088553696e-02 -2.388866854372053913e-02 3.145951945442056891e-02 -1.954381379295250590e-02 -1.687745572797045845e-01 7.498730504354561566e-02 -4.699492569694065786e-02 -1.039927660992988473e-01
-1.170693611349032937e-01 -3.745099060618922726e-02 2.775348268590645262e-02 5.799739553167775064e-02 -5.297195443849928714e-02 -1.851965245244661107e-01 -5.560943540586377187e-02 -8.773310739416409487e-02 -1.483705722680449535e-01 4.254646086602502895e-03 1.275686502495611274e-02 -1.239719185177395704e-02 -3.007663803312849576e-02 3.005266416030517862e-02 -1.162799282242988133e-02 -2.908921079682061719e-02
-7.878105891776809866e-02 -6.724936915636792190e-02 1.089035483924420504e-02 -1.064880014335080616e-01 3.129685541619334210e-02 -3.990252258452013645e-02 -6.916661831242779113e-02 9.435229615798312874e-02 1.331547984934270124e-01 7.843404262667709459e-02 -1.227906792815767166e-02 7.942492747111885854e-02 3.516667717895609335e-02 6.874068763547275251e-02 8.804294341066812302e-02 -4.644423432261470669e-02
7.682651510775367898e-02 5.239195912651276044e-03 -4.325136701040497439e-02 -1.017901121342742049e-01 1.695562611254348429e-01 -1.461222228637893972e-01 1.916721309169998680e-02 -6.236230265496250924e-02 8.562587139308561190e-02 -5.348189950122372860e-02 1.800025763884147978e-01 -8.673555046199804552e-02 6.446044835822448138e-02 7.426717061644726170e-02 7.654464073142267129e-03 1.367010315079823513e-01
-1.010927371757720447e-02 2.746313824142311844e-01 5.856592278800702711e-02 5.924399391631013367e-02 2.339115251417360486e-02 -4.389000419761436567e-02 -4.593673929046029718e-03 1.308084723136218250e-02 8.511031517172544525e-02 -3.726971683050710193e-02 -5.171016611436499849e-02 -8.889221222627324837e-02 6.114056667357549435e-02 6.601557782361787419e-02 1.256550957029511362e-01 -6.585524255289441908e-02
-7.376545502221423800e-02 -2.453820207953296417e-01 1.346108310148219911e-01 -4.968723964092550127e-02 -4.270724158363549752e-03 -2.741759712464154203e-02 2.942901998808001782e-02 1.832633727188071049e-02 3.264867916035569390e-02 -3.753579329888901556e-02 8.906955035973039558e-02 1.350609117792035511e-02 8.404309446937488493e-02 3.938086478062970130e-02 -5.466605009063802562e-02 -1.565841735243491961e-01
2.993288536839348868e-02 8.394356854328988149e-03 -7.005420079577789894e-02 4.426856674476077613e-02 -2.019704390771994151e-01 -1.944507088220617796e-01 1.448427010929100034e-01 1.086644641375595494e-01 -1.192139929207524374e-01 -9.078120046370050447e-03 -1.401703024294501387e-01 3.208283848745125538e-02 -1.013464534604774647e-01 -1.095420207369396937e-01 -1.113834876051679468e-01 5.532710275461645566e-02
1.612698707608252457e-01 3.175619467639404642e-02 -1.666183120316066524e-01 -6.004471811495633304e-02 6.778209162210106775e-02 4.776454800623402414e-02 5.550515055404441067e-02 -1.050446202971223007e-02 7.025650242114916955e-02 8.351394308628531937e-02 6.396233582646908278e-02 -9.352580802024004769e-02 1.720185241404097176e-01 8.836698499192467693e-02 5.130855106898257051e-02 -4.569303573071212959e-02
-2.525355857352061528e-02 -6.939536437763516030e-02 4.461557579748322289e-02 -3.938514809925646593e-02 2.550613856711932137e-02 7.258328690002700465e-03 1.048840191318047427e-01 -2.524990727644143007e-01 5.272947531347590977e-02 3.709268919806731762e-02 -1.259750079904728703e-01 -1.321025712944184360e-01 2.114569014061672414e-01 -4.206031951576510303e-02 -4.538465520034302286e-02 -1.459918740064358733e-01
4.244005941936408732e-02 -1.117816556707802306e-01 1.161162673834691961e-01 1.336221761496119986e-01 -1.784884528957278102e-02 -6.547947924322457258e-02 1.337466943997096813e-01 -4.088159870994642620e-02 -1.732797376448441380e-04 7.985277842400370640e-02 -1.517896286434148277e-02 -1.138832867145538469e-01 -9.942914562156393576e-02 1.706535536681539067e-01 6.165025019458195144e-02 -1.362001841207208241e-01
1.039813968479307016e-01 4.539620400567521063e-04 -1.073737414304290205e-01 -1.524396540023134801e-02 7.175209570300612391e-03 4.839923269586676735e-02 -5.294710175682097557e-03 1.202921616833913382e-01 3.176836482172700794e-03 -1.670845165346352551e-02 5.051400177791208479e-02 -6.068317964673041603e-02 -7.422743321769295632e-02 9.455009817961118612e-02 4.498588615611145980e-02 9.585822536435489871e-02
-4.713520407676696777e-02 7.603701358521000250e-03 -1.250189691781997681e-01 9.853774681687356776e-03 -6.861829592991300873e-03 1.450228508503927094e-01 1.850533313081244996e-02 -7.556957443817723108e-02 -1.828564837404694221e-01 6.089158938621859474e-02 5.862027934018028408e-03 2.028588019311428070e-02 6.562572372046347746e-02 -5.646326387729123236e-02 2.276565265235914737e-01 -9.086006795937989766e-02
6.356879323720932007e-02 5.116498097777367332e-02 -1.592935025691986084e-01 1.327041909098625183e-02 1.812834851443767548e-02 1.750729084014892301e-01 9.238336980342864990e-02 1.803636587610452369e-01 2.698840014636516571e-02 -1.420899681817412372e-02 -1.849156320095062533e-01 -1.526915580034255981e-01 -1.409111618995666504e-01 -4.059423878788948059e-02 1.168369799852371216e-01 3.953394995778155424e-02
-3.716594743784180921e-02 9.432450681924821334e-02 -4.489907804674937719e-02 2.147280424833297729e-01 4.733081534504889748e-02 1.630811918541326122e-01 4.206002876162528992e-02 -1.576667246713463477e-01 -9.025297752122919681e-02 1.425539827748326938e-01 1.086468175053596358e-01 -5.195813266143999715e-02 9.214736946250211280e-02 -9.621191838886351821e-02 5.518594665253351295e-02 -3.307551232643923811e-03
1.204845650984412847e-01 -1.812624318198114565e-02 -1.404459698788142197e-01 9.628906100988386674e-02 -6.726094564828599687e-02 -1.074838354630909265e-01 1.469649028444734717e-01 1.820329803045933059e-01 -7.201250629933464431e-02 -1.023888515377750635e-01 1.415221678070675004e-01 3.037732973704124206e-01 -1.082203916118281012e-01 -6.745774310650887173e-02 -1.554119408255754883e-02 8.093106289482100701e-02
-4.694412825273973529e-03 -1.010800153371266275e-01 -1.700151086778666776e-01 -2.419378482293330773e-02 2.573597710393417670e-01 -3.530999631558343066e-02 -1.413980420371316882e-01 -9.909935889920412633e-02 -3.134277146886772780e-02 2.712523529457170485e-02 -4.170728216775127645e-03 -3.136313218806181108e-02 -1.236389347273684630e-01 -7.033216509256669247e-02 4.494206414546715600e-02 -3.394407943306228942e-02
2.983119298521889895e-02 -7.933485965924726158e-02 7.537287949369335383e-02 -2.230591738154210496e-02 -4.929946376719927803e-02 -2.885229228733173293e-02 -2.132275654694938127e-01 -1.687388892643433003e-01 8.778974468575620471e-02 2.817497513597828733e-03 -4.934574043626677176e-02 9.120686167109585962e-02 -1.178571145052969144e-01 4.966095084815258347e-03 -1.954735631835691767e-01 8.288682881894728072e-02
-9.930279554193695291e-02 -1.833344081687257043e-01 1.118137548971973594e-01 -1.054495574818098136e-01 1.235047478292172762e-01 5.542610760774629303e-02 -1.409130711865083097e-01 3.013041012400356766e-02 1.903925696627344066e-02 -5.111793445026817373e-02 -9.957991808045227322e-02 6.653614616686437389e-02 1.336848290375536596e-01 -1.166003923696052810e-02 4.097441215843329598e-02 7.088450153596724361e-03
-1.969873790738246588e-01 -6.825342335038102337e-02 6.403911175350246454e-02 -9.657161634403572947e-02 3.308293041840804083e-02 -2.010742056844577463e-01 1.186040102644156935e-01 3.241425739673572861e-03 1.555134369124664684e-01 9.886163109090351231e-02 -1.557993092932658669e-02 -6.742993021247743746e-02 -4.235890884887104531e-03 1.833499579567045845e-01 -5.815460112079945398e-02 -8.257933240414959408e-02
-3.264505250131172903e-02 -4.141421498533033596e-02 -1.944740012806622509e-01 1.588276871151213937e-02 -6.434775427378082446e-02 4.489089303294536981e-02 1.052595297111884043e-01 -6.370399144335979480e-02 -4.405715279464148676e-02 -5.768976400586935463e-03 1.664867721836377490e-01 -7.187975123057453730e-02 1.152581526377842724e-01 -7.537654376895044916e-02 4.886017916464232419e-02 -1.038509879879565972e-01
2.735638036900346973e-02 -1.635220000967424481e-01 1.106177166452479294e-01 1.009348403642218728e-01 -5.776453010843930064e-02 1.901111356454023710e-02 -6.923912282485271408e-02 7.477683875865721863e-02 1.314457340032275379e-01 3.413236119994003670e-02 1.796451249930506311e-01 1.146498614921614423e-01 1.781769862497487381e-02 1.786822883377491566e-01 -1.163188425917508623e-01 -8.392226355901274970e-02
-1.680043995654612876e-01 -9.898651379760745050e-02 1.521606840105623470e-01 -2.093887322576573964e-02 1.036669621262067964e-02 -5.336473581484264123e-02 3.364004096611420552e-02 -8.449805137095364738e-02 -1.964637638957715260e-01 -8.690811727814037879e-02 -4.218203735155146711e-02 -3.958930923386023287e-02 9.097445477704097644e-03 -1.176255610244340971e-01 -4.808127333812461240e-02 9.772674631486251429e-02
7.841635257359379219e-02 -7.153618738146735184e-03 -1.855174072642232913e-02 7.958928712160669161e-02 -1.245731015093648891e-01 -2.764543340205336680e-02 4.427701337466125042e-02 -3.274629559166471193e-02 1.063876704335820766e-01 1.280981388189777852e-02 1.608773942079937680e-01 -1.482003003885990489e-01 -3.250163490196589233e-02 6.037577701487652909e-02 -1.846913277969078684e-02 -5.119398100207179364e-02
-1.294029367434245022e-02 -9.727195318010460959e-03 7.377687468069721310e-02 -7.250685883990391767e-02 -1.435461260773661374e-01 5.037072841991464128e-02 1.226615155402742408e-02 3.287614652106059243e-02 -4.780241676534419115e-02 -4.077839729249139143e-03 -1.526729505121932340e-01 -9.470583276302328712e-02 -6.056921337831019936e-02 -7.416732031015581261e-02 3.969324363193859305e-03 3.211898208979006158e-02
1.402628372757413200e-01 -1.440386188018752921e-02 1.133764654093352697e-01 1.018869515061358172e-01 -2.583258688691627419e-02 -6.205876785508405427e-04 -1.130763135424366211e-01 -1.651921526887566438e-01 -1.454287530055884681e-01 8.085126720850731308e-02 3.837047451544921793e-03 5.172696195851637924e-02 6.440950895055001790e-02 8.437407511643166269e-02 -1.262982280394948087e-01 4.265074000840886337e-02
5.360274038044106001e-04 -4.741117749527708897e-02 9.209961800759839529e-03 -1.498222890035414041e-02 -4.660247251736924362e-02 3.795846538268877329e-02 -6.294473941880145140e-02 -1.316012384654065837e-01 -4.610539364804600027e-02 -1.223348412910039013e-01 3.346717150890221593e-02 -1.579558263486876765e-02 -7.158650715320565017e-02 -2.789831175968607649e-02 -1.610549175551176859e-03 3.672678215443851701e-02
-3.430889962427926404e-02 -3.449200517330053284e-02 -1.307547165127103117e-01 -7.241592172931017590e-02 -2.008190170059604221e-02 3.577311969369879191e-02 -4.492810892793892841e-02 1.327184609952887853e-02 -3.715867190663843522e-02 8.417203579401250080e-02 -7.020373209978811313e-02 3.512257005986643005e-02 1.810658970392587941e-01 -1.137807776446707608e-01 -3.864417412231350990e-02 7.916061838755387992e-02
6.053079699837931454e-02 1.475998569825336393e-01 -1.032049907937302446e-01 -2.444529813624681525e-01 -9.584201376285284707e-03 -1.400940061948213189e-01 -5.810787531344129009e-02 7.527770567222727589e-04 -1.606106992079398277e-01 -6.324574974337197897e-02 -1.499804860273376561e-01 -2.081932541362723280e-02 -1.261303349988500411e-01 8.159242982565978464e-02 -5.766808454500969155e-02 -5.339345997258863885e-02
-1.859374393726109798e-01 -1.800760772349818337e-02 1.521043306390178901e-02 4.377961640929598636e-02 -1.134344243774935562e-01 1.163734827484297629e-01 9.009722998747971001e-02 -6.803730113598048523e-02 5.996254285735815037e-02 -1.084778184071581025e-01 -9.761423532069565812e-02 1.599381201811454767e-02 2.586826666908681807e-02 1.096846879529671248e-01 1.287391861457935494e-01 5.938601385789400028e-02
3.027148306493277971e-02 -1.016178226876060936e-01 1.243540767476588454e-02 -1.783022814368372400e-01 6.378875900274813548e-02 -7.317924913853834923e-02 1.640539392257744367e-01 -4.242493603078174164e-02 1.458298777850426942e-01 3.990744377338550225e-02 2.139742392228558554e-01 4.489376010197034840e-03 5.123661272261660626e-02 -1.213604192863055459e-01 1.398254424900072790e-01 1.447464504827270237e-01
2.204988592623624288e-01 -5.187879101781990576e-02 -6.827832859506716146e-02 4.240445162705609033e-02 -2.233747223321516998e-02 1.561659940262703598e-02 -6.772953630979389184e-02 -1.207714763253115858e-01 5.244197953204338819e-02 -3.209576135060401153e-02 -7.718055760368439100e-02 -2.902246557677513189e-02 6.824707596944706856e-02 -1.202503930889543271e-01 -1.564504569170876713e-01 -1.044760842910635035e-01
-2.042832243137857051e-01 2.069798608210472179e-01 5.257567597430311268e-02 -1.034196000834526619e-01 7.305536529286132952e-02 -1.057742840293534048e-01 7.862768763566840846e-02 3.717152738469328005e-02 1.421841602311733899e-01 -1.570372915587441368e-02 -1.064989075612146341e-01 -5.669099756301637649e-02 1.049647801179725837e-01 -3.110991023289029489e-02 -2.088811178902943988e-01 -1.163309573412106383e-02
