-1.219882890582084656e-01,-6.687227636575698853e-03,4.917221888899803162e-02,5.889586731791496277e-02,-1.872549951076507568e-01,-1.798863410949707031e-01,3.151299059391021729e-02,-1.331170648336410522e-01,-4.863022640347480774e-02,-3.315199911594390869e-02,-1.942166499793529510e-02,1.751758009195327759e-01,2.368437685072422028e-02,5.656731128692626953e-02,-2.826567972078919411e-03,1.782367378473281860e-01
-1.720479689538478851e-02,-1.356250792741775513e-01,1.016168519854545593e-01,-9.181568026542663574e-02,-6.771322339773178101e-02,-2.678036130964756012e-02,-6.415093690156936646e-02,-9.906380623579025269e-02,1.334647387266159058e-01,-7.320179790258407593e-02,6.933484971523284912e-02,-3.105112351477146149e-02,9.377020411193370819e-03,5.368575453758239746e-02,1.300845295190811157e-03,-9.673389047384262085e-02
5.386470630764961243e-02,1.005189865827560425e-02,2.032486647367477417e-01,1.205545291304588318e-01,8.220839500427246094e-02,-1.556002199649810791e-01,1.882465556263923645e-02,1.613493412733078003e-01,-5.798837635666131973e-03,-4.294087365269660950e-02,2.316437512636184692e-01,1.346801966428756714e-01,7.022433727979660034e-02,2.779477275907993317e-02,-5.003404617309570312e-02,8.945330232381820679e-02
2.074485085904598236e-02,1.665192889049649239e-03,9.358554333448410034e-02,-3.249890729784965515e-02,1.469856649637222290e-01,-4.166861996054649353e-02,-5.823774263262748718e-02,6.684931367635726929e-02,2.806491916999220848e-03,-3.356093913316726685e-02,5.318160727620124817e-02,-1.478624045848846436e-01,-1.014802828431129456e-01,1.184961944818496704e-01,2.391745150089263916e-02,-6.188252195715904236e-02
1.028650552034378052e-01,-7.010456174612045288e-02,-5.719571188092231750e-02,1.553662307560443878e-02,1.068903207778930664e-01,1.416693674400448799e-03,-8.179267868399620056e-03,1.287149637937545776e-01,8.973371237516403198e-02,1.033540740609169006e-01,5.311743170022964478e-02,2.168038301169872284e-02,3.711017966270446777e-02,-7.261734455823898315e-02,-6.836607307195663452e-02,-4.303300753235816956e-02
-9.623488783836364746e-02,-2.232476696372032166e-02,-2.808127403259277344e-01,-1.310659386217594147e-02,-1.354033499956130981e-02,1.319942921400070190e-01,-4.372419044375419617e-02,3.999006748199462891e-02,-2.701361477375030518e-01,2.619364298880100250e-02,1.507003139704465866e-02,7.155069615691900253e-03,8.289863914251327515e-02,1.240178346633911133e-01,-1.054745465517044067e-01,-1.389275188557803631e-03
-1.102579757571220398e-01,-1.350442171096801758e-01,1.469780057668685913e-01,-4.074902459979057312e-02,-1.120734810829162598e-01,9.867885150015354156e-03,3.246071189641952515e-02,-8.392275124788284302e-02,1.058229729533195496e-01,2.235145308077335358e-02,-5.397490411996841431e-02,1.168877705931663513e-01,2.009891904890537262e-02,1.039046701043844223e-02,-1.000926122069358826e-01,-8.749093115329742432e-02
-2.685181237757205963e-02,-1.031017526984214783e-01,-4.049829766154289246e-02,-3.120507895946502686e-01,-3.098204731941223145e-02,5.935285612940788269e-02,1.903157122433185577e-02,1.180415898561477661e-01,-3.473458066582679749e-02,8.149939030408859253e-02,-7.612107694149017334e-02,-8.262937515974044800e-02,6.924495100975036621e-02,-1.336564421653747559e-01,-7.892350852489471436e-02,1.343418378382921219e-02
7.926063984632492065e-02,-1.322494167834520340e-02,-4.287471994757652283e-02,-3.642910718917846680e-02,1.303860824555158615e-02,-1.418085675686597824e-02,-1.591251641511917114e-01,-2.760628936812281609e-03,4.361262544989585876e-02,1.009540781378746033e-01,-7.494162768125534058e-03,2.285602688789367676e-02,-1.831205748021602631e-02,-4.607811570167541504e-03,2.784950844943523407e-02,-1.807640641927719116e-01
-3.249054029583930969e-02,-7.071861624717712402e-02,-1.132786795496940613e-01,-7.004933897405862808e-03,1.872774064540863037e-01,-9.032890200614929199e-02,-4.349606111645698547e-02,4.104333743453025818e-02,6.316285580396652222e-02,1.007664427161216736e-01,-8.771318197250366211e-02,-9.682022035121917725e-02,4.976361244916915894e-02,8.091021329164505005e-02,-8.145469240844249725e-03,1.587980054318904877e-02
5.097996070981025696e-02,5.882976576685905457e-02,5.308931693434715271e-02,-8.494807407259941101e-03,1.542722284793853760e-01,-3.993820026516914368e-02,-6.722313910722732544e-02,6.797321885824203491e-02,3.277135267853736877e-02,-8.589669014327228069e-04,-3.661646321415901184e-02,-9.072237461805343628e-02,-4.623303189873695374e-02,-2.023210003972053528e-02,6.599558889865875244e-02,-7.539873570203781128e-02
8.019641041755676270e-02,-1.096544507890939713e-02,1.878169365227222443e-03,-2.943032793700695038e-02,1.104918643832206726e-01,8.500798791646957397e-02,-8.090435713529586792e-02,-9.830206632614135742e-02,-2.533683553338050842e-02,1.562476307153701782e-01,-8.042506128549575806e-02,9.959382936358451843e-03,-1.030326113104820251e-01,1.073170900344848633e-01,5.126503109931945801e-02,-3.870714455842971802e-02
-1.047286093235015869e-01,3.077234700322151184e-02,-1.771614987596683011e-01,-1.703255064785480499e-02,-3.809527680277824402e-02,2.320100925862789154e-02,-1.018158422804556207e-01,1.224510332242159105e-01,-6.436688452959060669e-02,-2.183148322307104650e-02,1.542099416255950928e-01,-1.218831241130828857e-01,5.912997946143150330e-02,-1.069522425532341003e-01,-1.077404022216796875e-01,4.449043646570821631e-02
1.128804609179496765e-01,-1.232207864522933960e-01,-9.961645168144706020e-02,1.253809314221143723e-02,-1.285822391510009766e-01,8.030780404806137085e-02,5.574414092769175433e-02,-6.782965287991456205e-02,-2.922069979831576347e-03,6.154136541223653722e-02,6.638329476118087769e-02,-2.593148127198219299e-02,1.576904393732547760e-02,-6.255224347114562988e-02,-5.165698751807212830e-02,1.343551634506394699e-01
-1.375418156385421753e-02,8.557853102684020996e-02,7.699402558724877110e-02,5.833458155393600464e-03,-1.543651968240737915e-01,1.296626776456832886e-01,5.823607370257377625e-02,-3.058349527418613434e-02,-1.300451159477233887e-02,-3.917779826916456543e-02,-1.192248612642288208e-01,-1.044309809803962708e-01,-1.552973687648773193e-01,-2.796443402767181396e-01,1.252292841672897339e-01,1.229423626873220599e-01
-2.496908605098724365e-02,-1.687592715024948120e-01,-2.166754839820981410e-02,-1.136684566736221313e-01,1.134809255599975586e-01,1.029231101274490356e-01,2.931396104395389557e-02,-4.015734884887933731e-03,-9.168503433465957642e-02,3.120879108484431175e-01,-3.024705350399017334e-01,1.153338979929685593e-02,-2.590651810169219971e-02,-5.816124007105827332e-02,1.835922449827194214e-01,8.361586139687746111e-02
1.372406780719757080e-01,1.932036429643630981e-01,-8.699535578489303589e-02,3.323045000433921814e-02,9.254535287618637085e-02,9.190768003463745117e-02,2.038142234086990356e-01,1.091466322541236877e-01,7.399589568376541138e-02,6.411071121692657471e-02,1.178541593253612518e-02,-8.540045469999313354e-02,1.204684004187583923e-01,-1.749842911958694458e-01,1.689570210874080658e-02,-7.534065097570419312e-02
-1.408020555973052979e-01,1.310096383094787598e-01,2.161053270101547241e-01,-6.405741721391677856e-02,-1.104961037635803223e-01,-5.449878051877021790e-02,-2.860692143440246582e-02,3.250898048281669617e-02,-9.200837463140487671e-02,9.884458780288696289e-02,-5.333630368113517761e-02,-6.851798295974731445e-02,-1.000367775559425354e-01,-1.529335379600524902e-01,6.215130444616079330e-03,-5.780850537121295929e-03
6.272996217012405396e-02,2.061860859394073486e-01,-2.794499509036540985e-02,-4.480098932981491089e-02,1.708033308386802673e-02,8.488475531339645386e-02,-4.600770305842161179e-03,1.120035648345947266e-01,3.858909755945205688e-02,-1.463131792843341827e-02,-8.500095456838607788e-02,1.187665015459060669e-01,8.287145197391510010e-02,-3.788069635629653931e-02,2.699967101216316223e-02,7.841121405363082886e-02
9.621094167232513428e-02,1.088608652353286743e-01,-1.420791596174240112e-01,8.679860085248947144e-02,1.137019395828247070e-01,1.147809773683547974e-01,-8.926174603402614594e-03,4.420533031225204468e-02,4.368574544787406921e-02,-1.616665907204151154e-02,1.220765337347984314e-01,3.205839917063713074e-02,-1.378187239170074463e-01,-5.439456179738044739e-02,6.632543355226516724e-02,-2.686441503465175629e-02
-1.003811582922935486e-01,-1.014877576380968094e-02,5.503932386636734009e-02,-1.389917582273483276e-01,1.035775421769358218e-04,1.573373377323150635e-01,4.335486888885498047e-02,4.564694594591856003e-03,1.912817806005477905e-01,2.615768611431121826e-01,3.550652042031288147e-02,2.703836858272552490e-01,1.016255989670753479e-01,6.567167490720748901e-02,1.471392214298248291e-01,-1.311762779951095581e-01
1.021590009331703186e-01,-9.033085405826568604e-02,-1.266045309603214264e-02,-1.439384669065475464e-01,1.263905614614486694e-01,7.589184492826461792e-02,8.724140375852584839e-02,3.952097520232200623e-02,2.199207097291946411e-01,-5.563782528042793274e-02,1.033030971884727478e-01,2.286739349365234375e-01,-6.047637015581130981e-02,1.779267638921737671e-01,-8.073445409536361694e-02,4.877997934818267822e-02
-2.104053273797035217e-02,-7.016320526599884033e-02,1.443400233983993530e-01,2.335838507860898972e-03,4.562973603606224060e-02,-4.751683399081230164e-02,4.907547309994697571e-02,-1.294404733926057816e-02,5.382492020726203918e-02,-1.376485973596572876e-01,-1.318049281835556030e-01,6.598468869924545288e-02,-9.768491238355636597e-02,-5.608139187097549438e-02,7.176391035318374634e-02,1.175055503845214844e-01
-1.087838970124721527e-02,8.607848733663558960e-02,2.368488349020481110e-03,-1.565011739730834961e-01,-8.263857662677764893e-02,2.376575209200382233e-02,-3.216416388750076294e-02,-6.181959062814712524e-03,5.945375189185142517e-02,3.223092108964920044e-02,1.433884650468826294e-01,-1.759675741195678711e-01,5.214111879467964172e-03,6.781388074159622192e-02,-1.239499598741531372e-01,-9.775453805923461914e-02
1.785529851913452148e-01,4.754302278161048889e-02,1.071622595191001892e-01,-9.195606224238872528e-03,1.017223820090293884e-01,-3.709467500448226929e-02,1.175377238541841507e-02,3.524052724242210388e-02,-8.317082189023494720e-03,-1.491684317588806152e-01,-5.039980169385671616e-03,-6.599224358797073364e-02,-2.826691046357154846e-02,1.700632125139236450e-01,-6.317149102687835693e-02,-3.335561230778694153e-02
-1.870637983083724976e-01,4.418658465147018433e-02,-9.441236406564712524e-02,-3.783243522047996521e-02,-9.927918761968612671e-02,-3.547174483537673950e-02,-6.230578944087028503e-02,2.012146636843681335e-02,-4.615501686930656433e-02,6.221498921513557434e-02,-2.511247806251049042e-02,-1.400833129882812500e-01,3.153209388256072998e-02,-1.327913440763950348e-02,-1.930648088455200195e-01,2.888429537415504456e-02
-1.532785873860120773e-02,-7.431642711162567139e-02,3.893904387950897217e-02,5.003846809267997742e-02,5.587242171168327332e-02,-7.005661725997924805e-02,-5.150581523776054382e-02,6.435684859752655029e-02,3.248820081353187561e-02,-8.303997665643692017e-02,-6.451705098152160645e-02,-1.563362181186676025e-01,4.436821117997169495e-02,-5.834668502211570740e-02,1.407840102910995483e-01,9.660907089710235596e-02
-2.825075760483741760e-02,-2.948650717735290527e-01,4.625095054507255554e-02,3.063019551336765289e-02,-4.668818041682243347e-02,-8.732379972934722900e-02,-3.178086131811141968e-02,1.315670460462570190e-01,1.173301339149475098e-01,1.390465185977518559e-03,-7.732798904180526733e-02,1.615445166826248169e-01,-7.379982620477676392e-02,2.065338380634784698e-02,-9.543405473232269287e-02,8.040487766265869141e-02
-4.187108203768730164e-02,1.310138553380966187e-01,-5.625771824270486832e-03,1.039703115820884705e-01,8.087363839149475098e-02,1.037697568535804749e-01,6.207315251231193542e-02,-3.677247092127799988e-03,1.032700482755899429e-02,-7.664158195257186890e-02,7.779768854379653931e-02,-1.719419658184051514e-01,-9.962170571088790894e-02,-4.599902778863906860e-02,-1.073761507868766785e-01,4.924404621124267578e-02
5.062992498278617859e-02,-2.376305609941482544e-01,3.256784006953239441e-02,1.029505059123039246e-01,-1.096358448266983032e-01,1.050896644592285156e-01,2.213104814291000366e-01,-3.020641021430492401e-02,3.280752524733543396e-02,-1.425305614247918129e-03,7.411752827465534210e-03,3.232976421713829041e-02,1.851109564304351807e-01,-9.321765974164009094e-03,-1.747188530862331390e-02,-1.977396607398986816e-01
8.212793618440628052e-02,1.370995193719863892e-01,1.301713883876800537e-01,5.213615298271179199e-02,-1.849170029163360596e-01,-2.268211841583251953e-01,7.733955234289169312e-02,2.187506854534149170e-02,1.351537257432937622e-01,-5.978830531239509583e-02,-1.860491745173931122e-02,7.750968635082244873e-02,-1.161423847079277039e-01,5.150699242949485779e-02,-2.311515659093856812e-01,-1.196611151099205017e-01
1.801932044327259064e-02,2.726337686181068420e-02,-1.692290790379047394e-02,-5.952161177992820740e-02,5.237133154878392816e-05,6.088415905833244324e-02,-3.638955578207969666e-02,-2.211906909942626953e-01,-6.087537482380867004e-02,8.907001465559005737e-02,-7.753039151430130005e-02,1.969347894191741943e-02,4.207064956426620483e-02,-8.330823481082916260e-02,4.838851280510425568e-03,1.954990774393081665e-01
-1.634189039468765259e-01,1.474258024245500565e-02,3.637104853987693787e-02,9.512008577702879553e-02,-1.105240657925605774e-01,-9.953948622628981668e-02,-1.486609727144241333e-01,-2.924993634223937988e-02,-7.566575892269611359e-03,8.346952497959136963e-02,-2.257411833852529526e-03,-2.084060460329055786e-01,4.949498549103736877e-02,-3.814873471856117249e-02,1.161331087350845337e-01,-3.354404471616890399e-02
-1.003944203257560730e-01,-1.159978300386562688e-01,2.526481226784064171e-01,-3.190454700431999413e-02,3.884111717343330383e-02,1.033261310483463494e-02,1.433035433292388916e-01,-1.583850360475480556e-03,-5.452295765280723572e-02,-1.095982057498556816e-02,-7.352720946073532104e-02,-9.227036684751510620e-02,7.743141613900661469e-03,9.530328214168548584e-03,-3.727390617132186890e-02,-1.064854078355828848e-01
-2.965101972222328186e-02,8.065796350455106678e-02,8.638647178641337132e-02,1.064486263060897553e-01,-4.732660949230194092e-02,-9.733575949593942234e-02,-4.409897699952125549e-02,-4.909136014248915991e-02,-4.260222241282463074e-02,-3.220631650269745183e-02,-1.269263774156570435e-01,-6.843496859073638916e-02,-1.045059412717819214e-01,9.267544746398925781e-02,1.004329100251197815e-01,-1.943312564983981361e-01
-1.234513800591230392e-02,-3.556193695085946294e-03,-1.078036205266006409e-01,8.488523535073144721e-02,-1.629799604415893555e-01,4.675258550419081338e-02,1.301246788352727890e-02,-1.305414531754997554e-01,7.166092842817306519e-02,-4.419555772314032183e-02,-1.655644327402114868e-01,-7.538827508687973022e-02,-8.054842799901962280e-02,1.739509958153807323e-01,8.470545709133148193e-02,-1.031769593653335537e-01
6.499543040990829468e-02,6.131956953225236456e-02,-2.094143768991461527e-02,1.728645594733464463e-01,-4.334447905421257019e-02,-9.773717622311939301e-02,1.715248101390898228e-03,-8.528818954839699484e-02,-2.737204730510711670e-02,1.181096896363094118e-01,-7.529087364673614502e-02,1.293767094612121582e-01,-4.343158164284181139e-02,-4.803209565949151383e-02,-1.367729343473911285e-02,1.165905490728211813e-01
-1.360543221235275269e-01,-1.224473796541547255e-01,5.064582754587086677e-02,-3.482487278715723500e-02,-2.389248758554458618e-01,-3.551712796300676711e-02,7.831363007426261902e-03,-4.693464395363858982e-02,-9.139233827590942383e-02,-7.530365816619521979e-02,3.892680579241414307e-02,1.863273978233337402e-01,9.811582675165925888e-03,-5.567862300511805529e-02,-8.193951845151170588e-02,1.415018989127998783e-03
9.054937958717346191e-02,-5.294393832405143441e-02,6.187240681623418226e-02,-7.500044452856968746e-02,-6.589557230472564697e-02,1.449647227073391775e-01,1.797749288380146027e-02,-9.811570576072320415e-03,-8.563129603862762451e-02,-1.684579099233474153e-02,7.953189157979068113e-02,4.571541398763656616e-02,-4.817044828087091446e-03,-1.449142594085657265e-01,-1.744567762495019547e-02,-5.193882615787304147e-02
7.888524979352951050e-02,3.854173242992098986e-02,3.075418242216509945e-02,5.506152971255140471e-02,4.733709618449211121e-02,-1.088793518533250904e-01,-1.091112717986106873e-01,4.063701602332431273e-02,-9.088532626628875732e-02,-7.785093766324280296e-02,1.660326487680663377e-03,9.061034768819808960e-02,5.120409207901754911e-02,-1.399830197435889545e-01,7.771495942607095642e-02,5.425383634476665939e-02
1.116525940597057343e-02,-8.684732268345518591e-02,-6.655613266870652467e-02,-7.629280218518497136e-03,-2.942022308707237244e-02,-1.970877733981097890e-01,9.510525597746299908e-02,-6.397263402444738900e-02,1.270093917846679688e-01,-6.747863010789956206e-02,4.711372405290603638e-02,-2.094310075044631958e-01,1.790049989702329203e-01,2.069004353978520783e-02,-4.314251084363918132e-02,4.734440164307995857e-02
-6.542879521554195721e-02,4.859552208357317826e-02,-1.152957554973539078e-01,5.630904690155741354e-02,-1.491299867630004883e-01,-1.795948173590176111e-01,1.659584147691770539e-01,-2.246642670762316607e-02,-5.269815027713775635e-02,-4.587199792815077615e-03,-1.279931813478469849e-01,-7.476144284009933472e-02,9.272510753191090527e-03,8.309959612466855106e-02,1.305830573972225628e-01,3.965800161746868557e-02
9.922350733430651548e-02,-1.681047251448033741e-01,-1.129942043857186107e-01,2.715253933375771575e-02,-1.670155823230743408e-01,-6.340211196169320829e-02,9.930257094479788549e-02,-5.062229068118283271e-02,1.003443524241447449e-01,9.747113537405684147e-03,-7.307627703994512558e-03,-2.260677516460418701e-03,2.174682106425172012e-01,1.010300807364217235e-02,-1.296317673885810928e-01,1.631934380018587039e-01
3.124696839470864074e-03,4.335827778960913564e-04,-7.857295234878819423e-02,-7.807767377216390248e-02,-7.886527478694915771e-02,-1.078801952188399582e-01,3.028238720205428391e-02,-9.205535900132552629e-03,-1.462559252977371216e-01,-1.590047170734312232e-01,-1.040457338094711304e-01,3.580008274573898142e-02,-6.449556881235900263e-02,6.122633442282676697e-02,-8.602868290738863166e-02,-6.767229057548229676e-03
-1.975300698859106530e-01,1.057854376735853918e-01,9.953418700714422584e-03,-1.156480769093459759e-01,-1.541992276906967163e-01,-3.781710472330246375e-02,4.202897846698760986e-02,4.642762347408246199e-02,-3.365883831413896132e-03,1.200481309203382807e-02,-3.891591355204582214e-02,-8.859159811350814095e-02,-1.615762745304536452e-01,3.605636060237884521e-01,1.462884946494558136e-02,1.524866347030098268e-01
-1.062671393156051636e-01,-5.668076198445895497e-02,-1.954873709641802293e-02,-1.302117853274751269e-01,-4.444168880581855774e-03,-4.818806148466592276e-02,-1.058910191059112549e-01,1.640370234403598637e-01,-2.572729416744251596e-02,3.816903557861905938e-02,2.766665741975771198e-02,1.179457694195282791e-01,-2.978541790390386995e-02,-2.329975515604019165e-01,-1.028235093654092935e-01,4.200026420905089708e-02
7.012622058391571045e-02,1.718132862073273870e-01,1.029029267529969205e-01,8.520465334962779025e-02,-1.965119317173957825e-02,-2.082538457954967726e-01,-9.738226979970932007e-02,3.516395077665250557e-02,6.192459508008596458e-02,7.808165197814403991e-02,-6.844066018794592310e-02,-1.026606344179516739e-01,1.504750694424733248e-01,-9.331767261028289795e-02,-2.027069878281376192e-01,-7.688756101245305952e-02
-6.410462409257888794e-02,-2.175212982115840021e-02,1.995812945206938971e-01,1.314782478413192846e-02,7.390603423118591309e-02,1.382280641802129395e-01,-3.123912513256072998e-01,8.486001302459857121e-02,7.829657942056655884e-02,-1.291982384722592248e-01,4.916178127194825720e-02,1.587343402206897736e-02,-1.117040365934371948e-01,1.563508627211973590e-01,-1.097796913251269935e-01,-6.604239222909158435e-02
1.894851326942443848e-01,-7.652509102101501259e-02,-3.013181552023925375e-02,4.720394685864448547e-02,-8.921910077333450317e-02,1.164226041261606781e-02,2.761088497936725616e-02,-4.844987501718411860e-02,1.314355880022048950e-01,2.693496647153659218e-02,-2.133930549466178661e-02,-6.583356857299804688e-02,-1.342961341142654419e-01,2.730682858340571784e-02,1.173750684136858347e-01,-8.108934024953995401e-02
4.808617383241653442e-02,-8.791526179382093409e-02,2.635122691243468526e-02,-6.410594284534454346e-02,-8.131235837936401367e-03,-6.811723741116182396e-02,1.510362923145294189e-01,5.175010050210615553e-02,-6.783463805913925171e-02,-1.259394764259713639e-02,-2.949677966535091400e-02,-7.587774842977523804e-02,-8.654881268739700317e-02,3.855665613303926875e-02,1.216562539339065552e-01,1.267025144335046372e-01
2.852557227015495300e-02,-5.261986330151557922e-02,1.215989738702774048e-01,-2.967783808708190918e-02,6.152764707803726196e-02,-6.759185494390429483e-02,-7.972032763063907623e-03,1.053017257141971308e-01,1.354342699050903320e-01,1.520319922997428463e-01,-2.736498601734638214e-02,1.606815159320831299e-01,-1.215972900390625000e-01,4.170197248458862305e-02,-4.496528580784797668e-02,5.826276012262063264e-02
-1.970722526311874390e-02,-2.495966851711273193e-02,-1.245072931051254272e-01,-1.964451745152473450e-02,-5.271971225738525391e-02,4.373676064226117433e-02,-2.115131318569183350e-01,-2.610288092230454715e-02,1.527017331682145596e-03,5.719823112963595690e-02,6.786512210965156555e-03,6.139760371297597885e-03,3.411059081554412842e-02,-1.276834607124328613e-01,3.332662954926490784e-02,5.430432819020991619e-02
-4.320915788412094116e-03,1.678572744131088257e-01,-7.715850323438644409e-02,-1.714796386659145355e-02,-3.674465790390968323e-02,6.206015497446060181e-02,-1.682880669832229614e-01,1.159964948892593384e-01,4.741328582167625427e-02,8.494206517934799194e-02,1.065518409013748169e-01,8.664425462484359741e-02,8.542308211326599121e-02,2.530686929821968079e-02,1.460800170898437500e-01,-1.464104503393173218e-01
9.866618365049362183e-02,1.703250259160995483e-01,9.210450947284698486e-02,8.014883100986480713e-02,3.322421759366989136e-02,-1.502369940280914307e-01,-3.505462780594825745e-02,3.898564027622342110e-03,8.310005068778991699e-03,-3.857187554240226746e-02,-1.535985767841339111e-01,1.261564493179321289e-01,1.275862753391265869e-01,1.480398233979940414e-02,1.295446008443832397e-01,-7.860206812620162964e-02
-1.186007857322692871e-01,-2.206194251775741577e-01,-1.047029644250869751e-01,3.352247923612594604e-02,5.302492901682853699e-02,-4.052914213389158249e-03,1.412000209093093872e-01,4.016290232539176941e-02,-1.539154350757598877e-02,9.125193208456039429e-02,-5.446004495024681091e-02,1.218268871307373047e-01,-8.864365518093109131e-02,1.191820651292800903e-01,1.004550084471702576e-01,-1.637650430202484131e-01
9.360725432634353638e-02,-1.207297444343566895e-01,-7.660701125860214233e-02,5.314910411834716797e-02,-8.932678401470184326e-02,1.189040094614028931e-01,3.187058493494987488e-02,1.621016710996627808e-01,4.157439991831779480e-02,-4.446620121598243713e-02,-6.844602525234222412e-02,-8.145654946565628052e-02,6.531211733818054199e-02,8.158108592033386230e-02,1.479823440313339233e-01,4.006395116448402405e-02
-7.666428387165069580e-02,9.254112094640731812e-02,-3.484019637107849121e-02,-1.146930828690528870e-01,-7.036637514829635620e-02,-4.422269761562347412e-03,-2.382203005254268646e-02,4.113468900322914124e-02,-5.789852142333984375e-02,7.120309025049209595e-02,-6.015210226178169250e-02,-1.139237657189369202e-01,1.117743179202079773e-01,4.594758898019790649e-02,1.591451615095138550e-01,-1.061881184577941895e-01
-8.215261250734329224e-02,-7.494154572486877441e-02,7.032563537359237671e-02,-1.234351471066474915e-02,7.018185686320066452e-03,-5.553544685244560242e-02,7.611915469169616699e-03,3.339363634586334229e-02,-2.191901504993438721e-01,-3.116528131067752838e-02,8.165086060762405396e-02,2.899995446205139160e-02,2.868409827351570129e-02,2.112433761358261108e-01,-1.148725375533103943e-01,-1.435781866312026978e-01
-3.476845845580101013e-02,-1.399440914146093395e-01,8.404954522848129272e-02,-9.114808589220046997e-02,4.391748458147048950e-02,-1.687730700859692845e-01,-2.196664735674858093e-02,1.398807499012819644e-01,-6.408420205116271973e-02,-1.922982186079025269e-02,-2.654271572828292847e-02,8.604807779192924500e-03,2.465819567441940308e-02,2.520399354398250580e-02,2.907635569572448730e-01,-1.488725841045379639e-01
6.890859454870223999e-02,4.454595459261234680e-02,6.194879487156867981e-02,-9.670551866292953491e-03,1.144124493002891541e-01,1.449663285166025162e-02,-5.740989372134208679e-02,5.158317275345325470e-03,2.811191678047180176e-01,2.500806748867034912e-02,-1.016837581992149353e-01,4.590309690684080124e-03,5.006444454193115234e-02,1.224337816238403320e-01,-5.594944581389427185e-02,1.523412713805507024e-01
-5.856962502002716064e-02,8.466090214923344126e-02,-1.063308516053169256e-02,7.703961523790951726e-02,7.508216053247451782e-02,-5.606170334210011652e-02,-1.760324984788894653e-01,4.370594769716262817e-02,3.021217882633209229e-02,1.465227565014881606e-02,6.101263687014579773e-02,1.552167385816574097e-01,1.215109601616859436e-03,1.930556391016580164e-05,-7.419973611831665039e-02,-1.380217998756780862e-01
-7.550106849521398544e-03,1.167461299153283449e-01,-2.840331578925436862e-03,-1.225157623447252764e-01,1.693750917911529541e-01,7.010041780522073551e-02,1.471414323896169662e-02,-2.088337591665534454e-02,-9.180530510107587361e-02,-9.908525846094645706e-02,-8.559550344944000244e-02,5.744053423404693604e-02,2.971400403379598210e-02,7.592765986919403076e-02,5.797026306390762329e-02,-3.228190433659026970e-02
-3.428491204977035522e-02,-1.185630995536344177e-02,2.175540560555244696e-02,9.834385911400267410e-02,-1.466201692819595337e-01,7.656085546113099161e-02,-3.920705616474151611e-02,-4.708736414646078061e-02,-2.345169718353190547e-03,-2.156243300214271130e-01,-8.340439200401306152e-02,-4.762637987732887268e-02,-1.589002056981866223e-02,-1.307650059461593628e-01,6.191115826368331909e-02,-3.674720483557258888e-02
4.211037233471870422e-02,3.964116232370003615e-03,-2.188101324922325092e-02,1.472142231171905125e-02,-3.188739763572812080e-03,-4.633660087383345560e-02,-6.554901599884033203e-03,-1.155396901142624611e-01,-9.631189766901115945e-02,-1.678627176683550326e-01,-5.858713388442993164e-02,-8.278003893792629242e-03,-1.597499177792783276e-01,-5.284529102612123275e-03,-7.616263814270496368e-03,-2.239222347503400101e-03
-2.659809096859255817e-03,2.081740698803987571e-02,-1.610857689742906662e-01,4.300904321045351253e-03,-1.423817574977874756e-01,-1.275150128428310936e-01,-1.677537262439727783e-01,-1.398336865205996038e-01,-1.401979928723768865e-01,5.541734833234102098e-02,-1.625104248523712158e-01,6.221738643944263458e-03,-9.776355146950885255e-02,1.994834428269527393e-01,3.969441047967422337e-02,1.945358808695352992e-01
-4.240337074138444962e-02,-7.438596203238045934e-02,1.565654698233797104e-01,-1.159207647617677139e-02,-1.177190095186233521e-01,-1.868936277642199717e-02,-1.088510900735855103e-01,-4.360389927260466258e-02,-3.955260236875801638e-02,-1.878364706546449270e-01,-3.572271137494453797e-02,-2.443944062726244315e-03,1.920525357616379714e-01,4.895738894617807091e-02,-1.056120543737319728e-03,-1.144081232577631724e-02
-1.542828282922674085e-02,1.126904225264979686e-01,6.484172028580070801e-02,1.371329803066601016e-01,3.822032734751701355e-02,-7.191721522181948600e-02,-2.713994226590799030e-03,-1.218531004139504215e-01,1.769322142063174397e-01,-5.310121383558907837e-03,1.642711401698306872e-01,9.164241660782934673e-02,6.542713967761432103e-02,2.465941628095151827e-01,1.804960443879699561e-02,-3.985723038766297854e-02
-1.734830699395121523e-01,-8.964175927842302216e-02,1.311407428305528811e-01,1.176324424908443689e-01,-3.805949538946151733e-02,4.006954067409651543e-02,4.978623788726466159e-02,1.694886597655802518e-01,1.133032993158167301e-01,1.121860062085033860e-02,-5.881986404622807640e-02,2.404068038367872251e-02,-1.562216580879360883e-01,-1.010348116448085420e-01,-1.680344116828926815e-01,-1.175061866297966162e-02
-6.583270140790775660e-02,-6.164907240725625570e-02,9.488047724504999891e-02,3.142211083135748595e-02,-8.053537458181381226e-03,-5.747228939753767918e-03,1.831312723346059101e-01,1.037493083144349071e-01,-6.476897744336440610e-02,-5.437968450041807955e-02,-1.329845434393575054e-01,-7.106868037390481896e-02,-3.015260223961202524e-02,-2.010572376753358981e-01,1.102386984358361133e-02,-1.721339918254294332e-03
-1.331859080335108247e-01,-7.786431087530543138e-02,3.065282349893827529e-02,9.725223072842936745e-02,1.639181524515151978e-01,-1.880240281388978474e-02,-1.503139601671250603e-01,-2.611877280018015668e-01,-1.007756027633697621e-01,-1.043949114048245974e-01,1.205488566962525931e-01,-8.818882891340310004e-02,5.616256397316315985e-02,4.249844305272176825e-02,-6.823863829929166513e-02,1.925264641537829391e-01
1.034404915611162323e-01,-2.417293176346237138e-01,1.164724007275252937e-01,-2.075245364284561411e-02,-5.168327316641807556e-02,1.019628064107109822e-01,-1.242516702566024978e-01,-7.497773176984345866e-02,4.995269157348891653e-02,8.655692705326600844e-02,-4.231690431315127121e-02,1.142068138830367729e-01,1.658533058934741344e-02,-1.863037685712356506e-01,-8.756853861479108048e-02,9.063879455218959436e-02
1.963742889392868229e-01,2.413963862791064230e-01,-1.151883529441142251e-01,6.156872745524921697e-02,-1.157851293683052063e-01,2.242392895482225867e-02,-7.831724334642142793e-02,-5.066738022275207864e-02,-9.287945141385263448e-02,9.959885372438748163e-03,-7.662105478556524574e-02,1.228114641000388474e-02,-2.698825308081220786e-02,3.604902846053903431e-02,-8.640073587487595574e-02,2.332674205290574676e-02
1.640355946530386300e-02,-7.085247401357719355e-02,4.428526827389501347e-02,1.411431953355872793e-01,6.560713797807693481e-02,4.743751411592711520e-02,-1.423304292373224200e-01,4.940559187301540867e-02,-2.062774589506125578e-01,-1.830435699930887949e-01,-5.529188429207790301e-02,1.753447522409601333e-02,1.148304432917292561e-01,-1.607530336131555160e-01,9.814854644377625503e-02,-8.394868378239550566e-03
-9.457361176146150683e-05,2.147066290687007495e-01,9.393641765083948769e-02,2.077779062926765619e-02,-4.372897744178771973e-02,-9.283027368792318157e-02,-4.785544946992814630e-02,-1.649383574331330926e-01,8.320134490254760262e-02,-3.985275560478385160e-02,-3.247171890412951095e-02,-8.687263929972743881e-02,6.381164585420806556e-02,-1.036979332566261292e-01,5.309551882702243097e-02,-1.521794429399694337e-01
-3.585008712965986888e-02,-1.533610269811447324e-01,-1.364115081585413891e-02,1.206925826547262659e-01,-1.305343657732009888e-01,-8.056183240023528924e-02,-4.907486094160518064e-02,-1.046844936799686820e-01,2.110171876745425834e-02,-1.721719747869809858e-02,7.183578810135986259e-02,-1.551068048006953859e-02,1.196354247640327023e-01,3.729317562957135124e-03,-1.015201955053362942e-01,-6.982803741355070315e-03
-1.006237284705251422e-01,-2.921842054880130490e-02,9.852419486206542842e-02,1.244309234976639922e-01,1.335909751407159396e-01,-9.569804677312276908e-03,-3.133589082240373358e-01,1.263670167227530783e-01,-9.681006784596180026e-02,4.246645194188394812e-03,-1.025913402447480999e-01,-5.217352239016824489e-02,1.208957477638640532e-01,-6.283449986206335325e-03,5.998242202816962687e-02,4.892948080599790472e-02
4.259172732657745541e-03,-2.598566183706907395e-02,1.520142146999559074e-01,-1.202872946073580418e-01,1.474350137584817810e-02,8.206881118780984252e-02,-2.195321954786777496e-02,-5.475102301305989627e-03,1.533604878932237625e-02,1.243669432787286588e-01,6.896585220261901295e-02,5.319367349147796631e-02,2.176507177387322078e-01,4.093337018434084484e-02,-1.943860211040296382e-01,1.148522271006000572e-01
5.350374820085125604e-02,-5.057484354708208230e-03,1.198642042379240991e-01,-9.480490574831179629e-02,1.806378178298473358e-02,-7.702540783793665469e-02,-1.335780769586563110e-01,1.231848698387552898e-01,1.021527722477912903e-01,6.939280653863104387e-02,1.312863810245893381e-01,-3.465481847524642944e-02,-6.576112746169118783e-02,-2.529016535650052688e-02,-4.007688856195046334e-02,8.833285339523255786e-02
-4.956807555236369262e-02,-2.076321658017832306e-02,1.628989636669047059e-01,-1.154558231547753167e-02,1.947880163788795471e-02,-4.144194387635025123e-03,-3.849133849143981934e-02,1.078062323836210812e-01,-5.341745913028717041e-02,-7.574656076589642018e-02,-2.278077245427526792e-02,-1.910586059093475342e-01,4.920810831792715029e-02,8.401085427818166806e-02,4.573075381462965439e-02,-8.912972234971350272e-02
-5.453443899750709534e-02,1.321353077870099924e-01,-9.418462324219945003e-03,1.633194591100561865e-02,3.109055757522583008e-02,-1.200149562003360870e-01,-1.123944818973541260e-01,1.591070020425023324e-01,4.557497194681725539e-02,-8.504432240565407142e-03,6.882497109472751617e-03,1.398438513278961182e-01,8.965868177186367416e-02,-7.450090497519212818e-03,-8.611437724511208924e-02,-3.208134750961877391e-04
4.643664509057998657e-02,6.495285120652027899e-02,3.977016981297998299e-02,6.055962562232064528e-02,-1.113809049129486084e-01,1.262302672225633637e-01,-1.003522574901580811e-01,7.454147633056584787e-02,-9.796159580573382542e-02,-1.022276394261000948e-01,2.281338535249233246e-02,-2.279123477637767792e-02,1.296828743830955033e-01,7.007738838069599296e-02,-1.238272423791029857e-02,6.605746016658503583e-02
1.616862714290618896e-01,-1.405686105866066349e-02,4.544598331253091317e-02,-9.074931591749191284e-02,-1.335345059633255005e-01,-1.412864178419113159e-01,-8.670403063297271729e-02,2.140677661406959614e-02,6.704118102788925171e-02,2.983857132494449615e-02,1.711688563227653503e-02,4.038445767946541309e-04,2.274089492857456207e-02,-5.629725995102319303e-02,-2.145774984559410334e-02,-6.499531321791740535e-02
1.018173620104789734e-01,-1.098707318305969238e-01,-1.169563308358192444e-01,1.445735841989517212e-01,9.086647629737854004e-02,5.250781401991844177e-02,1.121086478233337402e-01,-5.814261361956596375e-02,-1.906863749027252197e-01,1.271756589412689209e-01,3.779475763440132141e-02,1.187556162476539612e-01,2.111231833696365356e-01,1.369284540414810181e-01,4.907457157969474792e-02,-1.053989212960004807e-02
1.772020161151885986e-01,3.179871663451194763e-02,6.021529436111450195e-02,2.052215635776519775e-01,-8.119975775480270386e-02,-1.290691941976547241e-01,1.922153085470199585e-01,2.619466558098793030e-02,1.454403102397918701e-01,-2.700286451727151871e-03,-1.079846620559692383e-01,2.453194409608840942e-01,4.816752672195434570e-02,2.357669174671173096e-01,8.212106674909591675e-02,6.885333359241485596e-02
-1.123927161097526550e-01,-3.848465159535408020e-02,-5.353651195764541626e-02,1.273656189441680908e-01,-4.609678313136100769e-02,1.968630962073802948e-02,5.500658228993415833e-02,2.041760981082916260e-01,5.277530103921890259e-02,-4.230228811502456665e-02,-1.516747474670410156e-01,-4.852030426263809204e-02,1.069447994232177734e-01,3.578872606158256531e-02,3.670756146311759949e-02,3.847409784793853760e-02
5.441590026021003723e-02,-1.151855215430259705e-01,-3.627217561006546021e-02,-2.236316911876201630e-02,-1.309448666870594025e-02,3.189993649721145630e-02,7.243591547012329102e-02,6.128135323524475098e-02,6.833281368017196655e-02,1.058775000274181366e-02,-1.047671809792518616e-01,1.234897300601005554e-01,1.849824003875255585e-02,-1.060338988900184631e-01,2.746140062808990479e-01,1.011444702744483948e-01
1.356615275144577026e-01,-6.985783522108637844e-02,9.919725358486175537e-02,-1.194961927831172943e-02,-5.770833417773246765e-02,-1.661106308512170782e-01,-1.449121981859207153e-01,-1.540307741733949395e-02,-3.951391670852899551e-03,-1.554981917142868042e-01,4.014781862497329712e-02,-1.446082890033721924e-01,3.834963962435722351e-02,-2.769566886126995087e-02,-1.825580745935440063e-02,-1.379589289426803589e-01
-1.084545180201530457e-01,2.838624210874385323e-02,-1.933370828628540039e-01,-1.506621241569519043e-01,-8.090255409479141235e-02,-2.352561060955013772e-01,3.431776538491249084e-02,-1.832704762163666901e-01,4.958772286772727966e-02,-6.096029065639461952e-02,-1.282550860196352005e-02,5.559255369007587433e-03,8.264631032943725586e-02,-5.319551751017570496e-02,-1.349467486143112183e-01,1.774268807999563810e-03
2.657414227724075317e-02,1.535789650342428703e-01,1.437790846892468277e-01,-1.542757551085180978e-01,-1.002116575837135315e-01,-1.662880937282722182e-02,3.748452656330414356e-02,-9.723613606245964935e-02,4.445697890790256679e-02,-5.609512199552402212e-02,-2.826769948005676270e-01,-1.731979101896286011e-02,-1.319551318883895874e-01,7.245729559761637795e-02,-4.113919316542524740e-02,-1.018876701124324102e-01
1.707003023083604812e-03,-3.289765816875700466e-02,8.980001037345997084e-02,4.181730970851305074e-02,-4.421822897690219634e-02,2.332117397191811325e-01,1.032108580313035873e-01,1.177269551092763322e-03,5.135042539254186522e-02,3.690444724577714164e-02,-7.174521684646606445e-02,-2.016072124242782593e-01,-1.590259180896982372e-01,-7.274608899730905520e-02,1.089149781812119855e-01,2.652216689046070497e-02
-2.578964512045466007e-02,2.335594967129850374e-02,-1.439175506799017512e-02,1.146603086795181525e-01,1.369207197492414707e-01,-3.874143994611989328e-02,3.727722540497779846e-02,-1.170692774497368305e-01,-8.774009327374052147e-02,1.701670049406134866e-01,7.419725507497787476e-02,7.948375493288040161e-02,-6.374856775354670324e-02,6.324674167613814069e-03,-1.439371186760527443e-01,7.555421556884311940e-02
5.936343778813423649e-02,-6.872647855490754409e-02,4.319197263873948700e-02,4.378940194783353945e-03,-3.520180266133365876e-02,-1.328654217705568796e-01,-3.952956944704055786e-02,-3.862121109573601885e-02,-4.433214752608960474e-02,6.328643001644515542e-02,7.600711286067962646e-02,-4.481529434891129426e-02,2.453495353749234054e-02,-1.723136908267670075e-01,-2.528090123837202219e-01,1.047604668424341190e-01
-8.141120157142012204e-02,-1.347458014554803185e-01,-9.521530401511624220e-02,5.277550797052299458e-02,6.588636338710784912e-02,-3.792140292952872471e-02,1.252356759286586130e-01,-2.766740854202964783e-02,-1.753048425467795823e-02,-8.893713573687023199e-02,3.786833211779594421e-02,1.003164885234042458e-01,3.237293777940608575e-02,5.134056880673654177e-02,-2.642159074720895617e-02,-1.630838067292267879e-01
1.857318004596208993e-02,3.421260031561346171e-02,-4.170411863749201586e-02,4.418843962912433199e-02,4.972655326128005981e-02,-6.920449138987549986e-02,-2.860303225077132083e-03,1.900780195569495845e-02,1.612281696764057415e-01,-7.622880448877822346e-02,4.488782989190553963e-02,9.625042966216312834e-02,-1.474928646311050584e-01,9.981136301996684779e-02,-1.973800510675682851e-02,-2.697260456169736642e-02
-1.218578056781183250e-02,-3.426833481644964152e-02,2.926921129517268128e-02,5.649191335373870970e-02,-1.423141658306121826e-01,-1.302353801136484357e-01,-1.695469106323344022e-03,-4.783766976364312029e-02,1.954916260597201472e-01,-2.606690311495185597e-03,-5.418729743854555636e-02,-5.237344702666746343e-02,-2.939587159716977247e-02,1.845152838504873216e-01,3.478697030708066684e-02,1.171162996252022026e-01
-2.007042520786228579e-02,1.806948173229854793e-01,1.324099788596413418e-01,-9.409188021822956216e-02,2.006555050611495972e-01,4.565625059784150785e-02,1.605792709680942121e-02,2.839935807678983792e-02,-1.249826212145026538e-01,-6.722175525101192761e-02,-8.708341072269831784e-02,-5.954000458574748578e-02,1.519457853377266521e-02,5.091868347790295957e-03,-5.403944373052915751e-02,7.946814837506099849e-02
-4.193696546667524672e-02,3.307534737276957015e-02,-4.341245738529708742e-02,-7.172757974365140399e-02,-2.441469931197559617e-02,-9.552414198026326630e-02,-4.833778181132397656e-03,1.717762125822730468e-01,1.051062846978085830e-01,1.157102741822200187e-01,-1.938856049435155882e-01,1.519025870068782536e-01,3.594654813707759411e-02,-4.306820390161192336e-02,1.436937534924709325e-02,-1.160703608455548874e-01
1.364831996844217965e-01,-3.275360227349999320e-02,-7.240350277758711428e-03,-1.046198897258108218e-01,9.571790135206814654e-02,1.597755720013083192e-04,2.493375646922713074e-02,-9.969130789224589506e-02,-1.086906094555808444e-01,9.741790044608933385e-02,2.400164907260560199e-02,-1.977985743242048344e-01,7.840601842926539500e-02,-5.752441326899315754e-02,7.830226404953799513e-02,1.778937414855974453e-02
2.015569802753898188e-01,-1.431892388343207756e-01,7.433583260615078681e-02,4.656159947990090586e-02,6.432161827433446888e-02,8.129043465746121910e-02,3.150156470400045094e-02,-2.863971271420917564e-01,-9.136758366907493656e-02,-4.477390137640213652e-02,-1.562071468849079992e-02,8.172416932377357668e-03,2.431678824684641027e-02,1.270283588956999665e-02,4.250776208843376480e-02,2.084318328066956383e-01
6.159525219421801978e-02,1.122219020237437692e-01,4.031890644123126144e-03,5.302404786128001035e-02,2.153365860027349754e-01,-5.481250570470308503e-02,-7.987656149094135571e-02,1.237433006366019939e-01,4.854091818595063224e-02,-2.021032856558804269e-01,-7.610167783210008974e-02,-4.379005819171055691e-03,1.129776538272159181e-02,-6.700227118562906981e-02,3.954998467305870236e-02,-1.111587138902905281e-01
-1.721303984130608811e-01,1.725224932918589804e-02,8.632161854361952713e-02,-2.080281882456347375e-02,-7.744680336510612051e-02,-4.825940704643016943e-02,-7.475889877309782605e-02,1.221513782688523619e-01,2.522606551724493329e-02,8.078115383455042320e-03,-6.020064990125936766e-02,-9.672043132511021213e-02,-4.743124278967025820e-02,-1.558347537663564708e-01,1.007618648727657273e-01,7.573168294902643538e-02
1.278596708596779763e-01,-3.639834000443720186e-02,1.322340339824838451e-01,-6.290085582088522642e-02,1.358268802269719799e-01,1.074317706033980357e-01,-8.282564303908657166e-02,-1.057380759648367530e-01,-7.650639808616688242e-03,3.058085409929844900e-02,-7.208368875044990354e-02,9.160603181629767278e-02,1.933980751835154832e-01,9.467240158770096059e-02,-8.063650479630268819e-02,-1.489543587825892246e-01
1.526225294049607939e-01,1.048534962009313176e-01,-1.345206535342924337e-02,1.216186082930192924e-01,-2.339342181638269513e-01,-1.438373746395882335e-01,-4.724712992492641206e-02,8.505495464862633526e-02,2.046938157727709040e-01,-7.443566616882435483e-02,6.211800467744499343e-02,-1.121067552526255895e-01,-2.744860178764462200e-01,6.278112277442460254e-04,1.288159386756433378e-01,-4.120966859377261926e-02
-8.544772744365847217e-02,-4.794672960247226001e-02,-1.514985001089748096e-01,-7.870284559118312373e-02,1.690099692176447732e-01,5.821991161610640120e-02,1.409363864554507018e-01,4.055581304459110470e-02,1.253187182840065361e-02,-2.450001822881064939e-02,-1.426095225346557527e-02,1.125269286896148913e-01,-1.704193916716822688e-01,-9.689189488722149690e-02,4.438738316730450606e-02,-8.134537811670838892e-03
-4.733550455278034974e-02,3.807058913901073538e-02,-1.295370587123061967e-01,3.583221320961556960e-03,-5.736616968169627739e-03,-5.311420295947755221e-02,-4.996563018767119502e-02,5.340665626473907468e-02,-6.391202519381522507e-02,-6.279368174079014153e-02,1.115980945979906380e-01,-3.867915427947482554e-02,-1.107457617346820911e-01,3.241401555260381429e-02,-1.776539385314208630e-01,8.083799651883083470e-02
1.312320414606857333e-02,9.513280358237352630e-02,-1.073361848171785482e-01,8.372154909592556538e-02,-9.134457254115957436e-02,-5.542390178470668616e-02,-2.188298368474761446e-02,-8.005138187107219139e-02,-1.115174264342044808e-03,-2.804934840013906597e-02,1.550494649447671236e-01,8.935204148292541504e-02,1.511340307952893092e-01,1.102003765656718315e-01,-2.179613424945898714e-01,-1.172071530428731023e-01
-5.291188821155218269e-02,8.677134921015294822e-03,1.581693174881451114e-01,-3.383027333755705968e-02,4.295719787478446960e-02,-6.753821079155386542e-02,2.325865538861506820e-01,8.808382796707897588e-02,-1.206519648649262422e-02,3.159258069598591678e-02,1.777210644987436972e-02,1.310352236032485962e-01,5.295208872332166083e-02,1.929436198793155199e-02,-1.615671362603663397e-01,-1.062225244441954430e-01
-3.075696080223089268e-02,-1.397034496846742968e-01,2.020682541415297351e-01,1.288657541844173693e-01,-1.428235508501529694e-02,7.274929923556783251e-02,-1.508553155002232415e-01,4.170209653839936081e-02,7.135348007033659457e-02,-9.820225400787724324e-02,1.023845274597252747e-01,8.960633724927902222e-02,2.422141023261792717e-02,2.279947690870756105e-01,-1.136972678197236131e-01,-9.935971431716641988e-02
8.019315078854560852e-03,-1.429944471879878165e-01,-1.664430101163816289e-02,1.957200845113860055e-01,-7.649841159582138062e-02,-1.211288704039661934e-02,-8.740354739052236255e-02,1.269659023801056850e-03,-2.664833508993946776e-02,1.009719597784293141e-02,-2.556281723288839069e-03,4.609639942646026611e-02,-4.724958658497607072e-02,7.289368607707835679e-02,3.672046843101817171e-02,-2.210407893704438020e-01
1.286945641040802002e-01,-3.741540033299117773e-02,2.064050390124805290e-04,1.273347996175289154e-02,-5.488796159625053406e-03,4.982873269160606466e-02,2.048815555757528273e-01,-3.548384810520859717e-02,-5.679060891270637512e-02,-2.265173792839050293e-01,-9.934285283088684082e-02,-4.226254671812057495e-02,5.722369626164436340e-02,6.467403805062144073e-02,-5.060076567446040313e-02,6.243992499078682146e-02
-1.366872936487197876e-01,-5.580751597881317139e-02,-2.308873645961284637e-02,-4.145669192075729370e-02,-8.414208143949508667e-02,-8.874806016683578491e-02,8.084782212972640991e-02,-7.730150222778320312e-02,1.076953560113906860e-01,-2.264451533555984497e-01,-1.799251437187194824e-01,-1.519379019737243652e-01,6.511460244655609131e-02,2.001073658466339111e-01,-4.351972473417624332e-02,5.123248961650393729e-02
4.797986522316932678e-02,-3.782280534505844116e-02,3.045934252440929413e-02,1.008192822337150574e-01,2.108903229236602783e-01,1.419488638639450073e-01,-7.833939790725708008e-02,-7.446917146444320679e-02,1.809913478791713715e-02,-1.420167535543441772e-01,1.536593139171600342e-01,1.533200591802597046e-01,-9.557170793414115906e-03,-7.919068448245525360e-03,1.279378384351730347e-01,2.346884086728096008e-02
6.085548922419548035e-02,-7.300610840320587158e-02,-7.544391602277755737e-02,-9.714252315461635590e-03,1.762813478708267212e-01,-5.690230801701545715e-02,-2.787840366363525391e-02,-2.442644722759723663e-02,1.379503458738327026e-01,6.344102323055267334e-02,4.248405620455741882e-02,-1.316951494663953781e-02,-4.010356590151786804e-02,9.959358721971511841e-02,4.057629033923149109e-02,1.024760231375694275e-01
-1.630928897963568325e-01,-1.843521544087913314e-02,-7.511691190302371979e-03,1.048305407166481018e-01,8.583498746156692505e-02,1.058188229799270630e-01,5.710013583302497864e-02,1.122114885412034413e-02,-1.264248490333557129e-01,-7.674941222394346396e-02,-2.104594334455391069e-01,-3.202399611473083496e-02,-6.719430536031723022e-02,-8.261152356863021851e-02,7.101899368361144771e-02,2.612479031085968018e-01
-1.416231632798670148e-02,-1.327722276870457463e-01,1.078732460737228394e-01,-1.228225156664848328e-01,-1.210688054561614990e-02,2.911121992117537971e-02,6.180629134178161621e-02,-1.423245506005619831e-01,5.941466573842267562e-02,1.001406138990009048e-01,-8.318945765495300293e-03,-1.415050774812698364e-01,-3.144575282931327820e-02,2.749459818005561829e-02,1.504408031937367607e-01,-8.493507653474807739e-02
-3.434304047814595862e-02,1.090231130342445183e-02,-1.434636670602307262e-01,-6.094751134514808655e-02,-3.990681096911430359e-02,1.704855696980752192e-02,-1.089062914252281189e-01,1.320537743290324251e-01,2.972428975296209294e-02,-7.720882639766002420e-02,-3.236405178904533386e-02,4.466436058282852173e-02,-4.586379230022430420e-02,8.906874060630798340e-02,3.110877935900013824e-02,-1.029866101645089960e-01
6.595762552797387879e-02,2.148423295832344593e-01,-5.677277438507893903e-02,2.993840412750614632e-02,-3.772521114731347547e-02,-5.939426497784031783e-02,1.217229223238405211e-01,-1.725199769782300718e-01,-1.087807089095060853e-01,1.325589281703538069e-01,-8.911053836345672607e-02,-2.700676777367044812e-03,-1.533049204693988712e-02,1.418873597543282017e-01,-1.645842883560550418e-01,8.864397541833757277e-02
-8.457880921733718083e-02,-1.401992548240684755e-01,5.899929973058881671e-03,-5.179804838388957222e-02,3.095786017860078232e-01,-1.496364524499019244e-01,3.112585358618957798e-02,-9.718323616239388230e-02,1.103013286150121564e-01,7.488127084661395927e-02,1.493015736341476440e-01,1.005015173393863648e-01,-7.641308205011802801e-02,-4.556757633781367833e-02,1.246800794666845791e-01,-5.021980144444881944e-03
-1.079841426034562346e-01,2.492757178984561506e-01,1.464056821598074265e-01,-3.480147620683737841e-02,6.588936242243548236e-02,2.208343659398792624e-02,7.399605527853125864e-02,1.486421166084426204e-01,-2.799257023213316820e-02,9.870741829955065327e-03,-1.265791058540344238e-01,-8.473236522589289166e-02,6.071904554052975911e-02,3.663989234783171511e-02,-5.419522636424434214e-02,-4.292416473834337332e-02
-2.130285062162329268e-01,8.357229652864361924e-02,1.325078584352832323e-01,3.016578688345816772e-03,5.979198428000631615e-02,1.105875137851342060e-01,-6.747920822833226862e-02,-2.507110334423856557e-02,-1.622562574992454654e-01,-6.267972110407127317e-02,5.083664879202842712e-02,4.313484794070632233e-02,-6.989855929567211079e-03,-3.290674773583934787e-02,1.504979215965212280e-01,-1.742589884628742425e-02
7.532136216025264730e-02,4.930536114461858688e-02,1.465486754464525310e-01,9.729826633158999982e-02,-1.134061597486066830e-01,1.042678486652448555e-02,-6.032377366079799685e-02,-3.191575492134773873e-02,-1.110517567999522726e-01,-5.359273518394047642e-02,-2.228193467156558416e-01,-1.478524659587876489e-02,-4.322623658102873329e-02,-1.025377262083604357e-01,-3.697893770977778161e-02,6.006816304667861317e-02
-1.143961057832711958e-01,-3.921873338098125217e-02,4.839975290572651190e-02,1.234405028874518973e-01,-2.163602776676043504e-03,-1.198596212486791046e-02,-1.505059555202024058e-01,1.097213345730949641e-01,9.012415413485541649e-02,-1.505056835162577045e-02,-3.489798044756753370e-02,-1.896216693112151574e-02,-1.854308528618022964e-02,-9.602619439829140902e-02,-1.246849368605573716e-02,1.690233349429228760e-01
2.892448852439883922e-01,2.031126725947740574e-03,-1.488778708728841771e-01,-1.037463872423813882e-01,3.023249831912266927e-02,-7.314318267506614291e-02,-6.960854407384431397e-02,-9.181050483038433185e-02,4.422550512799716671e-03,5.355248423165903660e-02,-2.129983659261824869e-02,1.163710799761465964e-01,-1.407690596840746600e-01,1.339256551382277394e-01,4.767549132754977936e-02,6.029193492929207920e-02
4.065340837905750959e-02,4.030925700725696004e-02,-3.666322091788298820e-03,8.754200509838483413e-02,-1.219630000523661550e-01,1.246877049861794262e-01,-2.099046699749479439e-01,-9.544262011154103220e-04,-1.428249892996000803e-01,1.620237047045520740e-01,-3.672102437074897807e-02,-1.025659943572976296e-02,-1.500310633025563334e-01,-1.552434446375627886e-02,-5.457810359302378567e-02,-1.105703313697503631e-02
-1.101633837083682010e-01,-1.453704012515117938e-01,3.213947566499086861e-02,-1.348431308931026251e-01,-1.629346307253385362e-01,4.241861574789140832e-02,-1.370690419473987731e-01,-3.775101597512353635e-02,-1.682476850589864625e-02,4.905776397845329484e-02,-1.355980096786789935e-01,-1.818657740479867613e-02,-1.049743706018522182e-01,1.199829564202445908e-01,6.257813738474959919e-02,9.185285532714715373e-02
1.690002731187973950e-01,-5.645340535005516358e-02,1.418236019869851816e-01,7.357839492819806537e-02,1.588760292580985167e-01,1.204524625081759837e-02,-2.862460508245590063e-01,3.069831940306144702e-02,-8.053904916304421846e-02,3.830622980785847176e-03,-1.368945555608232778e-01,-4.195935281109985926e-02,1.611881677854791750e-01,-2.740886106835205283e-02,-8.268383275652446684e-02,-1.275428002281842055e-02
5.900165096537790532e-02,3.152007242542831378e-02,-1.754768801447426085e-02,-1.064964749949690592e-01,-2.891617436449678280e-02,9.094316647621525362e-02,1.317773989129022993e-02,2.291561101488781560e-02,-2.614742597073940189e-01,1.911680723446806951e-02,-2.872390041253050641e-02,1.337441430838809675e-01,-1.759620921738616062e-01,5.444428013944957456e-02,8.641516839125262806e-02,-1.034056389698889689e-01
6.560354936505063961e-02,1.547928355921968091e-01,-3.295611217117766500e-02,1.136315777093273027e-01,-1.703692145982813599e-01,7.001618033589807055e-02,-4.775871090578220901e-02,-2.901590994691971570e-02,2.407035449514682846e-02,1.164825587107727323e-01,2.334504260843317525e-02,-2.610126040810456516e-02,6.384505872793511116e-02,-2.120512491914139375e-03,5.553923303935270894e-02,-6.478512490957655245e-02
5.583357519270393254e-02,-1.364631447700759281e-02,1.178461601853086904e-01,-1.883175329654784846e-02,-3.406344186674914454e-02,1.075340847467387562e-01,4.071736691093974514e-02,-7.262876012233210332e-02,8.467156580046264480e-02,1.775126550631966893e-02,4.260643889768030157e-02,3.090338255387337085e-02,8.199139064470134519e-02,-5.685515574878313716e-03,1.685186035864792986e-01,5.738249619162161252e-02
1.055022485133729759e-01,1.131500034846624203e-01,-1.601765951434117596e-01,-1.575224523173388569e-01,-5.263670169028955570e-04,1.468398776412502826e-01,-1.255083316300442675e-02,8.680615548445302920e-02,1.181067714333750018e-02,8.490544034930280759e-02,-1.509480152856936819e-01,-1.259488460043840519e-01,-1.278063694868617484e-01,-1.069169814304333777e-01,9.066026976946206517e-02,5.511165557851427366e-02
-1.702863836118879703e-01,3.805471935343618384e-02,9.056168362917560444e-03,-2.077449932138059063e-01,-3.959607803726777897e-02,1.004892407820534572e-01,7.002782325798762031e-03,1.325708846770794480e-01,-4.662112485675606877e-02,-1.094796229517669417e-02,7.853907382120239866e-02,-1.050855160770174379e-01,-2.300124646532863970e-02,-1.499998705528837739e-02,-2.202961186673348948e-01,-1.460951600243269866e-01
2.049505640355122615e-01,-9.643355072550008344e-02,9.492606917660850741e-03,-1.808897249465490908e-02,-9.173220861419384420e-02,2.919381922151842446e-02,-2.427414294891150348e-02,1.115788707325009455e-01,-1.407775182633486111e-01,1.440336545815625868e-01,2.076563473987935726e-03,7.299721647271795177e-02,6.240294675331403695e-02,2.136467594115889490e-01,7.760372144448268728e-02,-1.441648643977373467e-01
-3.759601382143829690e-02,-5.196986943022530170e-02,5.099321422474645260e-02,3.513362509985995530e-02,6.397279829155877451e-02,-1.031056368619829300e-01,-1.108389290202147215e-01,-1.189065091755234782e-01,-1.212726000276234117e-01,-2.097002714094742259e-03,-6.167089921156332366e-02,1.807118608025819473e-01,-9.628449424156926284e-02,-7.810891553094734263e-02,-1.213620887790511915e-01,1.218753858195604778e-01
1.739836091929731765e-01,-7.689622720649591514e-02,8.700592327803846615e-02,1.190876381776320159e-01,1.209659119100123803e-01,-1.590489804299810572e-02,-1.412229707167966808e-02,2.512716168435602526e-02,5.298041568312328309e-02,1.120029950807940322e-01,6.365704562642804376e-02,-1.062534668597380806e-02,-7.338358713170123337e-02,2.201163884783546854e-02,5.866919429308836698e-03,1.689146797855212156e-01
-9.500180078717779253e-02,-1.756397717217623722e-01,9.794212918460779016e-02,-9.918326344916295056e-02,-2.980362607208064674e-02,9.030566463123479437e-02,4.602722705158157623e-04,-7.530417008610124086e-03,1.174080257828884477e-01,-9.306325134965343082e-02,8.511640482441862332e-02,-1.211050988889830621e-01,1.019119633079537124e-01,-5.338882228734542768e-02,-2.583227791660647199e-02,6.583176007610536118e-02
1.014460429950658771e-02,8.626707650682874373e-02,1.888056719916439974e-01,-7.314349282244592132e-02,-2.262412576448467882e-02,-5.224655753850349083e-02,6.743618092571068701e-02,3.421678680048367838e-02,-4.347445166597019295e-03,-6.883050458971817775e-02,-3.274291700122069493e-01,-8.759398758411407471e-02,-1.410645244924114694e-01,1.970679358362303901e-02,-9.659784439352847585e-02,1.202592724663100743e-01
-2.877049844235535225e-02,-2.193209756766378860e-02,-1.425757790820725290e-01,8.662880928025984417e-02,5.268532317131757736e-03,-7.773227670354748015e-03,1.561031972044020222e-01,-1.172731562077813372e-01,-8.027652324439499276e-03,2.743645000110461751e-02,5.851133868695423956e-02,-1.002179682254791260e-01,-1.258461151585155979e-01,1.037359157934361065e-01,-3.598427027558229185e-02,-9.464080942592295598e-02
-1.981321056274356618e-01,-1.600891787058625892e-01,1.306757877196252360e-01,4.809562489350582837e-02,1.632348895072937012e-01,1.080489915562493630e-02,-5.006104040490022555e-02,-5.178205188912698986e-02,-3.118664323415504258e-02,1.195674636450894113e-02,-2.052726206055197622e-01,2.188073471188545227e-02,-1.533773690462112427e-01,-4.951583267553516521e-02,-1.045683986166298651e-02,-6.053674927300897735e-03
-2.146003693342208862e-01,1.359280942180368934e-01,2.326336689293384552e-02,-1.817018558529071015e-02,-4.899944365024566650e-02,7.253286122619580223e-02,-2.239632047712802887e-02,3.439710464053780115e-03,-1.740400399530649400e-01,5.002924427390098572e-02,4.686759412288665771e-02,1.533474177122116089e-01,2.851123176515102386e-02,-1.501064349614154025e-01,-4.237218299356548812e-02,-1.236855459476231545e-01
6.575519684702157974e-03,1.289291977882385254e-01,1.291170418262481689e-01,6.110507249832153320e-02,-2.054724842309951782e-03,-1.226933002471923828e-01,8.831161074340343475e-03,-1.089371815323829651e-01,-6.376820057630538940e-02,5.561304092407226562e-02,8.325672708451747894e-03,1.672890931367874146e-01,-1.243658289313316345e-01,1.721850223839282990e-02,6.242291256785392761e-02,3.138146921992301941e-02
-2.206671684980392456e-01,2.796196006238460541e-02,1.071069017052650452e-01,1.315632015466690063e-01,-9.504559449851512909e-03,-1.592150181531906128e-01,-9.913931787014007568e-02,1.297880616039037704e-02,1.466381400823593140e-01,-1.556957792490720749e-02,-8.660828322172164917e-02,-4.202181100845336914e-02,-9.978961944580078125e-02,5.445381626486778259e-02,-1.514178961515426636e-01,1.971193403005599976e-01
5.910512804985046387e-02,-9.280183166265487671e-02,-6.373056024312973022e-02,4.286117479205131531e-02,7.815433293581008911e-02,-8.619025349617004395e-03,1.540043740533292294e-03,1.558350026607513428e-01,-5.532020330429077148e-02,2.428787201642990112e-02,-1.302233934402465820e-01,-6.369247287511825562e-02,-1.703581213951110840e-02,-3.426039218902587891e-02,8.764404803514480591e-02,5.651657655835151672e-02
-1.153082977608366200e-01,1.314267134274129667e-01,-6.533301580506248318e-02,1.342469155788421631e-01,-5.932525684867435284e-02,-3.146417367718434832e-02,3.416962549090385437e-02,8.072600342392372355e-03,7.386185739126949201e-02,1.785291402157159618e-02,-1.037761047482490540e-01,2.572057356809454021e-01,-1.602242439985275269e-01,3.730979934334754944e-02,-1.009008268436837330e-01,2.075329854234309046e-02
7.696225142214707660e-02,1.410752574352702737e-02,-6.567690072602161422e-03,1.296606416036496512e-01,5.640041319369482054e-02,-7.917415734882227163e-02,1.171569302678108215e-01,-1.032578732920049064e-01,1.298513560645382370e-01,-1.818854194460665097e-01,-1.595098078250885010e-01,-4.766367035295277638e-03,1.693047560774940674e-02,-1.173915233435038341e-02,-1.164360846047687026e-01,-2.259214155511500288e-01
-1.018702758796166119e-01,1.980216986510185961e-03,-3.499429541478835809e-03,1.897025879979690188e-01,-3.518065090209043788e-02,-5.197281879224353862e-02,7.646939134229638335e-02,-2.536299134914816733e-01,8.260322128312402867e-03,-5.095847083433180380e-02,-8.656238913225089426e-02,8.703196430171250553e-02,1.530775944893998097e-01,1.588255152870726716e-02,8.688687619360280223e-02,-8.002559507702805552e-02
-7.131934787997806779e-02,-3.203308106662916543e-03,6.145712977013673139e-02,1.257767441121302454e-01,1.064612950550892639e-01,-3.486885171818343565e-02,8.029880205636709400e-02,-2.371759921224362438e-02,1.519085006683411621e-01,-3.347232074516170997e-02,-2.816709481553110461e-02,-3.864465965232682931e-03,-2.185431200170928623e-02,-1.013472531770876484e-01,1.203927095116910095e-01,-3.763097732762821224e-02
-1.028746679755840887e-01,1.196617772613990383e-01,-6.328876920556059105e-03,-7.664621429789875151e-02,5.375343102783247673e-02,-2.303606694547966072e-02,-5.798457286640817943e-02,-1.002016647326087195e-01,6.031937135394571659e-03,-1.080648368631495632e-01,-3.744800422243160093e-03,-4.159928349660058089e-02,8.374379204996262871e-02,-8.071106036130126782e-02,1.903722162347065705e-02,1.361997815150217672e-02
-1.118591319611823565e-01,1.442788232659495407e-01,7.162894234330796639e-02,1.115886953719773533e-01,1.629019688011874023e-01,-9.730994150544347576e-02,9.372486108126282245e-02,-5.945483703227338879e-02,2.195503653294395008e-02,2.126146643280435455e-02,-1.009059134599930019e-01,-4.088273030740002811e-02,6.347957902084520876e-02,-6.598348419014610222e-02,-7.313363002907635746e-02,3.116233094227593980e-02
7.862833563058302389e-02,-1.572903767216811133e-01,-5.517664137976563410e-02,3.934170278595594539e-02,-2.122298772504482844e-02,-7.254593447316892707e-02,-2.045106513872881893e-01,1.199525407140882294e-01,-6.941267726915612002e-02,5.304168878410564503e-03,1.136094201547384053e-01,-1.282595994145724512e-02,4.828727646355268632e-02,1.350438362421733096e-01,1.130999371978287371e-01,1.375512190089480669e-01
1.800674206606949213e-01,-3.526934953726534872e-02,3.286273052125920913e-02,-5.445202953859418216e-02,-1.487545510383422309e-01,-5.087939207464842184e-02,-8.178707671140728053e-02,2.616972252196898552e-01,5.420468081035778596e-02,-3.815391860143790836e-03,-1.485919109431392826e-01,-1.007608421147132560e-02,-1.237618728816300973e-01,-8.695203065406909015e-02,2.491445654868935655e-01,9.593150090059143764e-02
-3.206644633590105542e-02,-1.396019090762911086e-01,-2.788623665075640190e-02,-1.424356869230791744e-01,2.617489917839677105e-02,4.471397286978628927e-02,-8.823575664507643523e-02,-1.931991690899259595e-01,1.312628564171802736e-01,-3.315076585840870393e-02,-6.408141079990059552e-02,3.088792794099504135e-02,-3.897250583563049986e-03,-5.611653920639358972e-02,-2.643101000084948637e-01,2.117007311211125398e-01
1.194720705506142622e-01,-1.444666326380605881e-01,-7.092374325630146359e-03,8.318746394015974488e-03,1.773250665192449560e-02,-1.054185103015949920e-01,-1.658751404767144777e-01,-1.349236592303917348e-01,5.634075085763790014e-02,-9.315940411079282057e-02,6.551835574995124034e-02,3.373297097986471815e-02,-7.213858395599093143e-02,-8.287505201480094286e-02,-1.131704424355550742e-01,8.691918832045075760e-02
7.379870366449381436e-03,-4.057946540718404549e-02,-2.965782358347723857e-02,-6.384729717109305369e-02,9.030475759914224909e-02,-1.142512656070948651e-02,2.011323177794110961e-02,3.509708168623149049e-02,-4.768824447134534239e-02,8.325408226892250241e-02,1.044156916523499845e-01,7.538071832131620909e-03,-5.029856037674562685e-02,-3.456205504950782270e-02,5.854550422527893261e-02,1.119039617765338335e-01
-2.575357799597099984e-02,1.174276686238044931e-01,-5.860990992687220569e-02,-1.585421733066429972e-01,-7.455438273547088102e-02,6.770422562098232788e-02,-4.621091342096406152e-02,-1.359157479548400715e-02,-7.035267785604770729e-02,-1.315867459582023002e-01,3.212021939728870734e-02,1.021282713367650530e-01,9.212559434010358927e-02,9.702540853746732807e-02,-6.053618685109540820e-02,-2.242825903067569016e-02
-4.364628736428244338e-02,-4.553799132160918361e-02,-1.040743695102719357e-02,-5.587399552283311976e-02,8.440119124725242727e-02,8.165189613912549049e-02,5.678039261442791030e-02,3.171722645447516697e-03,-6.553673973557250232e-02,7.139801817515945004e-03,9.558509486842581282e-02,9.383680121271220642e-02,-3.063040831335683833e-03,-9.903732877521420619e-02,9.801469884314428782e-02,1.356741615477403684e-01
1.455879047280390637e-01,1.338109022640310286e-03,-4.613975214033416705e-02,3.268220888692752180e-02,-6.764132152443380619e-02,-5.953143594803478322e-02,4.476542944757966325e-04,1.036292127414526476e-01,7.714462387389176001e-02,2.467865363882992824e-02,-4.471159906721311472e-02,4.404854620980636071e-02,-1.218399869337503105e-01,-6.339098184401592562e-03,-8.426495867479388835e-02,-4.127713617799599888e-02
5.398160869758683589e-02,6.250713594806711626e-02,-4.816259750123208505e-02,-7.726056457104846231e-02,7.477718140944489278e-02,1.035044664945417026e-04,2.458327688771078101e-02,-8.049475925465365833e-02,1.278232050178260693e-01,-5.906924176019856532e-02,2.889180148470416043e-02,-1.202547719278843630e-01,-1.775667567301931205e-01,-1.635309400517144240e-01,-1.760070302602798620e-01,5.381540864344636077e-02
1.326684405222531282e-01,1.775917049848985130e-01,-3.814139095402424573e-02,7.514762640072944477e-02,-9.148275021766494319e-02,-5.569129616893420121e-02,6.678679019152622409e-02,5.729584073621651896e-02,-1.431784893093208666e-01,2.813942962632154376e-02,3.913345716816252207e-02,-2.447850428352338348e-02,4.095180958488242595e-02,-1.604764183693987434e-01,-1.733653512726718304e-01,-9.588394769642150095e-02
-7.486654889859334361e-02,-5.690181702725283230e-03,1.484098160999565152e-01,-1.041281626690420126e-01,8.666022467198786217e-02,-4.139990779008329014e-02,9.523277726753986983e-03,-4.390631163058600350e-02,1.317840822785001365e-01,-6.766612815454209340e-02,-7.468933492105045424e-02,7.984077770411279751e-02,9.003079937345370709e-02,-4.465080491286244069e-02,-3.699541286843022192e-02,5.538484627323470022e-02
-6.191924200204801387e-02,-2.496287614248737796e-02,-1.229331336289760657e-01,-9.538731700396851920e-02,-3.096016235165421904e-02,-1.160436867472185440e-01,4.528063865227469065e-02,-1.526684097196664425e-01,-8.169326676579657942e-03,9.083992090654646745e-02,-1.005849204999453850e-01,-1.785310107578457206e-01,-5.395943362702837476e-02,-7.505881306491346550e-02,1.164345725045308200e-01,-5.568771590799137527e-02
3.918036681557168777e-02,5.018930279025113350e-02,1.320693614547963080e-02,-1.734987160275522911e-01,6.207729713878507027e-04,1.749060086952312076e-01,5.988604768756822239e-02,9.995340000128472013e-04,-7.627980502820719266e-02,-8.945296854619755322e-03,-1.080542156377679586e-01,-1.397005158163896477e-01,4.432258915587239390e-03,-1.470166092926774581e-01,-5.327564081551372510e-02,-1.209437794012537815e-01
-1.259013036427347743e-01,1.238554275803904758e-01,-6.948720106951000730e-02,9.895834501503486536e-02,-7.824082662895648355e-02,-3.487130051865960922e-03,1.801368467721120581e-02,-1.636063179483926433e-01,-1.168853853623659234e-01,-7.681751080594922954e-02,7.373580913986810259e-02,1.853580349962449247e-01,5.440770584301413137e-02,5.181385274863714585e-02,-1.105923552267995547e-02,1.007676964979005163e-01
-6.484832673124962810e-02,9.348560350122170348e-02,-2.697797919564726143e-02,-5.458516895851062145e-02,-2.422897582642047354e-02,-1.651416550808759709e-02,1.143764889470646473e-01,-7.337816528842466823e-02,5.812412107536601980e-02,-9.850408715088077027e-02,-9.063472552487561451e-02,-1.821927721003149259e-01,-7.259392540401547744e-02,1.895661007210946991e-02,4.912470375887778573e-02,9.576806142166560676e-02
8.767220361439939658e-04,1.408420612831915442e-01,-1.303365093062205382e-01,1.897557990583322862e-01,-7.716486485104212534e-02,-4.589798872724364098e-03,8.499082322151707558e-02,-6.532541344400311090e-02,9.265123726133572823e-02,9.610052474491456720e-02,-4.484946647007576059e-03,-4.534386748374955034e-02,7.300335059083539954e-03,-1.867306317762995604e-03,6.602257319149273940e-02,1.691946030023245839e-01
8.173530054415917290e-02,-6.481678596348228183e-02,-2.535975747677726710e-01,-6.218100762608713694e-02,3.307868922874490636e-03,5.270630699238770811e-02,-6.623199692592862675e-02,-1.092361368350025508e-02,-3.492242148558943882e-02,-1.701889763079059148e-02,1.451184373787341997e-01,6.067825701614393274e-02,7.735501348303053248e-02,1.825004344300396042e-02,-1.479996200247530314e-01,1.866155626810126478e-01
-9.859864379714387839e-02,-1.216594399643783908e-01,7.616674621176944271e-02,-7.787102365739428933e-02,-4.183374314334287192e-02,-4.100134561570739633e-02,-2.344868308611580687e-02,-5.417328228963924630e-02,9.931338942720324692e-02,-1.823604974912801380e-01,4.726430983900725691e-02,1.566897481679916382e-01,9.060667538349420624e-02,1.883672331905472674e-02,5.450711978209943354e-02,-1.720530608773240822e-02
-8.873257786035537720e-02,4.436073920555450023e-02,6.227110698819160461e-02,1.743552641618180132e-01,-4.993906617164611816e-02,-1.319451556348898158e-01,-2.570012095227554028e-01,1.750319238262538352e-02,-1.160784187713765903e-01,9.304194210866478798e-02,1.181178353726863861e-02,1.018917188048362732e-01,1.022054008411430459e-01,-5.820230061188169657e-02,9.237549743329032115e-02,1.270477762733044358e-01
8.519010245800018311e-02,-4.364144802093505859e-02,-1.214412376284599304e-01,2.642391622066497803e-02,-3.939892351627349854e-02,-8.054248249024743497e-03,4.169857874512672424e-02,-1.629903316497802734e-01,-1.906305402517318726e-01,-9.444487094879150391e-02,9.864600747823715210e-02,-3.284487724304199219e-01,4.394325986504554749e-02,5.473921021066352477e-02,-2.012000046670436859e-02,6.504391133785247803e-02
3.405825421214103699e-02,5.267880111932754517e-02,1.777003407478332520e-01,5.222274735569953918e-02,9.281986206769943237e-02,-2.189456485211849213e-02,3.734814748167991638e-02,-1.200629025697708130e-01,2.925579063594341278e-02,1.198844686150550842e-01,7.234704494476318359e-02,-4.607257246971130371e-02,-8.953572809696197510e-02,-6.889839656651020050e-03,-1.996186934411525726e-02,2.570419609546661377e-01
2.287019092621805222e-02,1.505317582972210966e-01,9.870740585029125214e-03,4.207963868975639343e-02,-1.668318174779415131e-02,-3.914250060915946960e-02,4.723379388451576233e-03,8.962626850334443063e-02,-6.044978648424148560e-02,-2.340324223041534424e-02,3.957248851656913757e-02,-1.488133370876312256e-01,4.008923098444938660e-02,-2.279271744191646576e-02,2.071988929165918814e-01,-5.289014056324958801e-02
3.246963474922015536e-02,-2.682324494181727026e-01,1.704842239992805375e-01,-1.832041703164577484e-02,-1.344090414565982661e-01,-1.879652867070164685e-02,1.073000282049179077e-01,3.521918730933217001e-02,2.105500307353125322e-02,5.603371135078205612e-02,9.728702157735824585e-02,-1.472158645715838376e-01,-7.266924064211946650e-03,-1.471750577699702522e-01,1.640485412791270470e-01,-1.489799572700667984e-01
5.943231069210241913e-03,-1.778063885608327510e-01,9.302140431846436797e-02,1.769268903916554336e-01,2.779308008860947865e-02,1.402239801811534098e-02,-3.051186911761760712e-02,-2.063789119712285472e-02,5.230098820574115293e-02,-5.663612833497921883e-02,-1.442551612854003906e-01,-1.005315210055270081e-01,4.200874614531802109e-02,1.024737933655929939e-01,-2.410942414808090462e-01,1.226248949509383124e-01
2.069055174423795052e-01,-3.909222469590645233e-02,1.436482347123444470e-01,-1.654720558575490941e-01,-4.433666652366641259e-02,-3.645814085083784462e-02,-8.115274900537736147e-02,1.504454586916115222e-02,-9.612788174955255727e-03,-1.085639861047020815e-01,-5.013467954501733825e-02,-8.313930571010444415e-02,-3.383024342777535276e-02,-2.950916085035606429e-01,-1.349617350837775120e-01,-7.303637020115161249e-03
1.576772178381133926e-01,6.307141419404160843e-02,-1.406585469958088197e-01,1.047383538802932890e-01,1.664375017580255189e-02,4.602096069525174471e-02,-1.300073971085549118e-01,1.145089778549848170e-01,-1.073513253629698738e-01,-1.568983001556705226e-01,-2.325204109711364459e-02,5.597429351275558240e-02,-1.818290845759203411e-01,2.464843399143801239e-02,1.114198047203491804e-01,-1.988439241547774738e-01
-1.220285739889277465e-01,8.873911635623699112e-02,-9.677474152738341218e-03,-1.833267096894353188e-02,7.317246114050937611e-02,-3.181106633573449471e-02,-1.710289752891334114e-01,-1.440657029847280945e-02,-2.808030496201534970e-02,1.499892752800828788e-01,-1.284840367083824320e-01,1.683359405899549355e-01,1.853229101396935974e-02,2.177657150848389955e-01,1.478707257451574719e-01,5.703575236678593008e-02
1.451531645755039790e-01,1.379997661608740600e-01,-1.928463465519730802e-01,5.941569668085122657e-03,-1.020429863220044253e-01,-4.123337472526600322e-02,7.496270818258155000e-02,3.720031912854221412e-03,4.583027359700508896e-02,4.009136867438234386e-02,5.577948626002893207e-02,2.115455917279834841e-02,2.795013474180922941e-01,-3.714877867187027505e-02,3.392124993337519712e-02,-1.250073133401201630e-01
-1.357347118751022208e-01,1.478749294918082491e-01,4.046204467361214085e-02,-3.157885458812348389e-02,-8.167128406927304241e-02,-6.218672525392321404e-03,-1.019283490381894808e-02,1.340318833692366596e-01,-4.275498199535832100e-02,1.887423232960827590e-02,-2.060686758152954212e-01,-1.564780099185965057e-01,2.350547025450122618e-02,-1.043088083205350181e-01,8.760994550218725863e-04,1.256420190119911240e-02
1.944525821935201293e-01,-9.924195987326989155e-02,-2.975153705122579595e-02,2.135924927259029715e-01,-1.156132382775467704e-01,-1.072260919709151494e-01,2.266582554489104950e-02,5.567270696733572777e-04,-6.136729791450079574e-02,-8.029103676653903676e-02,1.931740044269885659e-01,-4.913691421911181578e-02,8.449484359243797371e-02,-9.510206163663137424e-02,-1.625299200029419744e-01,-6.784650022456162333e-02
-1.301094519990897425e-02,3.477139143977225899e-02,-2.679936858953730905e-01,-5.434572248005409278e-02,1.528128923418989871e-01,-1.567460285972686052e-01,2.543192782936785079e-01,-2.859640527140072663e-02,-9.162746307756819419e-02,2.038945943231738056e-01,7.083222617056406101e-03,-1.425048838485842850e-01,8.124043956667748034e-02,-6.866641092374858868e-02,6.263458764767149134e-02,6.525666110559669164e-02
1.303854124993737429e-01,-4.925121529725196012e-02,5.463287852825260416e-02,1.423732439472553679e-01,1.647542909222465823e-02,-5.033087873573638404e-02,1.626389125740388408e-01,-6.449053383406067042e-04,2.739087848965482408e-03,5.165597455061288201e-03,-1.133915491755033145e-01,-9.238559008804259065e-02,2.887589980966254188e-02,1.349126574062600725e-01,1.859876099510691105e-01,-4.887650447790292674e-02
4.286396892973698414e-02,-2.669405798139923292e-02,7.810598730557671843e-02,1.028228905126629122e-01,-1.736644211500788515e-01,1.997945401694778411e-02,-6.560468393695373379e-02,7.767858659696003087e-02,1.004352429999388896e-02,-3.927759413292619683e-02,-9.424387184563443043e-02,7.295672716683743175e-02,-4.904039272201998756e-02,1.850360340199586062e-03,3.712310108244309959e-02,1.684298349346136092e-02
8.479017661579746346e-02,1.103357802852764635e-01,-3.675668053188019258e-02,-1.287667480153147359e-01,1.799496937671658525e-01,1.101261364959071898e-01,1.115147420284756663e-01,-2.817690445826670498e-02,8.258558689443518119e-02,-7.710264349380580029e-02,-2.485696910996004760e-02,-2.804102458893487082e-02,-6.820610478052913095e-02,-4.488293547592547839e-02,1.606862944345266442e-01,2.311455082690372365e-03
-3.556106532188074709e-02,-1.225560834977379443e-02,-1.041139048619754703e-01,-7.450365362740962727e-02,-1.436060558669396414e-01,-5.783462096056624091e-03,1.406313782653114686e-01,-5.408088387935094943e-02,4.070564917322627707e-02,1.691793291923460174e-02,-9.282637995937648157e-04,-8.497183792037787953e-03,1.283199182305168051e-01,1.584410013729211641e-01,-1.043573019633186050e-01,-1.734562642552717193e-02
7.595523970742434905e-02,-1.025299254510336766e-02,4.678227286064640111e-02,-4.050125481535360450e-02,5.921311382826388581e-02,3.006493852923597387e-01,-3.062051670048715479e-02,1.160649690044692761e-01,-4.767567202870814924e-02,-3.327039620705107836e-02,9.972146734126141610e-02,4.178800473183863495e-02,-1.718726236484258152e-02,-3.157335352443624288e-02,-2.367886825513778604e-01,7.072186898570009816e-02
1.708769313387934474e-01,1.654447935627985089e-01,-1.326577404829869522e-01,1.872594802989624441e-04,-8.241168210770410951e-02,1.235218627509766520e-01,-3.373375058277616745e-03,-1.106021009193653981e-01,1.606664229782026609e-01,8.494046210768146921e-02,-7.989115461469031843e-02,-1.038876310147174298e-01,-1.959114572839664170e-01,6.690747804532293230e-02,7.315218456392358348e-02,7.605692383994977490e-02
-6.198481024153323915e-03,-4.139845280366039049e-02,-9.645129828721010767e-03,-7.518373812013123825e-02,-3.426105607923091156e-02,1.048236459152239730e-01,5.388999835291841123e-04,-1.750144949458487531e-02,7.637645875809440099e-02,-2.647825002374304404e-02,-2.717636754134300503e-01,-8.161888279042273098e-02,1.595657966718838361e-01,-1.273868768130341778e-01,2.642828858114931734e-02,2.296547205714745132e-01
7.427947632556008983e-02,1.710316231155868394e-01,-1.883418559906573364e-01,-1.065525486425258350e-01,-5.075589746534747704e-02,5.079481501548685496e-02,-6.905185668316660141e-02,-6.331831722865832734e-03,-6.614076929554357775e-02,5.132192110537658891e-02,2.318580022033955856e-02,1.141610562649475469e-02,-5.005546331978738550e-02,2.137218752086482709e-01,2.382542177135071881e-03,-1.874573411191846617e-01
2.382293868554956617e-01,1.188227085833659658e-02,-1.962764770390776903e-01,7.030380970735450319e-02,1.531884523209576798e-01,1.070482358745721285e-01,7.718393746936413891e-02,-1.200249314075563234e-02,1.055420326883904636e-02,-1.673080095660539612e-02,2.236477783194346092e-02,-1.573039980390831261e-01,-4.968320879171983506e-02,1.275989138484874275e-01,6.652946159481842869e-02,7.178968353605696961e-02
-1.074128379214664974e-01,-4.939344917282184610e-02,2.368803571990838464e-01,1.117825986818843376e-01,-2.455071967036026592e-01,-9.560424353776397766e-02,-3.739692423300766677e-02,7.444437161606032305e-03,-5.415870065962735680e-02,-1.797099628214085532e-02,-6.062735882839831447e-02,3.730119910301255004e-02,-9.103606521614093783e-02,-1.004841262856643880e-01,1.224060205196160211e-01,3.076127021848407139e-02
5.322948588075826493e-02,-3.436567384623856469e-02,-2.102205089746771449e-01,2.744575623222544891e-02,-1.672172463736387726e-02,-2.180114371640229365e-02,5.601500422426397563e-02,6.668520230832797324e-02,6.775272749609939638e-02,-1.230875841449186048e-01,3.729427895417236627e-02,-5.518241151662550692e-03,-4.874356878478636190e-02,-3.081663196280715056e-02,6.688853410696538049e-02,5.257318381411835162e-02
-1.227976747603359842e-01,5.998089741791812202e-02,-8.921218082178450359e-02,4.079163684536979417e-03,2.756238965901047777e-02,-6.663103822302218759e-02,-1.012524557713732065e-01,-1.494312967934696701e-02,6.482278948840303201e-02,8.902835381695944905e-02,1.657700452349297748e-02,2.249524420972193184e-02,-1.044434089731112181e-01,2.979048079669155413e-02,-9.005239180851276615e-03,1.143416609498331127e-01
-2.414504020913288695e-01,-1.546849658525095705e-01,-1.119774468007973950e-01,5.424402941019934588e-02,-7.926354690653170110e-02,1.473566606018152925e-01,6.206909067054766638e-02,2.603352029686512026e-02,-1.193707287846972331e-01,5.488171156318222277e-02,7.679251786555596482e-02,7.999923526898555792e-02,-2.759502258595603053e-02,-7.211508933323784731e-03,5.165579961078492488e-02,7.053742562177944819e-03
-1.757414122435674853e-01,4.887202303714577312e-02,-6.629714492950011806e-02,-5.993104929038395312e-02,1.970535770784636043e-01,-1.491016200602288677e-01,-1.783909225646311825e-01,1.033142792542520727e-01,-6.125510651372678694e-02,-4.319702833618777049e-02,-1.920547017462519435e-01,-6.054774927447548194e-03,-1.192938294877876615e-02,-3.233599488203253713e-02,6.348977595912219662e-02,1.169003670400363681e-01
-4.446650579247801716e-02,-2.874951398382266099e-01,-1.202627935583038266e-01,1.072667958496253959e-01,7.622790667625167771e-02,-7.649417996720941915e-02,3.477222650451494701e-02,6.061688415771815386e-02,-4.354787620286515448e-03,4.907116816228374034e-02,-6.915425068963108879e-02,-1.269385069608688354e-01,8.852460545057283525e-02,1.159904505564099964e-01,-7.033482231069188018e-02,-3.585074968120607886e-02
9.954145738433517465e-02,5.546192881234357497e-02,-9.137688204646110535e-03,9.825857036713614434e-02,4.598761507907056512e-03,1.175619563078542235e-01,4.311493989304437946e-02,-1.684300442011350540e-01,4.368314684978003015e-02,-8.425860969386661514e-02,8.266317202325343394e-02,-3.100330242887139320e-03,-7.252425393173211887e-02,2.175863307127201551e-02,2.154502848359570941e-02,-6.384146487231845413e-02
-2.590137533843517303e-02,1.908076116301257175e-01,-2.647442817687988281e-01,-1.695749610662460327e-01,6.690889159447266366e-03,-1.841030111060529273e-02,1.461928952669167003e-03,-7.230406999588012695e-02,-1.449946612119674683e-01,-3.430453711974454367e-02,7.012497591359381777e-02,1.600074321031570435e-01,-1.122527569532394409e-01,6.483625138719384395e-02,1.222507211967247542e-01,-6.262693790606332911e-02
-2.011849731206893921e-01,5.587783455848693848e-02,5.587535724043846130e-02,-7.095311582088470459e-02,9.690503031015396118e-02,-6.128760986030101776e-03,-1.016929894685745239e-01,-1.841434836387634277e-01,1.438877582550048828e-01,1.275933235883712769e-01,-5.176864936947822571e-02,-3.065904974937438965e-02,-1.054771617054939270e-02,-8.933632820844650269e-02,1.712959855794906616e-01,-1.060017943382263184e-01
-1.719611411810852419e-01,2.174746001063695422e-01,5.611565549788444240e-02,-1.000974103808403015e-01,-1.631428450345993042e-01,-1.438626947151178115e-02,1.082271561026573181e-01,-8.980300652757780555e-02,-1.170893722854734059e-01,8.110411712594486899e-02,1.431879252195358276e-01,7.604974781369122638e-02,-1.666193641722202301e-02,-7.519088919736591214e-02,9.354669012906123571e-02,4.794269055128097534e-02
-9.909827813182303657e-02,1.210090481186567452e-01,-1.483847536508449139e-01,6.146050244569778442e-02,-2.764057619285467671e-02,7.458234295939955572e-02,-4.278013855218887329e-02,-7.134460566892614208e-02,1.028733043266925051e-01,1.627711014199306749e-02,5.205363844085048042e-02,4.394482245447761670e-02,6.591900682803282507e-02,-2.148015241213052651e-01,7.351557179929686658e-02,2.033845266066907631e-01
-4.425599228672183472e-02,4.514731475827066243e-03,-6.374513237625478723e-02,-2.447044326148670734e-01,9.351409642308283754e-02,-9.003176446865984728e-02,-2.008800862201903792e-02,5.230533313754026636e-02,1.211865059672789791e-02,3.322881321351603412e-02,-6.235113680388520985e-02,2.304900848479052300e-01,8.646727947023860605e-02,-5.269342844215355037e-02,5.210029922693593107e-02,-1.429246308378910868e-01
2.356323170721452698e-02,-2.539635702422131658e-01,-1.117116953932395518e-01,1.266404045571789538e-01,4.175229873006358616e-02,1.541374191832431961e-01,3.801116550023400653e-02,1.022243453888345144e-01,-9.294076811613649625e-02,-2.182705281528298791e-01,-5.651766120964352158e-03,-1.604347629559441657e-01,1.157894403853965137e-02,-1.761288092882296041e-02,1.160656016392067613e-01,1.794068292904258399e-01
-1.210321788057626691e-01,2.165058114422890867e-02,1.004002081699795212e-01,-1.599658594384436583e-01,1.127940987574902465e-01,-2.179600460313508847e-01,-1.914798647258155739e-01,3.858106387033810591e-02,-6.268389848457900371e-02,2.187157404599435750e-01,-1.113065195714737499e-01,-1.624817761056118054e-02,2.901295358006160396e-02,7.398820692060326110e-03,-1.510705250216233253e-01,1.551910264865293543e-01
1.201332962182277697e-03,1.048731293760738481e-01,1.046707136728741716e-02,-3.732149027863007618e-02,1.172483255703582472e-02,-2.613739244173984844e-02,-1.704270307093835868e-01,-3.153791073245537646e-02,5.200545703334569225e-02,8.582370799683758378e-02,-1.012607795930762222e-01,1.039125275091440093e-01,-1.096940499261367385e-01,-2.252683941537725332e-02,-4.746987711264694099e-03,1.431305942336830173e-01
8.773481550281303498e-02,-1.426990381544719355e-01,1.656512265268639261e-02,2.950789803047604298e-02,4.026958705060224020e-02,-7.494794584567898710e-02,-2.752469376525823463e-02,8.302399750769495768e-02,-1.071648392542101647e-01,-4.422558314081470598e-02,1.085359919386519323e-01,-2.027125587982148147e-01,-9.983263998861957589e-03,-8.906749556797421974e-02,4.220997361582540935e-02,4.064031985052452001e-02
-5.597315467592522964e-02,7.832381496232443396e-02,-3.568536973452340888e-02,-9.225600997516636426e-02,2.196803791999855093e-01,3.789453787840102450e-02,1.488780121339914331e-01,1.009552182935085085e-01,7.831073918555375712e-02,-1.615371861180392443e-02,7.579306844968414225e-02,8.604005469730435784e-02,-1.360882209539369114e-01,1.766111182237182220e-01,1.324785652310502826e-01,-5.669882019793703876e-02
3.941061493112130165e-02,1.965603946668644797e-01,8.549281508285677678e-02,-1.354390520984338764e-02,8.441549496592415380e-02,4.256414916335415910e-02,-5.847637397891958244e-02,1.294635732597013700e-01,-8.210400312344745544e-02,1.875567086244700477e-02,7.407900185057769704e-02,-9.939963912036375859e-02,-5.199582217778697668e-02,4.757253353591295308e-02,6.093001963661626164e-02,5.283975251160200060e-02
-9.564892456165097201e-03,3.543213949140522345e-02,-1.026678413023773828e-02,-8.832210713620725073e-03,-5.924753718477404618e-02,-3.965363366873830842e-02,-6.359320559795378358e-03,4.783657849822020580e-02,1.193486390994458191e-01,3.182625673707661917e-02,1.234858642615108693e-01,7.969412423703331472e-03,7.715928353602308221e-02,1.383820515209972513e-01,-5.085874200059592454e-02,-2.238327244958782103e-02
-3.693066105010966993e-03,5.885115538668106439e-02,-1.014594070793854996e-01,-2.817426505231139799e-01,1.718637048952587065e-02,-2.950366884689026303e-02,-3.669790113714110902e-02,-4.849911565906950273e-02,-1.162808829662367316e-01,-1.790123124763578488e-01,-1.087773818261439374e-01,-8.577253154788877509e-02,-5.818093609890051532e-02,-7.494316077798934828e-02,2.256096259119688696e-02,1.013094221830215247e-01
4.585787097657600953e-02,5.142420406979297809e-02,1.565993677051018551e-01,-4.654052961108379183e-02,-6.656484557617403652e-02,8.622833883242719821e-02,-3.516749962937115725e-02,-2.360235837570741069e-01,-1.627341923038461147e-02,-9.591236720606843846e-02,1.144559389219921286e-01,-1.594892113863921601e-02,-4.755678908479410438e-02,-2.211344542782853750e-01,-1.845412255709106830e-01,-5.969913010565486289e-02
-1.105696151177557596e-01,-9.105901591626786029e-02,2.938159152621011572e-02,-9.867301950873752503e-02,1.565973277925936102e-02,1.791012738034662988e-01,-5.251636800089443113e-03,-6.986571921265749552e-02,-3.705791717927198192e-02,-9.979780748437860893e-02,-7.798698180670271540e-02,-5.859435694493697611e-02,-2.038245942299785618e-01,-1.118935379145113984e-02,-6.111303392799527501e-02,-7.387340000605835399e-02
-4.857936696111608832e-02,7.245754395547088222e-02,-1.193496884241689315e-01,-1.665376674736762652e-02,1.610338159487127996e-01,1.849706030127329370e-02,-9.678547612137233802e-02,-2.690091780686998391e-02,-1.731658160189013529e-01,2.562254353301796073e-02,-4.253057574621360581e-02,1.772805238025654262e-02,7.136933445013937671e-02,8.264921148111170623e-03,2.309357610317874787e-02,-2.624349169535022952e-03
5.570918266255953100e-02,-2.170735257334003299e-01,-9.050268157776386602e-02,7.197079124671290629e-02,8.180587492006452521e-03,1.048460999269877902e-01,-1.120386288376595818e-01,-1.839212105494425487e-03,1.265294652388604391e-01,9.025235005060494586e-02,-7.636455459043572924e-02,4.822692049544530235e-02,-1.331707980854730522e-01,-5.086646843665221240e-03,2.478265218734350128e-01,3.335325763576690861e-02
-8.246704467012477835e-02,1.259250993213285597e-01,7.738719655786496787e-02,-2.554051001334300963e-02,-1.168357811588975892e-01,-2.565514158495929564e-02,-4.770638318668840583e-02,-2.821957231549276912e-02,9.345367560427320086e-02,-3.676872437472411548e-02,3.079212204212211645e-02,-1.787317421690204355e-02,-1.686363947100230076e-01,6.653289666583739326e-02,-4.691812706166231806e-02,-1.032413501265042610e-01
-1.207373234891875313e-01,-4.257231241844650071e-02,2.505537332856277999e-02,5.931446190686529008e-02,-5.217198770480990788e-02,-1.837234382620636097e-01,-5.703822227257093758e-02,-8.681679404951125889e-02,-1.522197773681313038e-01,-6.159497133410241076e-03,1.220681326701367198e-02,-1.087030181702175469e-02,-3.145358777176454623e-02,2.275313802331568880e-02,-8.836601506402530504e-03,-2.816255495832820088e-02
-7.717679207849137413e-02,-7.262904835791061942e-02,1.003643266469111950e-02,-1.063793767633676168e-01,3.244767635916900872e-02,-3.343228418361832155e-02,-7.157519882775886799e-02,9.218307405040171432e-02,1.304649410400031684e-01,7.422485239030773840e-02,-1.285724270815094550e-02,8.017251397819791237e-02,3.388247678937261753e-02,6.154594227655252325e-02,9.248470353414095513e-02,-4.663673536633439198e-02
7.746384166797604109e-02,2.212664972205402591e-03,-4.325759384275329467e-02,-1.006357828981663260e-01,1.718097045101956155e-01,-1.387807454229914583e-01,1.597115536048931972e-02,-6.389683285181035899e-02,8.239249001037687870e-02,-5.752228531632534725e-02,1.790900114234366125e-01,-8.580483353898671339e-02,6.386280728541571250e-02,6.501829188619012712e-02,1.212050486424942619e-02,1.374709235277240538e-01
-1.049095519705645074e-02,2.734307605756072235e-01,5.811736904016129301e-02,6.214403514894684122e-02,2.433012941901324666e-02,-3.763751578298979439e-02,-9.683757626135047758e-03,1.425530499811422658e-02,8.317902372388630283e-02,-4.164866276278189616e-02,-5.317794174371215377e-02,-8.798547769868036994e-02,6.180912818223305294e-02,5.529200393175415229e-02,1.291133924754985784e-01,-6.373687817094619845e-02
-7.251818690013989155e-02,-2.483221549474876610e-01,1.335077647447810989e-01,-4.770975607641503302e-02,-3.306113794110387971e-03,-2.312784277546597878e-02,2.354330752223177115e-02,1.921431950979490821e-02,3.268823956586430768e-02,-3.836710561358547267e-02,8.823367579776342229e-02,1.484398880745629867e-02,8.566017823773108830e-02,2.977101708893314935e-02,-5.239611323565895873e-02,-1.548150324971482306e-01
3.106694581352087425e-02,5.106475168753066285e-03,-7.075405596308370626e-02,4.542242493675985315e-02,-2.010000172834907062e-01,-1.920426046171996859e-01,1.389932670335838338e-01,1.079497548171843846e-01,-1.181490309016468010e-01,-8.760771646487697240e-03,-1.406697518040657124e-01,3.331997650786888698e-02,-9.984773011819925159e-02,-1.172495671717115329e-01,-1.101269233436141803e-01,5.687286614865172396e-02
1.617588990250280467e-01,2.866056613140455234e-02,-1.665757670266621027e-01,-5.981916643870022199e-02,6.837993453632407181e-02,4.909011571373866900e-02,5.041089944097620901e-02,-1.094542801005715660e-02,7.203223400199476600e-02,8.513339932902574958e-02,6.364237298782149388e-02,-9.309107778619818419e-02,1.730961321018185117e-01,8.270828289187193150e-02,5.201956798100582091e-02,-4.421484507718531631e-02
-2.521974319167658019e-02,-7.115098256292995416e-02,4.476315123573471055e-02,-3.872523740275823911e-02,2.601571605731578529e-02,7.698826232370947764e-03,1.018014388159826922e-01,-2.527529163830877224e-01,5.499718893702265632e-02,3.864389722132433036e-02,-1.260248019297094402e-01,-1.321084608013012307e-01,2.119581151720240086e-01,-4.523924944351165323e-02,-4.505226824236707728e-02,-1.454772609483688528e-01
4.249113327796407574e-02,-1.125004489431977728e-01,1.161257169735336603e-01,1.342813860666680625e-01,-1.756257382740500361e-02,-6.535325116117540745e-02,1.326350194443648434e-01,-4.112953201854363527e-02,2.858615138734421635e-04,8.081972076823262796e-02,-1.518222348975228897e-02,-1.138832867145538330e-01,-9.932973598476735333e-02,1.694639057359381695e-01,6.175332373316599899e-02,-1.362147400541019460e-01
1.039814011881384920e-01,2.605641625070820311e-04,-1.073642918403645563e-01,-1.518303121625308449e-02,7.204762177600798623e-03,4.844390494728148533e-02,-5.761199017733531491e-03,1.203973837781773248e-01,3.152813070671446963e-03,-1.648133061264106525e-02,5.051400177791209173e-02,-6.068317964673042297e-02,-7.422779520387590146e-02,9.423365434761876713e-02,4.498583938992996301e-02,9.584766973083302943e-02
-4.713520407676696777e-02,7.588408142307656590e-03,-1.250189691781997681e-01,9.853774681687355042e-03,-6.858432741577491498e-03,1.450269118155738113e-01,1.850332648423691495e-02,-7.558810202209542695e-02,-1.828574576505251348e-01,6.091323216377508842e-02,5.862027934018029275e-03,2.028588019311428070e-02,6.562240551378639708e-02,-5.646972606731354150e-02,2.276565265235914737e-01,-9.086668646819449913e-02
6.356879323720932007e-02,5.116498097777366638e-02,-1.592935025691986084e-01,1.327041909098625183e-02,1.812834851443767548e-02,1.750729084014892578e-01,9.238336980342864990e-02,1.803643444118967487e-01,2.698840014636516571e-02,-1.385909345107450008e-02,-1.849156320095062256e-01,-1.526915580034255981e-01,-1.409111618995666504e-01,-4.059423878788948059e-02,1.168369799852371216e-01,3.951545871788919584e-02
-3.716594743784180921e-02,9.432450681924819946e-02,-4.491692346720732587e-02,2.147280424833297729e-01,4.733081534504890442e-02,1.630811918541326122e-01,4.206002876162528992e-02,-1.576643144473635627e-01,-9.025297752122921069e-02,1.425516585441979345e-01,1.086468175053596497e-01,-5.195813266144000409e-02,9.214736946250212668e-02,-9.621191838886353209e-02,5.518594665253351295e-02,-3.307551232643923811e-03
1.204810004351837271e-01,-1.813129528324708417e-02,-1.406719452140805515e-01,9.628906100988388062e-02,-6.726094564828599687e-02,-1.074838354630909265e-01,1.469649028444734995e-01,1.821037274109116311e-01,-7.201250629933464431e-02,-1.024346989279550924e-01,1.415221678070675004e-01,3.037732973704123651e-01,-1.082198896948492750e-01,-6.745774310650887173e-02,-1.554048558701850991e-02,8.093068906563305465e-02
-5.415305621227009536e-03,-1.011280961792014321e-01,-1.706592080627160612e-01,-2.311526617427261954e-02,2.573699168921770308e-01,-3.519242727074889387e-02,-1.413980420371316882e-01,-9.892279831867212270e-02,-3.140584506526308828e-02,2.722974829385460538e-02,-4.170728216775127645e-03,-3.138313889614963159e-02,-1.236419352962950524e-01,-7.038008831156103429e-02,4.473472436573899813e-02,-3.391437850958034517e-02
2.826364083485267270e-02,-7.899674472590589858e-02,7.454878082211280343e-02,-2.167561427518194250e-02,-4.899840203529493010e-02,-2.840059423635921121e-02,-2.131468482806084808e-01,-1.689483614517315324e-01,8.784687131549162586e-02,2.888973303278419280e-03,-4.912788113085397868e-02,9.092703245175925986e-02,-1.179693594289970143e-01,5.887608939556532306e-03,-1.959181340951090533e-01,8.303876425105372050e-02
-1.024366443740127863e-01,-1.825536913287635343e-01,1.107238911066690257e-01,-1.054375251047305895e-01,1.235114850626430893e-01,5.617114733152561712e-02,-1.407626409416593560e-01,2.950976005351013676e-02,1.911544848479707071e-02,-5.078007709423731919e-02,-9.765456997683941154e-02,6.655719561425144093e-02,1.332211824091027452e-01,-9.300437138904271706e-03,4.024952897214006953e-02,6.923604170534503055e-03
-2.014727814824190943e-01,-6.728036248489388527e-02,6.284465202067579526e-02,-9.780326161595764844e-02,3.299578342204939618e-02,-1.997811362285801806e-01,1.185790242992936783e-01,3.227063301474472623e-03,1.555895617404985387e-01,1.005888908586580754e-01,-1.295459479649707646e-02,-6.749162531546204491e-02,-5.379810669194906581e-03,1.863669925228350621e-01,-5.859839515759546202e-02,-8.415172184727781612e-02
-3.452670395096291145e-02,-4.037135238403344317e-02,-1.951523367899667960e-01,1.342252453569470205e-02,-6.446361569339664754e-02,4.670017229159384442e-02,1.054139473641271252e-01,-6.268428492399491514e-02,-4.253854965691061807e-02,-2.325804520751262316e-03,1.692226211259821866e-01,-7.173309237737157673e-02,1.132295817593274023e-01,-7.326100912582234059e-02,4.829023761640849344e-02,-1.059745259023170405e-01
2.710172805808230834e-02,-1.648806561448061814e-01,1.110032466472929968e-01,9.730973490528072034e-02,-5.776906445006302349e-02,2.106110958038698300e-02,-6.813043092120096844e-02,7.855405781274527044e-02,1.342742708598052559e-01,3.877390979687334038e-02,1.822045948268851134e-01,1.151186566592059535e-01,1.608581493277938534e-02,1.812901635758326080e-01,-1.173633317110898133e-01,-8.753256845906065564e-02
-1.715219793690847538e-01,-1.007079546930480518e-01,1.528875982777577747e-01,-2.504015050187824443e-02,1.106400327614665002e-02,-5.377480359634034812e-02,3.624256089005939430e-02,-8.135519597703932959e-02,-1.967169005762658962e-01,-8.327861137959757798e-02,-3.946464528212345613e-02,-3.920430078960635001e-02,8.153450283458596459e-03,-1.164988882752000521e-01,-4.909991412692704671e-02,9.206160506350880013e-02
7.679171686351837778e-02,-9.463449459220951709e-03,-2.037077452080993112e-02,7.640889336567724399e-02,-1.236425219811394527e-01,-2.924831921137638346e-02,4.502411001649164746e-02,-3.197133162541376805e-02,1.051143029631695924e-01,7.884348936975982269e-03,1.633361402240209870e-01,-1.478706953590744888e-01,-3.318779379201375335e-02,5.989449633023014030e-02,-1.876915106472565320e-02,-5.845413027201828982e-02
-1.436608314624224225e-02,-1.159974075370584501e-02,7.019228767383189904e-02,-7.080159631951943311e-02,-1.429359242841328204e-01,5.049774881266699822e-02,1.205696132748812488e-02,2.934571796049567638e-02,-5.060098006502011803e-02,-1.717838956974304665e-02,-1.498843474543796184e-01,-9.418434455795932081e-02,-6.139279456950907932e-02,-7.935381675128994061e-02,3.686096844856212584e-03,2.841455029543293875e-02
1.372827778506220398e-01,-1.672511157805800508e-02,1.094588038670707419e-01,1.062427507812344629e-01,-2.596330579823069584e-02,1.187588633776215374e-03,-1.129917255167178780e-01,-1.691871880630060332e-01,-1.492714855906145388e-01,6.569921740510409336e-02,6.816708361952805717e-03,5.191772962806240344e-02,6.442998120075243973e-02,7.592245657639296041e-02,-1.274553075279030168e-01,4.260035143270357594e-02
-8.639060940254239540e-04,-5.224279697700850988e-02,4.485697260635745920e-03,-1.085429804288651212e-02,-4.629744357018950041e-02,3.878755864269578524e-02,-6.203290187429577607e-02,-1.284243555303827833e-01,-4.676785033349517562e-02,-1.349772590713484988e-01,3.653013049029141257e-02,-1.572757939473329314e-02,-7.118742953260864814e-02,-3.715648646154079415e-02,-1.413992035815603288e-03,3.677888983384036692e-02
-3.311879693347918874e-02,-3.921207541500670857e-02,-1.369602749595912883e-01,-6.948677391528690350e-02,-1.937751608534199477e-02,3.256286106521599777e-02,-4.502835548683492561e-02,2.519106669480208893e-02,-3.576670212532917503e-02,7.455321468682996056e-02,-6.726469375243482318e-02,3.536793765749735030e-02,1.816875204980874514e-01,-1.200110041330754024e-01,-3.862681506490694971e-02,7.798773683486048824e-02
5.415945755550666263e-02,1.458121613341099021e-01,-1.112405416481578868e-01,-2.418166207098693121e-01,-8.830734176399346325e-03,-1.444990286870796448e-01,-5.921326867004450545e-02,1.524870860733529288e-02,-1.610674763513113561e-01,-7.503398285814455448e-02,-1.481762146228522425e-01,-1.975520256110030459e-02,-1.253077756369975759e-01,7.899139044840630675e-02,-5.946393355529508429e-02,-5.262225492049049658e-02
-1.975924843954999233e-01,-2.070694000723527495e-02,6.886414201889595743e-03,4.559853722253137676e-02,-1.123648894824782474e-01,1.144553978624127666e-01,8.776899619241951278e-02,-5.705964440500777002e-02,5.820680201397232523e-02,-1.237931321271759089e-01,-9.828436205498747302e-02,1.720160840682183334e-02,2.598510755941507711e-02,1.092281123872720361e-01,1.293512834964842817e-01,6.210528522946034968e-02
2.715304527297135451e-02,-1.078931170917991622e-01,7.469808832065750158e-03,-1.768913203973170312e-01,6.505463281985157664e-02,-7.008429731013166020e-02,1.606865582738161713e-01,-3.823405114300726382e-02,1.438424694882911581e-01,2.985448289325631777e-02,2.127087815486934375e-01,5.840900411158145289e-03,4.994029688038836845e-02,-1.235603826941140682e-01,1.428987388282578763e-01,1.463127904404544211e-01
2.220447025427034760e-01,-6.020373125728895047e-02,-7.035608716380181704e-02,4.322359704497102939e-02,-2.136958609890182714e-02,2.385668650094885379e-02,-7.051080027856304611e-02,-1.223942662861077224e-01,5.155330038412664351e-02,-3.724532629995280786e-02,-7.832182043162383422e-02,-2.882190019019503779e-02,6.721184873076090083e-02,-1.274209005954602958e-01,-1.523098621026690580e-01,-1.045376685387680027e-01
-2.078847599089499454e-01,2.017627066822598181e-01,5.102271807058045283e-02,-1.004526963229182002e-01,7.438838373286671413e-02,-9.625336790304572787e-02,7.611970521920952137e-02,3.726245829328611592e-02,1.408763931727321506e-01,-1.859060460740025178e-02,-1.077079115124257580e-01,-5.685945841278794433e-02,1.058031357215440948e-01,-4.050043047755025327e-02,-2.057515451643130433e-01,-1.175683825833928609e-02
